tree
version=v4
num_class=1
num_tree_per_iteration=1
label_index=0
max_feature_idx=39
objective=regression
feature_names=Column_0 Column_1 Column_2 Column_3 Column_4 Column_5 Column_6 Column_7 Column_8 Column_9 Column_10 Column_11 Column_12 Column_13 Column_14 Column_15 Column_16 Column_17 Column_18 Column_19 Column_20 Column_21 Column_22 Column_23 Column_24 Column_25 Column_26 Column_27 Column_28 Column_29 Column_30 Column_31 Column_32 Column_33 Column_34 Column_35 Column_36 Column_37 Column_38 Column_39
feature_infos=[-7.3296593254597449:1038.2207048112584] [93328.300000000003:118882.8] [0:118384.37954712943] [0:118151.10074665053] [-0.0073856946934968302:0.0073467109945237908] [0:3.2725438253228085e-06] [-3056.6999999999971:3093.6999999999971] [0:5943850.7718490129] [0:3.2705089399713246e-06] [0:5940127.2500264393] [0:117767.78350000008] [0:118788.2] [0:501.55828310848199] [1.0000009185688699:1.0347299398887952] [1.0000009185688699:1.0347299398887952] [0.099999999991268851:3943.8000000000029] [0:1.1878715756768701e-05] [-2218.6000000000058:2975.5999999999913] [0:1.2596317371106025e-05] [0.099999999991268851:3943.8000000000029] [0:89.30157764968321] [-0.281982421875:0.1046142578125] [0:4.3590438635464325e-06] [-0.298095703125:-0.0936279296875] [0:22920457.113957882] [0:118078.89999999999] [0:118341.85232480988] [0:1973468.964969272] [0:1.1885205235341231e-05] [93429.958236444814:119222.40470263024] [0:118882.8] [0:1320155263.7706201] [0:22933002.933328439] [0:118406.47631712795] [0.276123046875:0.509765625] [0:22803985.2757852] [0:9.4478011713789148e-06] [93429.8763325904:119222.19797087974] [0:1.0874885311797668e-06] [0:9.4656125748336419e-06]
tree_sizes=3118 2558 2549 2604 2540 2567 2586 2565 2575 2558 2561 2511 2538 2567 2531 2517 1855 2521 2562 2545 2536 2551 2564 2543 2520 2590 2586 2549 2570 2112 2558 2565 2350 2534 2246 2551 2464 2545 2555 2530 2538 2545 2530 2551 2572 2518 2556 2536 2455 2558 2552 2557 2538 2544 2544 2573 2563 2509 2075 2557 2544 2554 2306 2520 1941 2574 2437 2533 2409 2314 2089 2506 1651 1998 2560 2518 2505 1696 2018 2528 2083 1851 2279 2372 1922 2546 2002 1642 2250 2323 2343 2544 2012 1707 2491 1637 1323 1495 1396 644 1340 1325 1475 1077 1820 1609 1819 1636 1779 1646 1399 2295 927 1076 2074 2151 1721 1217 1996 2234 2185 2393 2444 1923 2549 2093 1762 1999 1763 2029 1604 1704 1390 486 1629 956

Tree=0
num_leaves=31
num_cat=0
split_feature=22 4 34 20 18 28 18 22 23 15 20 18 38 12 20 7 31 6 34 31 39 15 1 38 18 16 34 11 16 35
split_gain=4.49207e-06 4.28449e-06 2.68319e-06 1.29329e-05 3.86576e-06 2.59887e-06 2.47619e-06 2.46526e-06 2.3321e-06 2.21331e-06 2.21242e-06 6.09423e-06 2.47497e-06 2.0847e-06 1.66378e-06 1.61505e-06 3.2439e-06 1.43561e-06 1.62803e-06 1.41117e-06 1.37917e-06 1.38786e-06 1.12302e-06 1.3553e-06 9.56591e-07 9.01751e-07 8.99731e-07 9.47088e-07 8.67237e-07 9.55558e-07
threshold=2.1124408429981043e-07 0.0031616054600746841 0.38708496093750006 51.291117924981059 5.8997128171053398e-07 9.9579384065557275e-07 2.1485504433904627e-07 3.5869309795532336e-08 -0.21502685546874997 456.05000000000297 51.463956740425616 1.4580270010741476e-07 7.9391689648500293e-08 112.26181753089961 37.834736907619394 43710.484294143804 23583751.570328828 -309.45000000000431 0.39465332031250006 49435714.500250168 1.3271773059912495e-06 76.900000000001469 94409.31491979344 1.1942939496212234e-08 3.0407154357367897e-08 6.966592711927555e-08 0.39025878906250006 94525.800000000017 1.0987749454231696e-06 728282.17212963221
decision_type=2 2 2 2 2 2 2 2 2 2 2 2 2 2 2 2 2 2 2 2 2 2 2 2 2 2 2 2 2 2
left_child=2 5 3 -1 7 -2 -7 -5 -9 19 14 -12 15 -10 -4 -13 -17 -18 -19 -8 21 -21 -20 -24 -16 -26 -27 -28 29 -29
right_child=1 -3 10 4 -6 6 9 8 13 -11 11 12 -14 -15 24 16 17 18 22 20 -22 -23 23 -25 25 26 27 28 -30 -31
leaf_value=1.1119287236312572e-05 1.1119287236312572e-05 1.1119287236312572e-05 1.1119287236312572e-05 1.1119287236312572e-05 1.1119287236312572e-05 1.1119287236312572e-05 1.1119287236312572e-05 1.1119287236312572e-05 1.1119287236312572e-05 1.1119287236312572e-05 1.1119287236312572e-05 1.1119287236312572e-05 1.1119287236312572e-05 4.3840382452934652e-06 1.1119287236312572e-05 1.1119287236312572e-05 1.1119287236312572e-05 1.1119287236312572e-05 1.1119287236312572e-05 1.1119287236312572e-05 1.1119287236312572e-05 2.0393571404602375e-05 1.1119287236312572e-05 1.986196471443087e-05 1.1119287236312572e-05 1.1119287236312572e-05 1.1119287236312572e-05 9.0860912406830039e-06 1.1119287236312572e-05 1.1119287236312572e-05
leaf_weight=2920 1155 158 1204 132 56 73 41 70 210 50 4793 259 70 1478 746 564 24 121 40 36 44 575 37 671 237 152 142 4751 56 99
leaf_count=2920 1155 158 1204 132 56 73 41 70 210 50 4793 259 70 1478 746 564 24 121 40 36 44 575 37 671 237 152 142 4751 56 99
internal_value=1.11193e-05 1.32945e-05 1.0873e-05 9.84916e-06 6.57532e-06 1.43652e-05 1.68921e-05 5.98387e-06 5.47498e-06 1.78187e-05 1.11193e-05 1.18862e-05 1.43899e-05 5.06677e-06 1.06451e-05 1.49584e-05 1.56059e-05 1.7594e-05 1.79902e-05 1.86063e-05 1.91784e-05 1.9795e-05 1.88836e-05 1.93446e-05 1.0149e-05 9.89031e-06 9.70058e-06 9.53217e-06 9.36588e-06 9.2333e-06
internal_weight=20964 2132 18832 4866 1946 1974 819 1890 1758 746 13966 6579 1786 1688 7387 1716 1457 893 869 696 655 611 748 708 6183 5437 5200 5048 4906 4850
internal_count=20964 2132 18832 4866 1946 1974 819 1890 1758 746 13966 6579 1786 1688 7387 1716 1457 893 869 696 655 611 748 708 6183 5437 5200 5048 4906 4850
is_linear=0
shrinkage=1


Tree=1
num_leaves=31
num_cat=0
split_feature=21 4 21 38 10 9 19 18 6 23 5 23 7 27 6 20 18 12 21 4 22 31 11 13 13 1 19 20 7 34
split_gain=1.75772e-05 7.22571e-06 7.03023e-06 6.18429e-06 8.49581e-06 4.7239e-06 4.03816e-06 3.75914e-06 3.56769e-06 3.01083e-06 2.75316e-06 2.44991e-06 6.25365e-06 7.17684e-06 5.05772e-06 4.758e-06 4.31864e-06 5.01445e-06 5.26979e-06 4.5151e-06 4.27264e-06 5.82021e-06 3.67508e-06 2.37944e-06 2.144e-06 1.8333e-06 1.65681e-06 1.68258e-06 1.62071e-06 1.29631e-06
threshold=-0.10397338867187499 -0.00076740956017453375 -0.053329467773437493 1.2241476797917541e-08 108668.85300000015 30962.07500682327 84.349999999998559 4.4623868322049834e-07 508.54999999999569 -0.14776611328124997 1.2039218977787737e-08 -0.14483642578124997 39109.15368097039 111024.30894744104 39.650000000001462 52.661560228811645 5.7387388602770437e-08 98.266393886316465 0.073516845703125014 -0.0006336336131741655 6.113077551190882e-08 175578026.87595055 102618.10000000002 1.0048762375316076 1.0004980182261083 94409.31491979344 38.349999999998552 73.363184391589428 55704.059375507197 0.32702636718750006
decision_type=2 2 2 2 2 2 2 2 2 2 2 2 2 2 2 2 2 2 2 2 2 2 2 2 2 2 2 2 2 2
left_child=3 2 -2 -1 7 -4 -7 9 -8 10 -5 12 -3 16 -13 -16 -14 -18 19 -19 -17 22 -22 24 -12 -21 -27 29 -24 -28
right_child=1 11 5 4 -6 6 8 -9 -10 -11 23 14 13 -15 15 20 17 18 -20 25 21 -23 28 -25 -26 26 27 -29 -30 -31
leaf_value=0 0 0 0 0 0 0 9.5420933909939242e-06 0 0 0 0 0 0 0 0 0 0 0 0 0 0 0 0 0 -8.1727363592935757e-06 0 0 0 -8.2962664135518247e-06 5.7832288043933416e-06
leaf_weight=2509 900 3264 107 76 2355 153 892 91 20 130 138 1627 648 398 487 169 652 145 160 110 44 124 88 23 1510 40 25 64 919 3096
leaf_count=2509 900 3264 107 76 2355 153 892 91 20 130 138 1627 648 398 487 169 652 145 160 110 44 124 88 23 1510 40 25 64 919 3096
internal_value=0 1.02663e-06 3.98026e-06 -2.06198e-06 -3.20868e-06 6.5576e-06 7.64264e-06 -5.77989e-06 8.90372e-06 -6.32719e-06 -6.87899e-06 1.04552e-07 8.35699e-07 2.01351e-06 -2.68316e-07 -2.65354e-06 2.83068e-06 3.42607e-06 4.15744e-06 4.67596e-06 -4.29445e-06 -5.49405e-06 -6.89845e-06 -7.32061e-06 -7.6124e-06 5.11857e-06 5.3399e-06 5.493e-06 -7.66751e-06 5.66917e-06
internal_weight=20964 14132 2072 6832 4323 1172 1065 1968 912 1877 1747 12060 8602 5338 3458 1831 4940 4292 3640 3480 1344 1175 1051 1671 1648 3335 3225 3185 1007 3121
internal_count=20964 14132 2072 6832 4323 1172 1065 1968 912 1877 1747 12060 8602 5338 3458 1831 4940 4292 3640 3480 1344 1175 1051 1671 1648 3335 3225 3185 1007 3121
is_linear=0
shrinkage=0.05


Tree=2
num_leaves=31
num_cat=0
split_feature=21 9 10 34 12 20 21 15 6 28 18 18 34 27 23 35 23 5 25 15 23 31 22 9 22 18 16 22 3 1
split_gain=1.58349e-05 5.45585e-06 6.10928e-06 5.34074e-06 6.32351e-06 5.10031e-06 7.14714e-06 1.21557e-05 4.93804e-06 3.83509e-06 3.23884e-06 2.93323e-06 4.79254e-06 4.69358e-06 3.2444e-06 3.62445e-06 1.26025e-06 2.60195e-06 2.60764e-06 1.56339e-06 1.09333e-06 1.48733e-06 1.94083e-06 1.18536e-06 6.54606e-07 6.8206e-07 7.18733e-07 6.19255e-07 1.19314e-06 5.8132e-07
threshold=-0.10397338867187499 22415.334953874593 107616.52150000009 0.36462402343750006 117.14182532241976 42.367634857270481 -0.062026977539062493 155.45000000000439 -65.849999999998531 1.4169960776386131e-07 4.5766878358826113e-07 1.7002827945044447e-07 0.39099121093750006 115338.88948808395 -0.24688720703124997 1044920.8969620836 -0.17633056640624997 8.8541285416337433e-08 110399.20000000001 436.69999999999715 -0.14447021484374997 33541993.846827537 3.941856376968393e-07 278461.37534822512 2.3996435172720938e-07 2.2061240928799554e-08 8.7857655945112544e-08 4.9553021881574326e-08 94831.889994954952 110126.648105933
decision_type=2 2 2 2 2 2 2 2 2 2 2 2 2 2 2 2 2 2 2 2 2 2 2 2 2 2 2 2 2 2
left_child=1 -1 3 -3 -5 6 -2 -8 -9 -6 -11 -7 -13 14 -14 20 17 18 19 24 21 -16 23 27 25 -4 -27 -23 -29 -28
right_child=5 2 16 4 9 11 7 8 -10 10 -12 12 13 -15 15 -17 -18 -19 -20 -21 -22 22 -24 -25 -26 26 29 28 -30 -31
leaf_value=0 0 0 0 0 0 0 0 1.3982336433088876e-05 0 -1.3810016700985492e-05 0 0 0 0 0 0 0 0 0 0 0 0 0 0 0 0 -4.446142373125659e-06 0 1.1485768626248687e-05 0
leaf_weight=1407 910 89 23 477 46 7385 673 441 28 533 56 2617 73 226 890 67 1710 325 604 41 202 20 31 21 22 90 1382 39 509 27
leaf_count=1407 910 89 23 477 46 7385 673 441 28 533 56 2617 73 226 890 67 1710 325 604 41 202 20 31 21 22 90 1382 39 509 27
internal_value=0 -1.97166e-06 -2.7221e-06 -6.75619e-06 -7.82976e-06 9.60139e-07 3.53444e-06 6.17176e-06 1.25507e-05 -1.14996e-05 -1.26033e-05 1.0892e-07 1.2619e-06 3.05994e-06 4.10381e-06 4.70014e-06 -3.9128e-07 -1.22899e-06 -2.16936e-06 -3.25763e-06 5.31491e-06 5.81695e-06 9.40201e-06 1.00641e-05 -3.66404e-06 -3.83333e-06 -4.00715e-06 1.04998e-05 1.0821e-05 -4.28463e-06
internal_weight=20964 6832 5425 1201 1112 14132 2052 1142 469 635 589 12080 4695 2078 1852 1779 4224 2514 2189 1585 1712 1510 620 589 1544 1522 1499 568 548 1409
internal_count=20964 6832 5425 1201 1112 14132 2052 1142 469 635 589 12080 4695 2078 1852 1779 4224 2514 2189 1585 1712 1510 620 589 1544 1522 1499 568 548 1409
is_linear=0
shrinkage=0.05


Tree=3
num_leaves=31
num_cat=0
split_feature=21 4 21 9 10 34 34 13 6 23 23 34 27 4 13 18 3 32 6 35 37 18 13 18 28 39 23 7 10 23
split_gain=1.43454e-05 6.28467e-06 5.85791e-06 5.05737e-06 5.51482e-06 5.05115e-06 4.44922e-06 3.36047e-06 2.57853e-06 1.97665e-06 4.81243e-06 2.83061e-06 2.11963e-06 2.21311e-06 1.70759e-06 1.60736e-06 1.49118e-06 4.11119e-06 3.81225e-06 1.95979e-06 1.18355e-06 1.34674e-06 1.37299e-06 1.09081e-06 1.44808e-06 3.61053e-06 2.46534e-06 2.03754e-06 1.08999e-06 1.06044e-06
threshold=-0.10397338867187499 -0.00076740956017453375 -0.053329467773437493 22415.334953874593 107616.52150000009 0.35803222656250006 0.45275878906250006 1.0008247509555954 492.94999999999715 -0.18316650390624997 -0.24481201171874997 0.41516113281250006 8898.4253155832248 -0.00069788467466276561 1.0003379005282016 8.2555696964731862e-07 106536.71912639447 1349663.3534613887 44.850000000005828 53258.742312313094 102319.52160068207 5.0721879527803262e-07 1.0003165345042897 4.5766878358826113e-07 1.4006138614843424e-07 5.9618725544607663e-08 -0.14886474609374997 20354.329182618978 102513.86350000011 -0.17633056640624997
decision_type=2 2 2 2 2 2 2 2 2 2 2 2 2 2 2 2 2 2 2 2 2 2 2 2 2 2 2 2 2 2
left_child=3 2 -2 -1 5 -5 7 -4 -9 10 -3 -12 -13 -14 -7 -15 17 18 -11 -20 -21 22 -22 24 -16 -26 27 -27 -24 -6
right_child=1 9 6 4 29 14 -8 8 -10 16 11 12 13 15 23 -17 -18 -19 19 20 21 -23 28 -25 25 26 -28 -29 -30 -31
leaf_value=0 0 0 0 0 -1.1067881046053846e-06 0 0 9.0979791950472111e-06 0 0 0 0 0 4.529006688335419e-06 0 0 4.6513610066638039e-07 0 0 0 0 0 0 0 0 0 0 -1.1946355293559685e-05 -4.2752129515242399e-06 0
leaf_weight=1407 900 854 136 58 2514 34 191 824 21 3008 383 177 41 1897 207 20 2085 893 154 138 66 58 72 64 57 48 78 655 2214 1710
leaf_count=1407 900 854 136 58 2514 34 191 824 21 3008 383 177 41 1897 207 20 2085 893 154 138 66 58 72 64 57 48 78 655 2214 1710
internal_value=0 9.17639e-07 3.64951e-06 -1.87282e-06 -2.59763e-06 -6.44977e-06 6.00336e-06 7.37523e-06 8.54918e-06 3.36665e-08 1.21223e-06 2.59725e-06 3.3571e-06 3.87235e-06 -7.39982e-06 4.26636e-06 0 -7.04456e-07 -1.54072e-06 -2.92293e-06 -3.31401e-06 -3.58319e-06 -3.81932e-06 -7.76434e-06 -8.16003e-06 -9.34621e-06 -1.02607e-05 -1.12128e-05 -4.06323e-06 -3.18547e-07
internal_weight=20964 14132 2072 6832 5425 1201 1172 981 845 12060 3372 2518 2135 1958 1143 1917 8688 6603 5710 2702 2548 2410 2352 1109 1045 838 781 703 2286 4224
internal_count=20964 14132 2072 6832 5425 1201 1172 981 845 12060 3372 2518 2135 1958 1143 1917 8688 6603 5710 2702 2548 2410 2352 1109 1045 838 781 703 2286 4224
is_linear=0
shrinkage=0.05


Tree=4
num_leaves=31
num_cat=0
split_feature=21 4 21 9 39 34 25 23 13 13 31 15 6 32 27 20 24 24 21 31 4 34 0 12 4 13 34 25 13 27
split_gain=1.32926e-05 5.4919e-06 5.17289e-06 4.75412e-06 4.89189e-06 4.04717e-06 3.55257e-06 3.81538e-06 3.01766e-06 2.59484e-06 4.47961e-06 3.09422e-06 2.41566e-06 1.94455e-06 7.5027e-06 3.85464e-06 4.04699e-06 1.94383e-06 1.8659e-06 1.42491e-06 2.18344e-06 1.78955e-06 1.05319e-06 1.07141e-06 1.03349e-06 9.47053e-07 8.98413e-07 2.17922e-06 2.92693e-06 2.78175e-06
threshold=-0.10397338867187499 -0.00076740956017453375 -0.053329467773437493 22415.334953874593 5.2910202403048205e-07 0.45275878906250006 110399.20000000001 -0.14923095703124997 1.0008247509555954 1.0008518100969899 10458520.09772717 521.70000000000448 492.94999999999715 932558.48917540768 102377.96015411387 67.638128534200192 717639.85878431599 154805.6403894542 0.066802978515625014 25025150.149289772 0.0021098559090842344 0.32116699218750006 3.2215720318896062 348.30260545946425 -0.0006834966110623444 1.0005508991040892 0.41833496093750006 107526.40000000001 1.0008126544287392 24449.961726782789
decision_type=2 2 2 2 2 2 2 2 2 2 2 2 2 2 2 2 2 2 2 2 2 2 2 2 2 2 2 2 2 2
left_child=3 2 -2 -1 6 8 7 9 -4 -5 -11 17 -10 26 15 16 -15 -12 19 -18 21 -21 23 -19 -23 -26 27 28 -3 -30
right_child=1 13 5 4 -6 -7 -8 -9 12 10 11 -13 -14 14 -16 -17 18 22 -20 20 -22 24 -24 -25 25 -27 -28 -29 29 -31
leaf_value=0 0 0 0 0 0 0 0 0 8.6431359201844128e-06 0 0 0 0 0 0 0 0 -6.894034968522296e-06 0 0 0 0 0 0 0 8.9287373936254679e-06 0 0 0 -3.4438240728628615e-06
leaf_weight=1407 900 1077 136 1496 115 191 822 311 824 414 53 55 21 115 1012 104 228 2107 62 50 126 23 20 32 41 834 5701 523 312 1852
leaf_count=1407 900 1077 136 1496 115 191 822 311 824 414 53 55 21 115 1012 104 228 2107 62 50 126 23 20 32 41 834 5701 523 312 1852
internal_value=0 8.90775e-07 3.46861e-06 -1.7952e-06 -2.49987e-06 5.68356e-06 -2.94751e-06 -3.50112e-06 6.99317e-06 -3.93116e-06 -5.14748e-06 -6.02287e-06 8.10564e-06 3.32686e-08 1.37056e-06 3.86359e-06 4.74258e-06 -6.3776e-06 5.63961e-06 6.07471e-06 6.93195e-06 7.75856e-06 -6.62744e-06 -6.75015e-06 8.27817e-06 8.56047e-06 0 -7.72463e-07 -1.54075e-06 -2.63373e-06
internal_weight=20964 14132 2072 6832 5425 1172 5310 4488 981 4177 2681 2267 845 12060 2595 1583 1479 2212 1364 1302 1074 948 2159 2139 898 875 9465 3764 3241 2164
internal_count=20964 14132 2072 6832 5425 1172 5310 4488 981 4177 2681 2267 845 12060 2595 1583 1479 2212 1364 1302 1074 948 2159 2139 898 875 9465 3764 3241 2164
is_linear=0
shrinkage=0.05


Tree=5
num_leaves=31
num_cat=0
split_feature=21 4 38 10 21 34 35 13 6 32 27 20 16 31 21 4 34 39 4 5 13 0 0 34 26 39 22 4 16 27
split_gain=1.19934e-05 4.81401e-06 4.65755e-06 6.51149e-06 4.56069e-06 3.68252e-06 3.30482e-06 2.70906e-06 2.26407e-06 1.55901e-06 6.77378e-06 3.59528e-06 2.75575e-06 2.12251e-06 2.37265e-06 2.06586e-06 1.60162e-06 1.41209e-06 1.56378e-06 1.09093e-06 1.29294e-06 1.01734e-06 1.21309e-06 7.12151e-07 1.8416e-06 2.25131e-06 2.26623e-06 1.80053e-06 1.61173e-06 1.31657e-06
threshold=-0.10397338867187499 -0.00076740956017453375 1.2241476797917541e-08 108668.85300000015 -0.053329467773437493 0.45275878906250006 654151.0967130732 1.0008247509555954 492.94999999999715 932558.48917540768 102377.96015411387 67.638128534200192 4.0651917190213072e-07 25025150.149289772 0.066802978515625014 0.0021098559090842344 0.32116699218750006 1.7461865281799445e-07 -0.00052933435232496891 1.2039218977787737e-08 1.0004980182261083 0.91729855632407731 -3.8746587480625725 0.41833496093750006 107649.52992939441 1.4716199577247786e-07 3.941856376968393e-07 -0.00040563150306125204 1.3518769162514139e-07 168639.67147144448
decision_type=2 2 2 2 2 2 2 2 2 2 2 2 2 2 2 2 2 2 2 2 2 2 2 2 2 2 2 2 2 2
left_child=2 4 -1 6 -2 7 19 -6 -9 23 11 12 -11 -14 15 16 -15 -18 -19 -4 -21 22 -22 24 25 -3 27 -27 -29 -30
right_child=1 9 3 -5 5 -7 -8 8 -10 10 -12 -13 13 14 -16 -17 17 18 -20 20 21 -23 -24 -25 -26 26 -28 28 29 -31
leaf_value=0 0 0 0 0 0 0 0 8.2110314365518156e-06 0 0 0 0 0 0 0 0 0 0 9.462453716176292e-06 0 0 0 -7.3322616093086843e-06 0 0 0 0 0 -4.3780411192646385e-06 0
leaf_weight=2509 900 1225 89 2355 136 191 113 824 21 61 1012 104 247 51 66 128 149 56 721 158 27 331 1250 5701 514 381 35 40 1539 30
leaf_count=2509 900 1225 89 2355 136 191 113 824 21 61 1012 104 247 51 66 128 149 56 721 158 27 331 1250 5701 514 381 35 40 1539 30
internal_value=0 8.61797e-07 -1.68889e-06 -2.6835e-06 3.29676e-06 5.37975e-06 -4.90808e-06 6.63021e-06 7.68427e-06 2.88383e-08 1.22709e-06 3.6284e-06 4.49086e-06 5.08857e-06 5.99048e-06 6.5876e-06 7.37341e-06 7.85396e-06 8.83487e-06 -5.47817e-06 -5.75039e-06 -6.19079e-06 -7.08878e-06 0 -6.87742e-07 -1.40156e-06 -2.43555e-06 -2.98045e-06 -3.71266e-06 -4.08695e-06
internal_weight=20964 14132 6832 4323 2072 1172 1968 981 845 12060 2595 1583 1479 1418 1171 1105 977 926 777 1855 1766 1608 1277 9465 3764 3250 2025 1990 1609 1569
internal_count=20964 14132 6832 4323 2072 1172 1968 981 845 12060 2595 1583 1479 1418 1171 1105 977 926 777 1855 1766 1608 1277 9465 3764 3250 2025 1990 1609 1569
is_linear=0
shrinkage=0.05


Tree=6
num_leaves=31
num_cat=0
split_feature=21 38 10 20 39 31 15 31 16 34 4 22 4 36 24 39 29 1 1 22 34 27 32 22 34 5 13 15 24 12
split_gain=1.11536e-05 4.30005e-06 5.71918e-06 4.18554e-06 2.55034e-06 2.26224e-06 2.39612e-06 1.7375e-06 3.90453e-06 5.07552e-06 6.73987e-06 5.32527e-06 2.95809e-06 2.94669e-06 1.36748e-06 1.16406e-06 3.63677e-06 1.54935e-06 1.49145e-06 1.93983e-06 2.92665e-06 1.33272e-06 1.77136e-06 1.35959e-06 1.2334e-06 9.20695e-07 1.0123e-06 1.0197e-06 1.49263e-06 9.16631e-07
threshold=-0.10397338867187499 1.2241476797917541e-08 108668.85300000015 41.021892473465655 5.2910202403048205e-07 7468496.6907811714 93.849999999998559 69716597.614734963 1.9376644603838549e-06 0.33264160156250006 0.0042707182660695871 9.6732095934503905e-08 -0.0021218609337261404 2.2874605002785738e-07 144356.26805788928 1.9649786429089393e-07 102517.3195368031 107079.87029556898 103870.19120000002 3.1543991671619963e-08 0.39880371093750006 34600.888959549149 320041.65964689973 3.941856376968393e-07 0.32922363281250006 1.2039218977787737e-08 1.0004980182261083 521.70000000000448 245628.79824503322 99.280009814104332
decision_type=2 2 2 2 2 2 2 2 2 2 2 2 2 2 2 2 2 2 2 2 2 2 2 2 2 2 2 2 2 2
left_child=1 -1 4 5 25 -2 -7 15 9 -9 11 -11 -13 -14 -8 18 -17 21 -5 -20 -21 -18 -23 24 -24 -3 -27 28 -28 -22
right_child=3 2 -4 7 -6 6 14 8 -10 10 -12 12 13 -15 -16 16 17 -19 19 20 29 22 23 -25 -26 26 27 -29 -30 -31
leaf_value=0 0 0 0 0 0 0 0 0 0 0 0 0 0 1.0815105141933628e-05 6.3074159053645464e-06 0 0 0 0 0 0 0 0 0 -3.8712792828696925e-06 0 0 0 -6.5975395834115225e-06 3.3434379159462015e-06
leaf_weight=2509 433 89 2355 2817 27 238 21 474 277 130 27 22 111 614 888 676 140 404 1145 1091 723 147 78 33 1990 158 277 27 1390 1653
leaf_count=2509 433 89 2355 2817 27 238 21 474 277 130 27 22 111 614 888 676 140 404 1145 1091 723 147 78 33 1990 158 277 27 1390 1653
internal_value=0 -1.62182e-06 -2.5775e-06 8.3756e-07 -4.67524e-06 3.58141e-06 4.75379e-06 9.38083e-08 1.64049e-06 3.21175e-06 5.4551e-06 7.06292e-06 8.73985e-06 9.42875e-06 5.92486e-06 0 -8.68715e-07 -2.04785e-06 1.98559e-07 9.33783e-07 1.59958e-06 -2.55442e-06 -2.9006e-06 -3.33313e-06 -3.59591e-06 -5.04446e-06 -5.28319e-06 -5.65767e-06 -5.83582e-06 2.61012e-06
internal_weight=20964 6832 4323 14132 1968 1580 1147 12552 1655 1378 904 877 747 725 909 10897 3468 2792 7429 4612 3467 2388 2248 2101 2068 1941 1852 1694 1667 2376
internal_count=20964 6832 4323 14132 1968 1580 1147 12552 1655 1378 904 877 747 725 909 10897 3468 2792 7429 4612 3467 2388 2248 2101 2068 1941 1852 1694 1667 2376
is_linear=0
shrinkage=0.05


Tree=7
num_leaves=31
num_cat=0
split_feature=21 38 39 4 21 3 9 15 6 15 18 27 34 4 7 19 19 1 9 0 22 12 34 18 22 18 6 34 18 16
split_gain=1.0241e-05 3.95663e-06 4.95585e-06 3.93816e-06 4.15257e-06 3.8763e-06 3.52145e-06 2.49583e-06 2.53477e-06 1.69219e-06 1.41047e-06 3.75323e-06 2.67318e-06 2.10583e-06 2.04309e-06 1.70858e-06 1.38583e-06 1.03314e-06 8.30078e-07 8.8829e-07 8.83624e-07 7.44865e-07 5.7674e-07 4.41483e-07 7.01831e-07 4.13658e-07 3.08685e-07 1.00373e-06 1.31179e-06 8.89425e-07
threshold=-0.10397338867187499 1.2241476797917541e-08 5.2910202403048205e-07 -0.00076740956017453375 -0.053329467773437493 110726.86274371432 30962.07500682327 56.849999999998552 508.54999999999569 521.70000000000448 1.7002827945044447e-07 94402.85245058444 0.39099121093750006 -0.0006834966110623444 39109.15368097039 66.849999999998559 92.749999999992738 94278.907001420434 13661.823476357933 3.5461353548139516 2.0377935510862833e-08 348.30260545946425 0.46667480468750006 8.2555696964731862e-07 3.5015897463756735e-07 4.0229144360203685e-07 4.4499999999970905 0.48718261718750006 3.2344864447201023e-08 7.2059093085989293e-08
decision_type=2 2 2 2 2 2 2 2 2 2 2 2 2 2 2 2 2 2 2 2 2 2 2 2 2 2 2 2 2 2
left_child=1 -1 5 4 -2 9 -6 -8 22 16 26 12 -12 -14 -15 -16 -3 -17 -18 20 -20 25 -9 24 -19 -22 -5 28 -28 -30
right_child=3 2 -4 10 6 -7 7 8 -10 -11 11 -13 13 14 15 17 18 23 19 -21 21 -23 -24 -25 -26 -27 27 -29 29 -31
leaf_value=0 0 0 0 0 0 0 0 7.5481253166274699e-06 0 0 0 0 0 0 0 0 0 5.7214063928519452e-06 0 0 -5.5736317134914024e-06 0 0 0 0 0 0 0 0 -1.5470670235358787e-06
leaf_weight=2509 900 1037 115 3298 107 742 45 915 20 54 1313 1362 42 174 113 39 20 1212 43 20 2111 32 85 27 46 149 431 205 128 3670
leaf_count=2509 900 1037 115 3298 107 742 45 915 20 54 1313 1362 42 174 113 39 20 1212 43 20 2111 32 85 27 46 149 431 205 128 3670
internal_value=0 -1.5547e-06 -2.47143e-06 8.01952e-07 3.02282e-06 -3.0363e-06 5.00108e-06 5.98238e-06 6.59426e-06 -3.74013e-06 5.77682e-09 9.02667e-07 2.08624e-06 3.44268e-06 3.92794e-06 4.56628e-06 -3.93062e-06 5.08491e-06 -4.86355e-06 -4.97354e-06 -5.08911e-06 -5.22959e-06 7.1197e-06 5.35265e-06 5.49026e-06 -5.34414e-06 0 -4.17182e-07 -8.80809e-07 -1.31427e-06
internal_weight=20964 6832 4323 14132 2072 4208 1172 1065 1020 3466 12060 4328 2966 1653 1611 1437 3412 1324 2375 2355 2335 2292 1000 1285 1258 2260 7732 4434 4229 3798
internal_count=20964 6832 4323 14132 2072 4208 1172 1065 1020 3466 12060 4328 2966 1653 1611 1437 3412 1324 2375 2355 2335 2292 1000 1285 1258 2260 7732 4434 4229 3798
is_linear=0
shrinkage=0.05


Tree=8
num_leaves=31
num_cat=0
split_feature=21 9 10 18 20 15 21 13 31 16 22 4 39 4 21 0 24 39 29 1 1 22 27 32 22 32 13 24 8 28
split_gain=9.27245e-06 3.66235e-06 4.71667e-06 3.74087e-06 3.58846e-06 1.97441e-06 2.01619e-06 1.37224e-06 1.28684e-06 3.43563e-06 4.45506e-06 4.45918e-06 2.60582e-06 2.64909e-06 2.79229e-06 1.83893e-06 1.10151e-06 1.01095e-06 3.4013e-06 1.45432e-06 1.33963e-06 1.76359e-06 1.24906e-06 1.66193e-06 1.30629e-06 9.86355e-07 7.97313e-07 9.43012e-07 7.88416e-07 8.99746e-07
threshold=-0.10397338867187499 22415.334953874593 107616.52150000009 4.5766878358826113e-07 41.021892473465655 115.45000000000438 -0.087005615234374986 1.0003379005282016 69716597.614734963 1.9376644603838549e-06 9.6732095934503905e-08 0.0042707182660695871 1.7031327410845631e-07 -0.0021218609337261404 0.069671630859375014 3.5461353548139516 138767.22729204965 1.9649786429089393e-07 102517.3195368031 107079.87029556898 103870.19120000002 3.1543991671619963e-08 34600.888959549149 320041.65964689973 3.941856376968393e-07 2124514.1843378996 1.0005040107624581 447413.06871636532 1.5928489810447621e-08 1.3835638331644599e-07
decision_type=2 2 2 2 2 2 2 2 2 2 2 2 2 2 2 2 2 2 2 2 2 2 2 2 2 2 2 2 2 2
left_child=1 -1 3 7 5 -2 -7 -3 17 10 -10 12 -12 -14 15 26 -8 20 -19 22 -6 -22 -20 -24 25 -25 -15 -28 -9 -30
right_child=4 2 -4 -5 8 6 16 28 9 -11 11 -13 13 14 -16 -17 -18 18 19 -21 21 -23 23 24 -26 -27 27 -29 29 -31
leaf_value=0 0 0 0 0 0 0 0 0 0 0 0 0 0 0 0 0 6.4440077771632192e-06 0 0 0 0 1.5146634248290415e-06 0 -3.6983002259702094e-06 0 0 0 8.459357685642391e-06 0 -7.8175145096413125e-06
leaf_weight=1407 634 34 4224 82 2817 177 44 52 208 277 53 26 27 21 102 36 725 676 140 404 1145 3467 147 2009 33 59 22 883 171 862
leaf_count=1407 634 34 4224 82 2817 177 44 52 208 277 53 26 27 21 102 36 725 676 140 404 1145 3467 147 2009 33 59 22 883 171 862
internal_value=0 -1.46859e-06 -2.09853e-06 -5.45054e-06 7.7307e-07 3.31649e-06 4.85665e-06 -6.34367e-06 5.45504e-08 1.40226e-06 2.93157e-06 4.43174e-06 5.46174e-06 6.10329e-06 6.66477e-06 7.50893e-06 5.96398e-06 0 -8.19867e-07 -1.96987e-06 1.625e-07 8.76747e-07 -2.46157e-06 -2.79744e-06 -3.21724e-06 -3.47777e-06 7.9712e-06 8.19857e-06 -6.68316e-06 -6.98718e-06
internal_weight=20964 6832 5425 1201 14132 1580 946 1119 12552 1655 1378 1170 1144 1091 1064 962 769 10897 3468 2792 7429 4612 2388 2248 2101 2068 926 905 1085 1033
internal_count=20964 6832 5425 1201 14132 1580 946 1119 12552 1655 1378 1170 1144 1091 1064 962 769 10897 3468 2792 7429 4612 2388 2248 2101 2068 926 905 1085 1033
is_linear=0
shrinkage=0.05


Tree=9
num_leaves=31
num_cat=0
split_feature=21 9 39 20 25 31 15 6 24 13 17 12 12 24 28 35 31 27 4 12 22 21 39 4 31 39 29 1 1 22
split_gain=8.58218e-06 3.49427e-06 4.01201e-06 3.27424e-06 2.52886e-06 1.78223e-06 1.92475e-06 1.5611e-06 1.19032e-06 1.17608e-06 1.27024e-06 1.66122e-06 1.1284e-06 1.14466e-06 9.71898e-07 2.54285e-06 9.14505e-07 3.10988e-06 3.23256e-06 3.92418e-06 2.42903e-06 1.56168e-06 1.36259e-06 1.44061e-06 7.17325e-07 7.11987e-07 2.59388e-06 1.64585e-06 1.15798e-06 1.6e-06
threshold=-0.10397338867187499 22415.334953874593 5.2910202403048205e-07 41.021892473465655 110399.20000000001 7468496.6907811714 93.849999999998559 -894.8000000000028 144356.26805788928 1.0003929661982394 527.85000000000593 348.30260545946425 91.106361489048652 154805.6403894542 1.4013939547748386e-06 654151.0967130732 66550951.642138891 122350.67770175343 0.0042707182660695871 132.3987525368818 9.5890556171426947e-08 0.073516845703125014 1.8787859843247198e-07 -0.0008164830694005476 10458520.09772717 1.9649786429089393e-07 102517.3195368031 107079.87029556898 103870.19120000002 3.1543991671619963e-08
decision_type=2 2 2 2 2 2 2 2 2 2 2 2 2 2 2 2 2 2 2 2 2 2 2 2 2 2 2 2 2 2
left_child=1 -1 4 5 7 -2 -7 -3 -8 -9 11 12 -11 -14 15 -10 25 18 19 -18 -21 22 -22 -24 -15 28 -27 -28 -5 -30
right_child=3 2 -4 16 -6 6 8 9 14 10 -12 -13 13 24 -16 -17 17 -19 -20 20 21 -23 23 -25 -26 26 27 -29 29 -31
leaf_value=0 0 0 0 0 0 0 0 0 7.2132212616467509e-06 0 0 0 0 0 0 0 0 0 0 0 0 0 0 8.7427310329723414e-06 -4.7142987056865039e-06 0 -2.3013810359155486e-06 0 0 1.4216317699668765e-06
leaf_weight=1407 433 114 115 2811 822 238 21 296 709 681 63 24 116 472 82 97 188 703 32 104 34 54 61 588 2722 665 2321 392 1145 3454
leaf_count=1407 433 114 115 2811 822 238 21 296 709 681 63 24 116 472 82 97 188 703 32 104 34 54 61 588 2722 665 2321 392 1145 3454
internal_value=0 -1.41928e-06 -2.03642e-06 7.37821e-07 -2.47501e-06 3.16865e-06 4.20886e-06 -2.94215e-06 5.25787e-06 -3.12635e-06 -3.34731e-06 -3.48873e-06 -3.64486e-06 -4.10736e-06 5.6258e-06 6.15494e-06 3.34739e-08 1.14191e-06 3.08138e-06 4.20036e-06 5.76631e-06 6.7956e-06 7.45293e-06 7.98146e-06 -4.28707e-06 0 -7.08152e-07 -1.73624e-06 1.07681e-07 8.05073e-07
internal_weight=20964 6832 5425 14132 5310 1580 1147 4488 909 4374 4078 4015 3991 3310 888 806 12552 1764 1061 1029 841 737 683 649 3194 10788 3378 2713 7410 4599
internal_count=20964 6832 5425 14132 5310 1580 1147 4488 909 4374 4078 4015 3991 3310 888 806 12552 1764 1061 1029 841 737 683 649 3194 10788 3378 2713 7410 4599
is_linear=0
shrinkage=0.05


Tree=10
num_leaves=31
num_cat=0
split_feature=21 20 15 12 34 20 27 17 29 28 4 15 16 20 34 0 20 21 3 34 32 39 8 8 37 34 4 24 38 12
split_gain=7.96686e-06 7.89584e-06 1.41808e-05 6.79353e-06 9.07868e-06 7.96737e-06 6.03243e-06 3.18932e-06 3.18477e-06 1.89039e-06 6.57267e-06 1.77387e-06 1.79629e-06 1.38148e-06 1.7792e-06 1.4034e-06 1.22072e-06 1.04851e-06 1.22827e-06 2.36125e-06 1.90334e-06 1.97954e-06 1.41677e-06 1.08825e-06 1.4066e-06 9.75382e-07 8.5684e-07 9.18245e-07 9.70304e-07 7.51769e-07
threshold=-0.059677124023437493 45.078025851780005 264.40000000000151 193.48856964117158 0.37487792968750006 56.340837609940657 27530.348003136871 -130.15000000000143 101616.15694989245 5.8891153855226359e-07 0.0019839906096089442 54.799999999995642 4.0247058253923576e-07 45.791438421633408 0.30725097656250006 -1.1388441940459793 67.638128534200192 -0.13531494140624997 106320.13300468297 0.36657714843750006 209124.83967172148 2.50512584137525e-07 1.0778846231564391e-07 1.0559521579531996e-08 111812.30265374221 0.44445800781250006 -0.0020126275684415481 144356.26805788928 3.4417256959097357e-08 188.56438599802061
decision_type=2 2 2 2 2 2 2 2 2 2 2 2 2 2 2 2 2 2 2 2 2 2 2 2 2 2 2 2 2 2
left_child=3 2 -2 17 -5 6 -6 -4 -8 -3 11 -11 -13 -14 -15 -16 -17 23 -19 -20 -21 22 -22 -1 26 -10 -25 -28 29 -29
right_child=1 9 7 4 5 -7 8 -9 25 10 -12 12 13 14 15 16 -18 18 19 20 21 -23 -24 24 -26 -27 27 28 -30 -31
leaf_value=0 0 -7.1338229769834441e-08 1.9437994089498395e-05 0 0 0 0 0 -1.331959978065102e-05 0 0 0 0 0 0 5.3991228581607645e-06 0 0 0 0 3.8840462149651514e-06 0 0 0 0 0 0 -2.7573201938680213e-06 0 0
leaf_weight=891 1687 5751 197 783 61 139 44 53 528 74 397 56 57 40 102 1527 22 2622 597 456 1473 111 58 26 336 24 220 2315 292 25
leaf_count=891 1687 5751 197 783 61 139 44 53 528 74 397 56 57 40 102 1527 22 2622 597 456 1473 111 58 26 336 24 220 2315 292 25
internal_value=0 1.06528e-06 4.00338e-06 -8.84711e-07 -4.02596e-06 -7.78844e-06 -1.01884e-05 1.6306e-05 -1.18206e-05 0 1.4368e-06 3.35408e-06 3.76423e-06 4.14635e-06 4.45129e-06 4.79458e-06 5.17363e-06 0 0 1.0674e-06 2.06812e-06 2.89181e-06 3.493e-06 -7.99086e-07 -1.28919e-06 -1.28562e-05 -1.75438e-06 -1.96392e-06 -2.24756e-06 -2.592e-06
internal_weight=20964 9963 1937 11001 1579 796 657 250 596 8026 2275 1878 1804 1748 1691 1651 1549 9422 5317 2695 2098 1642 1531 4105 3214 552 2878 2852 2632 2340
internal_count=20964 9963 1937 11001 1579 796 657 250 596 8026 2275 1878 1804 1748 1691 1651 1549 9422 5317 2695 2098 1642 1531 4105 3214 552 2878 2852 2632 2340
is_linear=0
shrinkage=0.05


Tree=11
num_leaves=31
num_cat=0
split_feature=31 7 6 34 20 12 34 6 13 10 1 0 38 31 5 8 8 7 34 12 7 24 20 24 12 16 13 24 34 13
split_gain=1.34149e-06 4.49819e-06 2.27833e-06 2.73194e-06 3.23286e-06 1.82502e-06 3.36533e-06 4.17383e-06 6.89253e-06 6.00798e-06 7.2954e-06 4.92592e-06 5.18988e-06 5.10098e-06 3.11248e-06 1.52418e-06 7.04707e-07 6.31848e-07 2.85029e-06 4.80483e-06 1.13661e-06 6.80222e-07 7.72213e-07 6.36607e-07 6.16765e-07 5.23592e-07 5.0144e-07 1.19541e-06 1.03472e-06 1.11325e-06
threshold=71480839.184998408 161445.90804542039 -1287.4999999999998 0.33801269531250006 37.834736907619394 192.00440164192756 0.37048339843750006 120.04999999999565 1.0054144822415931 101350.06700000011 108477.11396 0.828244309159198 1.2658653461910487e-08 23028329.214854963 2.0331907420731333e-07 4.5749770986049099e-07 5.1407524324518532e-08 43710.484294143804 0.41906738281250006 110.1695334041374 20724.397019301363 106318.72626451649 43.35896117323157 901024.08645428403 69.689351430203104 5.264201057117777e-07 1.0007494465494522 759151.37926894298 0.47644042968750006 1.002836463090218
decision_type=2 2 2 2 2 2 2 2 2 2 2 2 2 2 2 2 2 2 2 2 2 2 2 2 2 2 2 2 2 2
left_child=5 -2 -3 -4 -5 17 -7 8 9 -8 11 12 -11 -14 -15 16 -6 20 -19 -20 -1 -22 -23 26 -24 -26 -21 28 29 -28
right_child=1 2 3 4 15 6 7 -9 -10 10 -12 -13 13 14 -16 -17 -18 18 19 23 21 22 24 -25 25 -27 27 -29 -30 -31
leaf_value=0 0 0 0 0 0 0 0 0 0 0 0 0 0 -1.3796070480140822e-05 0 0 8.4961271257008909e-06 0 0 0 0 0 0 0 -1.9322332649743164e-06 0 4.5493059680889099e-06 0 0 0
leaf_weight=2665 907 27 566 72 43 926 49 607 31 20 101 32 76 630 27 37 562 5483 1361 335 296 989 327 194 2615 103 1521 112 119 131
leaf_count=2665 907 27 566 72 43 926 49 607 31 20 101 32 76 630 27 37 562 5483 1361 335 296 989 327 194 2615 103 1521 112 119 131
internal_value=0 1.19262e-06 3.31854e-06 3.96163e-06 6.13989e-06 -1.04441e-07 -1.38113e-06 -2.89459e-06 -4.94405e-06 -6.60918e-06 -7.94024e-06 -9.7154e-06 -1.07122e-05 -1.16439e-05 -1.3064e-05 7.38326e-06 8.00894e-06 0 3.50879e-07 1.48006e-06 -2.50814e-07 -8.70545e-07 -1.11131e-06 2.8994e-06 -1.50668e-06 -1.76365e-06 3.13995e-06 3.50413e-06 3.83964e-06 4.1678e-06
internal_weight=20964 2214 1307 1280 714 18750 2499 1573 966 935 886 785 753 733 657 642 605 16251 9256 3773 6995 4330 4034 2412 3045 2718 2218 1883 1771 1652
internal_count=20964 2214 1307 1280 714 18750 2499 1573 966 935 886 785 753 733 657 642 605 16251 9256 3773 6995 4330 4034 2412 3045 2718 2218 1883 1771 1652
is_linear=0
shrinkage=0.05


Tree=12
num_leaves=31
num_cat=0
split_feature=4 34 32 6 5 18 34 3 6 28 20 13 16 38 8 4 13 20 34 31 6 15 4 7 4 1 38 9 7 4
split_gain=1.30947e-06 4.26559e-06 3.62828e-06 3.40651e-06 3.03953e-06 2.12924e-06 3.16868e-06 2.84189e-06 1.93341e-06 2.86139e-06 3.24599e-06 1.39934e-06 1.38397e-06 1.29982e-06 1.40688e-06 1.23479e-06 1.90153e-06 2.59753e-06 2.13812e-06 7.41793e-07 6.82088e-07 5.87291e-07 1.19409e-06 5.56492e-07 1.67918e-06 6.02949e-07 4.36683e-07 4.12623e-07 6.08116e-07 1.9812e-07
threshold=-0.00086259922158787839 0.37609863281250006 439081.20762781525 607.34999999999866 5.4287413431248532e-08 3.4329687623334668e-07 0.44641113281250006 103419.93496915634 84.349999999998559 9.4677994141662402e-07 47.17004914420545 1.0009071860040131 9.4723236349260841e-07 9.0502953380058421e-09 1.7279692364225619e-07 0.0019839906096089442 1.0032910843799423 48.191447224987364 0.30725097656250006 23805016.738868874 715.15000000000157 54.799999999995642 -0.00033050150929724741 37792.24248183993 -0.00061153211118891281 94409.31491979344 1.1545340459798761e-07 14578.044887830441 14562.659902736899 -0.00065986259637596022
decision_type=2 2 2 2 2 2 2 2 2 2 2 2 2 2 2 2 2 2 2 2 2 2 2 2 2 2 2 2 2 2
left_child=1 2 -1 4 -4 6 7 -2 -9 10 -10 -6 13 -12 26 16 17 -7 -19 -20 21 -21 -23 -8 -25 -26 27 -15 -29 -30
right_child=5 -3 3 -5 11 15 23 8 9 -11 12 -13 -14 14 -16 -17 -18 18 19 20 -22 22 -24 24 25 -27 -28 28 29 -31
leaf_value=0 0 0 0 0 0 0 0 0 0 0 0 8.9806126598680914e-06 0 0 0 0 0 0 0 0 0 0 6.341920080183653e-06 0 0 2.2299588784011653e-06 0 0 0 -4.3497974968730407e-06
leaf_weight=142 1980 2123 127 21 50 293 3382 5589 139 163 264 525 48 36 53 353 124 39 86 21 43 65 715 167 49 1427 23 28 34 2855
leaf_count=142 1980 2123 127 21 50 293 3382 5589 139 163 264 525 48 36 53 353 124 39 86 21 43 65 715 167 49 1427 23 28 34 2855
internal_value=0 1.00231e-06 3.97453e-06 5.60743e-06 6.67184e-06 -1.22952e-07 -5.28e-07 -1.05369e-06 -1.45532e-06 -2.58726e-06 -3.01048e-06 8.21927e-06 -3.44512e-06 -3.61836e-06 -3.91234e-06 7.83729e-07 1.7314e-06 2.65686e-06 3.98672e-06 4.72307e-06 5.17467e-06 5.50845e-06 5.74822e-06 0 9.20168e-07 1.94588e-06 -4.09399e-06 -4.15464e-06 -4.22228e-06 -4.30426e-06
internal_weight=20964 2988 865 723 702 17976 16237 11212 9232 3643 3480 575 3341 3293 3029 1739 1386 1262 969 930 844 801 780 5025 1643 1476 2976 2953 2917 2889
internal_count=20964 2988 865 723 702 17976 16237 11212 9232 3643 3480 575 3341 3293 3029 1739 1386 1262 969 930 844 801 780 5025 1643 1476 2976 2953 2917 2889
is_linear=0
shrinkage=0.05


Tree=13
num_leaves=31
num_cat=0
split_feature=21 20 13 38 10 31 20 20 9 26 34 17 16 13 3 3 28 4 31 13 34 16 0 13 32 31 27 13 1 4
split_gain=7.02427e-06 7.72726e-06 1.01527e-05 6.18065e-06 5.43646e-06 4.87151e-06 4.98248e-06 3.93573e-06 5.05321e-06 4.88133e-06 5.61611e-06 3.10022e-06 1.76874e-06 1.7687e-06 1.65645e-06 1.39228e-06 1.23764e-06 5.71455e-06 1.77184e-06 1.81892e-06 1.78986e-06 1.42821e-06 1.86644e-06 6.10715e-07 5.11733e-07 1.13515e-06 2.37667e-06 3.32653e-06 2.95616e-06 1.43415e-06
threshold=-0.059677124023437493 45.078025851780005 1.002538484932288 1.2241476797917541e-08 108668.85300000015 11558288.303597318 32.011394891476435 65.224021979938357 42705.877681314952 106185.87808483282 0.34973144531250006 -130.15000000000143 1.3015317654182746e-07 1.0005244590115925 106182.48517837822 107356.27074945628 5.8891153855226359e-07 0.0019839906096089442 42566079.028303705 1.0005508991040892 0.31652832031250006 1.9376644603838549e-06 2.4770160634171106 1.0005108845516679 394052.69052296208 63057714.781767048 39155.884244775203 1.0007945716918865 107813.02174155053 -0.0008164830694005476
decision_type=2 2 2 2 2 2 2 2 2 2 2 2 2 2 2 2 2 2 2 2 2 2 2 2 2 2 2 2 2 2
left_child=3 2 -2 -1 5 -5 -7 8 -8 10 -10 -4 -12 -14 -15 -11 24 18 -18 -20 -21 22 -22 -17 -3 26 -26 -28 29 -29
right_child=1 16 11 4 -6 6 7 -9 9 15 12 -13 13 14 -16 23 17 -19 19 20 21 -23 -24 -25 25 -27 27 28 -30 -31
leaf_value=0 0 0 1.7397426367792539e-05 0 0 0 0 0 0 0 0 0 0 -1.3989256609605178e-05 0 0 0 0 0 0 6.5261176838638152e-06 0 0 -2.4091158267348413e-06 0 0 0 0 0 -4.9879268695149182e-06
leaf_weight=3886 1675 2828 206 1298 2647 187 406 149 54 633 31 56 26 627 30 115 612 397 39 111 917 124 75 912 949 309 356 74 55 1180
leaf_count=3886 1675 2828 206 1298 2647 187 406 149 54 633 31 56 26 627 30 115 612 397 39 111 917 124 75 912 949 309 356 74 55 1180
internal_value=0 9.98329e-07 3.88572e-06 -8.32852e-07 -1.80115e-06 -2.86494e-06 -3.9256e-06 -4.53343e-06 -5.01041e-06 -5.87407e-06 -1.1162e-05 1.44371e-05 -1.23965e-05 -1.29275e-05 -1.34336e-05 -4.15211e-07 0 1.16445e-06 3.04128e-06 4.14957e-06 4.63378e-06 5.25515e-06 5.88789e-06 -1.91507e-06 -3.99614e-08 -6.63931e-07 -1.25639e-06 -2.45897e-06 -3.74747e-06 -4.53348e-06
internal_weight=20964 9963 1937 11001 7115 4468 3170 2983 2834 2428 768 262 714 683 657 1660 8026 2275 1878 1266 1227 1116 992 1027 5751 2923 2614 1665 1309 1254
internal_count=20964 9963 1937 11001 7115 4468 3170 2983 2834 2428 768 262 714 683 657 1660 8026 2275 1878 1266 1227 1116 992 1027 5751 2923 2614 1665 1309 1254
is_linear=0
shrinkage=0.05


Tree=14
num_leaves=31
num_cat=0
split_feature=21 4 21 9 10 12 34 28 15 6 18 34 7 20 22 27 12 34 18 4 20 25 6 22 12 13 20 34 1 9
split_gain=6.58929e-06 3.0989e-06 2.96813e-06 2.99231e-06 2.88901e-06 5.22664e-06 6.11493e-06 3.00417e-06 2.10688e-06 2.2494e-06 1.36923e-06 1.15215e-06 4.58651e-06 4.71825e-06 2.6665e-06 2.50936e-06 2.47952e-06 2.7347e-06 2.09939e-06 2.26322e-06 1.8363e-06 1.84342e-06 2.63171e-06 2.88359e-06 2.44544e-06 6.49414e-07 6.44523e-07 6.73591e-07 6.12815e-07 5.33518e-07
threshold=-0.10397338867187499 -0.00076740956017453375 -0.053329467773437493 30962.07500682327 107616.52150000009 117.6998357602799 0.36462402343750006 1.1548988408000233e-07 56.849999999998552 508.54999999999569 4.5766878358826113e-07 0.39099121093750006 39109.15368097039 51.388481049978147 2.3996435172720938e-07 163293.13678781842 110.7525968664827 0.39465332031250006 6.5857503124662713e-08 0.0042707182660695871 52.54847841736602 101601.70000000001 39.650000000001462 6.0082562769480446e-08 127.61869425865804 1.0004162873981663 47.922742633950577 0.46667480468750006 94409.31491979344 29093.334058435055
decision_type=2 2 2 2 2 2 2 2 2 2 2 2 2 2 2 2 2 2 2 2 2 2 2 2 2 2 2 2 2 2
left_child=4 2 -2 -4 5 -1 -7 -8 -5 26 29 14 -13 -14 20 16 -15 -18 -19 25 -3 -22 -23 -24 -25 -20 27 -10 -27 -9
right_child=1 11 3 8 -6 6 7 10 9 -11 -12 12 13 15 -16 -17 17 18 19 -21 21 22 23 24 -26 28 -28 -29 -30 -31
leaf_value=0 0 0 0 0 0 0 0 0 7.1267666539980532e-06 0 0 0 0 0 0 0 0 0 0 0 0 0 0 0 -7.2070292923355595e-06 0 0 0 5.6245969946168469e-06 -1.0379708320744149e-05
leaf_weight=1052 900 1566 107 45 5046 89 29 21 850 20 57 3292 1762 819 833 35 147 204 21 24 115 330 135 135 691 74 66 84 1877 538
leaf_count=1052 900 1566 107 45 5046 89 29 21 850 20 57 3292 1762 819 833 35 147 204 21 24 115 330 135 135 691 74 66 84 1877 538
internal_value=0 6.69949e-07 2.60767e-06 4.28394e-06 -1.21768e-06 -3.11697e-06 -6.43721e-06 -8.41737e-06 5.21721e-06 5.79512e-06 -9.29395e-06 0 5.77293e-07 1.69252e-06 -1.84276e-07 2.85066e-06 3.19336e-06 4.04931e-06 4.53872e-06 5.03335e-06 -1.51209e-06 -2.84565e-06 -3.51973e-06 -4.84641e-06 -6.00438e-06 5.33966e-06 6.3149e-06 6.66488e-06 5.44527e-06 -1.00651e-05
internal_weight=20964 14132 2072 1172 6832 1786 734 645 1065 1020 616 12060 8255 4963 3805 3201 3166 2347 2200 1996 2972 1406 1291 961 826 1972 1000 934 1951 559
internal_count=20964 14132 2072 1172 6832 1786 734 645 1065 1020 616 12060 8255 4963 3805 3201 3166 2347 2200 1996 2972 1406 1291 961 826 1972 1000 934 1951 559
is_linear=0
shrinkage=0.05


Tree=15
num_leaves=31
num_cat=0
split_feature=21 39 34 0 19 17 6 34 3 9 32 39 1 21 9 27 35 24 24 24 4 27 13 0 35 9 9 17 6 32
split_gain=6.0295e-06 5.79332e-06 6.02746e-06 5.6147e-06 5.57675e-06 1.04362e-05 7.99553e-06 5.30989e-06 3.87961e-06 3.14533e-06 2.68343e-06 1.18522e-06 9.47861e-07 7.83247e-07 1.06392e-06 1.70114e-06 1.644e-06 8.10666e-07 5.51322e-07 6.05152e-07 6.14456e-07 5.95296e-07 4.88595e-07 4.8247e-07 3.78657e-07 3.84303e-07 2.9382e-07 7.93321e-08 3.81329e-07 3.66478e-08
threshold=-0.059677124023437493 2.3893898112352827e-07 0.36071777343750006 -3.0367531345221725 183.84999999999857 157.90000000000148 -272.4000000000014 0.44860839843750006 111321.30620583835 43669.284454722816 306276.80561629304 2.432759405549009e-07 102048.58640000001 -0.13531494140624997 22415.334953874593 55485.345361491563 609870.5119843873 144356.26805788928 334597.97144535749 1295973.217937032 0.0029236581319442086 12123.376080764017 1.0006205513274022 2.8664852839492156 36791.97614629256 194378.2559867352 191305.24641490294 41.400000000001462 -316.1500000000014 209124.83967172148
decision_type=2 2 2 2 2 2 2 2 2 2 2 2 2 2 2 2 2 2 2 2 2 2 2 2 2 2 2 2 2 2
left_child=1 13 -3 -4 27 6 -6 8 9 -5 -11 -12 -13 14 -1 16 17 -16 -15 20 21 -20 -14 24 -19 -26 29 28 -2 -23
right_child=4 2 3 7 5 -7 -8 -9 -10 10 11 12 22 18 15 -17 -18 23 19 -21 -22 26 -24 -25 25 -27 -28 -29 -30 -31
leaf_value=0 0 0 0 0 1.1444523545202912e-05 0 0 0 0 0 0 0 0 0 0 0 0 0 0 0 0 0 -1.3093552135362106e-05 0 -2.8153762477298143e-06 0 0 0 5.4153305584707379e-07 1.8327302008758625e-06
leaf_weight=1105 425 889 83 22 524 880 1013 60 20 41 28 39 23 2721 165 389 76 26 96 184 24 22 549 40 2281 56 43 3194 3927 2019
leaf_count=1105 425 889 83 22 524 880 1013 60 20 41 28 39 23 2721 165 389 76 26 96 184 24 22 549 40 2281 56 43 3194 3927 2019
internal_value=0 -7.65693e-07 -3.45453e-06 -6.45102e-06 9.30371e-07 3.05547e-06 5.62624e-06 -7.99873e-06 -9.36372e-06 -1.01976e-05 -1.09049e-05 -1.17065e-05 -1.21725e-05 0 -6.80788e-07 -1.22851e-06 -1.82749e-06 -2.24476e-06 8.87252e-08 7.70712e-07 1.15325e-06 1.43152e-06 -1.27442e-05 -2.49565e-06 -2.61613e-06 -2.70653e-06 1.69048e-06 0 2.13474e-07 1.81047e-06
internal_weight=20964 11001 1754 865 9963 2417 1537 782 722 702 680 639 611 9247 4138 3033 2644 2568 5109 2388 2204 2180 572 2403 2363 2337 2084 7546 4352 2041
internal_count=20964 11001 1754 865 9963 2417 1537 782 722 702 680 639 611 9247 4138 3033 2644 2568 5109 2388 2204 2180 572 2403 2363 2337 2084 7546 4352 2041
is_linear=0
shrinkage=0.05


Tree=16
num_leaves=22
num_cat=0
split_feature=21 38 19 17 6 10 31 18 9 0 7 19 10 4 21 10 3 10 17 6 34
split_gain=5.43921e-06 5.3631e-06 5.15438e-06 9.82803e-06 6.64507e-06 4.88615e-06 4.07038e-06 3.23058e-06 4.01055e-06 3.40552e-06 2.45978e-06 2.27807e-06 2.32994e-06 1.01098e-06 1.08085e-07 4.15749e-07 5.33852e-07 6.70821e-08 6.22122e-08 3.53536e-07 5.42303e-08
threshold=-0.059677124023437493 1.2241476797917541e-08 183.84999999999857 157.90000000000148 -272.4000000000014 108668.85300000015 11558288.303597318 4.5766878358826113e-07 43183.573801735656 -3.8746587480625725 28272.910109701967 55.450000000004373 108431.05575000013 0.0027610479575163548 -0.17742919921874997 105760.9825 109334.4569444692 109386.61400000018 41.400000000001462 -316.1500000000014 0.46423339843750006
decision_type=2 2 2 2 2 2 2 2 2 2 2 2 2 2 2 2 2 2 2 2 2
left_child=1 14 18 4 -4 6 -3 8 -8 -10 -11 -12 13 20 -1 -16 17 -17 19 -2 -13
right_child=2 5 3 -5 -6 -7 7 -9 9 10 11 12 -14 -15 15 16 -18 -19 -20 -21 -22
leaf_value=0 0 0 1.0872406329600634e-05 0 0 0 0 0 0 0 0 -6.8648882539430752e-06 0 0 0 1.2653975636174539e-06 0 0 0 5.1445707024885852e-07 0
leaf_weight=878 425 1298 524 880 1013 2647 485 180 27 96 165 1877 272 27 1178 1756 54 20 3194 3927 41
leaf_count=878 425 1298 524 880 1013 2647 485 180 27 96 165 1877 272 27 1178 1756 54 20 3194 3927 41
internal_value=0 -7.20652e-07 8.89603e-07 2.93142e-06 5.43117e-06 -1.63933e-06 -2.64828e-06 -3.6187e-06 -4.07239e-06 -4.87827e-06 -5.24332e-06 -5.58408e-06 -6.00594e-06 -6.64154e-06 0 2.99714e-07 8.4592e-07 1.22015e-06 0 1.89042e-07 -6.78592e-06
internal_weight=20964 11001 9963 2417 1537 7115 4468 3170 2990 2505 2478 2382 2217 1945 3886 3008 1830 1776 7546 4352 1918
internal_count=20964 11001 9963 2417 1537 7115 4468 3170 2990 2505 2478 2382 2217 1945 3886 3008 1830 1776 7546 4352 1918
is_linear=0
shrinkage=0.05


Tree=17
num_leaves=31
num_cat=0
split_feature=21 20 10 12 34 18 6 31 15 18 34 7 20 27 18 12 28 20 22 6 31 5 3 13 1 15 12 16 9 34
split_gain=5.26817e-06 2.73795e-06 2.48363e-06 4.12478e-06 3.90734e-06 2.29167e-06 1.61503e-06 1.4121e-06 1.34249e-06 1.08545e-06 9.89567e-07 4.83951e-06 4.29723e-06 2.62123e-06 2.39795e-06 2.2106e-06 1.86765e-06 1.50611e-06 1.56727e-06 2.08727e-06 2.07109e-06 1.6353e-06 1.76451e-06 1.04943e-06 9.64383e-07 1.09882e-06 1.45916e-06 7.65391e-07 7.17424e-07 7.27148e-07
threshold=-0.10397338867187499 40.384382453584074 107616.52150000009 86.799547226852653 0.36462402343750006 3.1137006386397787e-07 528.9499999999972 7468496.6907811714 93.849999999998559 3.0407154357367897e-08 0.39855957031250006 39109.15368097039 51.463956740425616 122350.67770175343 6.3066874705187272e-08 96.195766464120993 9.6973182287311461e-07 53.612957035185353 6.0671651587694825e-08 39.650000000001462 124268976.68404831 2.5264442893217192e-07 96626.973142292962 1.000400141900341 108428.31361019319 521.70000000000448 117.6998357602799 1.0569318023323629e-07 278461.37534822512 0.40026855468750006
decision_type=2 2 2 2 2 2 2 2 2 2 2 2 2 2 2 2 2 2 2 2 2 2 2 2 2 2 2 2 2 2
left_child=2 5 3 -1 -5 7 9 -2 -9 -6 16 -12 -13 14 -14 -16 17 -3 -19 -20 21 22 -21 -17 25 26 -11 -10 29 -25
right_child=1 10 -4 4 6 -7 -8 8 27 24 11 12 13 -15 15 23 -18 18 19 20 -22 -23 -24 28 -26 -27 -28 -29 -30 -31
leaf_value=0 0 0 0 0 0 0 0 0 0 0 0 0 0 0 0 0 0 0 0 0 0 0 -6.0450887845803708e-06 0 0 0 -9.2116276212696904e-06 6.7457143596462469e-06 0 5.0917702436654637e-06
leaf_weight=617 381 2405 5046 89 24 210 20 190 26 406 3156 1838 473 89 225 30 1060 217 255 49 40 31 855 59 20 22 588 582 47 1914
leaf_count=617 381 2405 5046 89 24 210 20 190 26 406 3156 1838 473 89 225 30 1060 217 255 49 40 31 855 59 20 22 588 582 47 1914
internal_value=0 6.01572e-07 -1.08589e-06 -2.8261e-06 -4.58501e-06 2.93416e-06 -5.63902e-06 3.87318e-06 5.15619e-06 -6.01723e-06 0 5.62058e-07 1.76553e-06 2.98716e-06 3.40539e-06 4.07954e-06 0 -1.10095e-06 -2.41423e-06 -3.1689e-06 -4.24493e-06 -4.93227e-06 -5.44824e-06 4.60053e-06 -6.298e-06 -6.54357e-06 -6.82124e-06 6.35708e-06 4.77263e-06 4.92235e-06
internal_weight=20964 14132 6832 1786 1169 1389 1080 1179 798 1060 12743 7831 4675 2837 2748 2275 4912 3852 1447 1230 975 935 904 2050 1036 1016 994 608 2020 1973
internal_count=20964 14132 6832 1786 1169 1389 1080 1179 798 1060 12743 7831 4675 2837 2748 2275 4912 3852 1447 1230 975 935 904 2050 1036 1016 994 608 2020 1973
is_linear=0
shrinkage=0.05


Tree=18
num_leaves=31
num_cat=0
split_feature=21 4 35 9 39 25 31 6 13 16 13 0 34 7 0 31 34 27 18 22 0 4 13 18 12 6 22 7 12 7
split_gain=4.83771e-06 2.61605e-06 2.5149e-06 2.30084e-06 3.10924e-06 1.83332e-06 1.75291e-06 1.48397e-06 1.33931e-06 1.29649e-06 8.70587e-07 9.32094e-07 6.62543e-07 3.73767e-06 3.41589e-06 3.09345e-06 3.22796e-06 3.81345e-06 5.19271e-06 2.30322e-06 1.76135e-06 1.83216e-06 1.25288e-06 1.23544e-06 1.44562e-06 9.13963e-07 8.90033e-07 7.32035e-07 6.82519e-07 6.59849e-07
threshold=-0.10397338867187499 -0.00076740956017453375 654151.0967130732 22415.334953874593 5.2910202403048205e-07 110399.20000000001 6427614.1878826516 -894.8000000000028 1.0008876721762454 1.0569318023323629e-07 1.0003929661982394 3.2215720318896062 0.39099121093750006 39109.15368097039 -0.12086472418901567 23805016.738868874 0.39465332031250006 122350.67770175343 6.3717369790141757e-08 2.3996435172720938e-07 -0.016783053609462341 0.0042707182660695871 1.0006702001785259 5.8997128171053398e-07 108.11786117033304 -366.04999999999558 3.5411933316088392e-08 43710.484294143804 102.79130843956169 332731.48163820256
decision_type=2 2 2 2 2 2 2 2 2 2 2 2 2 2 2 2 2 2 2 2 2 2 2 2 2 2 2 2 2 2
left_child=3 2 6 -1 5 7 -2 -5 -8 -10 -9 29 19 -14 -15 -16 -17 18 -18 22 -20 27 -3 24 -24 -26 -27 -22 -29 -12
right_child=1 12 -4 4 -6 -7 8 10 9 -11 11 -13 13 14 15 16 17 -19 20 -21 21 -23 23 -25 25 26 -28 28 -30 -31
leaf_value=0 0 0 0 0 0 0 0 0 0 4.7505196148437108e-06 -2.9782218708974861e-06 0 0 0 0 0 0 0 0 0 0 0 0 0 0 0 -3.1974707216143588e-06 0 8.3656080034204921e-06 0
leaf_weight=1407 184 567 289 114 115 822 304 296 36 1259 3997 58 3292 1572 1979 111 62 108 46 833 30 23 189 74 145 27 1970 27 1005 23
leaf_count=1407 184 567 289 114 115 822 304 296 36 1259 3997 58 3292 1572 1979 111 62 108 46 833 30 23 189 74 145 27 1970 27 1005 23
internal_value=0 5.71488e-07 2.32029e-06 -1.04625e-06 -1.56167e-06 -1.98884e-06 3.12767e-06 -2.3877e-06 3.69437e-06 4.40879e-06 -2.58803e-06 -2.77808e-06 0 4.42625e-07 1.48614e-06 2.39806e-06 4.39167e-06 5.20908e-06 6.13037e-06 -1.013e-07 7.14972e-06 7.57255e-06 -1.39661e-06 -1.92683e-06 -2.27056e-06 -2.70139e-06 -2.99524e-06 7.93082e-06 8.15472e-06 -2.89978e-06
internal_weight=20964 14132 2072 6832 5425 5310 1783 4488 1599 1295 4374 4078 12060 8255 4963 3391 1412 1301 1193 3805 1131 1085 2972 2405 2331 2142 1997 1062 1032 4020
internal_count=20964 14132 2072 6832 5425 5310 1783 4488 1599 1295 4374 4078 12060 8255 4963 3391 1412 1301 1193 3805 1131 1085 2972 2405 2331 2142 1997 1062 1032 4020
is_linear=0
shrinkage=0.05


Tree=19
num_leaves=31
num_cat=0
split_feature=21 20 15 6 39 34 20 20 9 12 39 34 21 11 4 27 24 11 35 24 35 16 20 27 20 22 9 9 5 17
split_gain=4.2236e-06 5.93757e-06 1.0126e-05 8.97388e-06 4.90687e-06 4.92474e-06 5.03815e-06 4.23244e-06 3.01252e-06 3.41471e-06 2.03949e-06 5.73421e-07 4.36346e-07 1.15712e-06 8.80707e-07 7.67491e-07 1.22656e-06 2.05194e-06 1.38212e-06 6.48791e-07 4.56523e-07 4.74334e-07 3.70223e-07 4.85044e-07 3.58414e-07 4.13203e-08 2.64215e-07 5.49795e-07 4.08584e-07 3.17109e-07
threshold=-0.059677124023437493 45.078025851780005 264.40000000000151 -133.84999999999852 2.3893898112352827e-07 0.36071777343750006 56.340837609940657 33.335046642802773 48529.096082985248 144.7234256211874 2.432759405549009e-07 0.36755371093750006 -0.13531494140624997 106420.00000000001 0.00089604551918230017 55485.345361491563 144356.26805788928 111138.15000000001 609870.5119843873 188729.99000813806 65357.000385443542 7.8221612253107466e-07 66.726217839553684 9190.1015173313845 33.335046642802773 2.1124408429981043e-07 82639.680296698454 448884.36320069199 2.9336441411342099e-08 -516.19999999999698
decision_type=2 2 2 2 2 2 2 2 2 2 2 2 2 2 2 2 2 2 2 2 2 2 2 2 2 2 2 2 2 2
left_child=4 2 -2 -4 12 -6 7 -7 -9 -10 -11 -12 15 -14 19 16 -1 18 22 -15 -21 -22 23 -18 -25 -3 -27 28 -28 -30
right_child=1 25 3 -5 5 6 -8 8 9 10 11 -13 13 14 -16 -17 17 -19 -20 20 21 -23 -24 24 -26 26 27 -29 29 -31
leaf_value=0 0 0 1.7498180899499079e-05 0 0 0 0 0 0 0 0 -1.3062855914401296e-05 0 0 0 0 0 0 0 0 2.4635736413724069e-06 0 0 0 -2.8148577815995604e-06 0 0 0 0 1.9156283032994556e-06
leaf_weight=826 1687 6700 225 25 889 119 149 30 82 22 26 437 2547 316 545 390 87 357 70 79 1502 120 53 131 2224 60 20 148 21 1077
leaf_count=826 1687 6700 225 25 889 119 149 30 82 22 26 437 2547 316 545 390 87 357 70 79 1502 120 53 131 2224 60 20 148 21 1077
internal_value=0 7.97011e-07 3.30607e-06 1.36337e-05 -6.20099e-07 -3.06676e-06 -5.77075e-06 -7.60391e-06 -9.33078e-06 -1.02445e-05 -1.18443e-05 -1.25683e-05 0 1.19415e-07 1.07588e-06 -4.95993e-07 -8.8517e-07 -1.43331e-06 -2.08331e-06 1.60056e-06 1.99779e-06 2.21114e-06 -2.41801e-06 -2.52045e-06 -2.665e-06 0 2.79102e-07 7.76724e-07 1.38292e-06 1.69632e-06
internal_weight=20964 9963 1937 250 11001 1754 865 716 597 567 485 463 9247 5109 2562 4138 3748 2922 2565 2017 1701 1622 2495 2442 2355 8026 1326 1266 1118 1098
internal_count=20964 9963 1937 250 11001 1754 865 716 597 567 485 463 9247 5109 2562 4138 3748 2922 2565 2017 1701 1622 2495 2442 2355 8026 1326 1266 1118 1098
is_linear=0
shrinkage=0.05


Tree=20
num_leaves=31
num_cat=0
split_feature=21 20 15 6 38 26 20 9 17 34 14 35 7 3 32 6 32 24 24 17 31 32 22 31 31 34 20 35 4 17
split_gain=3.83705e-06 5.6126e-06 8.55358e-06 8.37217e-06 4.39671e-06 5.00579e-06 5.07537e-06 8.97887e-06 6.5785e-06 4.01864e-06 4.18359e-06 2.3633e-06 2.3218e-06 2.51589e-06 2.62482e-06 8.41353e-07 5.49555e-07 6.52417e-07 9.94687e-07 1.79207e-06 6.60593e-07 3.67646e-07 7.9752e-07 1.17885e-06 1.27338e-06 3.54149e-07 2.29274e-06 2.40065e-06 4.4662e-07 3.15001e-07
threshold=-0.059677124023437493 45.078025851780005 264.40000000000151 -133.84999999999852 1.2241476797917541e-08 106185.87808483282 33.335046642802773 43183.573801735656 111.15000000000147 0.33532714843750006 1.0005833681556642 64179.376985775205 26080.166639038409 106182.48517837822 196149.09404381289 120.04999999999565 932558.48917540768 674810.74386346166 2870632.7865801626 781.59999999999866 42566079.028303705 394052.69052296208 6.113077551190882e-08 65319940.249400519 11828145.547049226 0.42541503906250006 43.817154384349131 609870.5119843873 -0.0008789743933342156 -568.34999999999843
decision_type=2 2 2 2 2 2 2 2 2 2 2 2 2 2 2 2 2 2 2 2 2 2 2 2 2 2 2 2 2 2
left_child=4 2 -2 -4 -1 6 -6 -8 9 -9 -11 -12 -13 14 -14 -16 21 -18 19 20 -19 -3 -23 24 -24 26 -7 28 -28 -22
right_child=1 16 3 -5 5 25 7 8 -10 10 11 12 13 -15 15 -17 17 18 -20 -21 29 22 23 -25 -26 -27 27 -29 -30 -31
leaf_value=0 0 0 1.6623660676735393e-05 0 0 0 0 0 0 0 0 0 0 0 -1.7036526246867207e-05 0 0 0 0 0 0 0 0 0 -2.1545084517294048e-06 0 0 0 -2.321277434277373e-06 3.2370972623150623e-06
leaf_weight=3886 1687 2828 225 25 220 1016 657 21 255 51 30 34 30 23 434 86 89 557 257 49 22 685 137 268 1951 1306 116 287 2549 1183
leaf_count=3886 1687 2828 225 25 220 1016 657 21 255 51 30 34 30 23 434 86 89 557 257 49 22 685 137 268 1951 1306 116 287 2549 1183
internal_value=0 7.66899e-07 3.20445e-06 1.28466e-05 -5.82519e-07 -1.43858e-06 -3.84644e-06 -4.96286e-06 -8.04347e-06 -1.05431e-05 -1.13644e-05 -1.24862e-05 -1.31659e-05 -1.39195e-05 -1.46043e-05 -1.54339e-05 0 7.94186e-07 1.20272e-06 1.73921e-06 2.37729e-06 -4.76717e-08 -5.5373e-07 -1.11445e-06 -1.67714e-06 0 -4.72359e-07 -1.49717e-06 -2.17597e-06 3.10387e-06
internal_weight=20964 9963 1937 250 11001 7115 1841 1621 964 709 688 637 607 573 550 520 8026 2157 2068 1811 1762 5869 3041 2356 2088 5274 3968 2952 2665 1205
internal_count=20964 9963 1937 250 11001 7115 1841 1621 964 709 688 637 607 573 550 520 8026 2157 2068 1811 1762 5869 3041 2356 2088 5274 3968 2952 2665 1205
is_linear=0
shrinkage=0.05


Tree=21
num_leaves=31
num_cat=0
split_feature=21 23 29 38 39 20 18 39 31 4 23 7 0 6 20 31 9 11 7 35 4 15 31 34 9 17 7 38 15 23
split_gain=3.66564e-06 2.38199e-06 3.18154e-06 3.20244e-06 3.41947e-06 2.26019e-06 2.19535e-06 2.11153e-06 1.10381e-06 1.04261e-06 1.01318e-06 4.2739e-06 5.35652e-06 3.41511e-06 4.53194e-06 3.88378e-06 3.1845e-06 2.88168e-06 2.41741e-06 2.4028e-06 2.22157e-06 2.20588e-06 2.13183e-06 3.27272e-06 4.64764e-06 2.86569e-06 2.21208e-06 1.70045e-06 9.85614e-07 1.02798e-06
threshold=-0.10397338867187499 -0.17242431640624997 110623.36830606064 1.1036703998941462e-08 5.1545914911013866e-07 40.384382453584074 3.1137006386397787e-07 5.8861360213043618e-08 7468496.6907811714 -0.0036335856476649923 -0.14483642578124997 39109.15368097039 -0.016783053609462341 39.650000000001462 52.661560228811645 175578026.87595055 64387.802229159868 102618.10000000002 61866.793257060832 98512.400977529876 0.0042707182660695871 123.40000000000147 23805016.738868874 0.39465332031250006 278461.37534822512 -52.700000000004358 43710.484294143804 1.8084613589690665e-08 93.849999999998559 -0.26940917968749994
decision_type=2 2 2 2 2 2 2 2 2 2 2 2 2 2 2 2 2 2 2 2 2 2 2 2 2 2 2 2 2 2
left_child=1 2 3 -1 7 6 8 -5 -2 -9 11 -7 -13 -12 -15 16 -16 -18 -19 -14 22 -20 -21 -24 25 -25 -27 -28 -10 -30
right_child=5 -3 -4 4 -6 10 -8 9 28 -11 13 12 19 14 15 -17 17 18 21 20 -22 -23 23 24 -26 26 27 -29 29 -31
leaf_value=0 0 0 0 0 0 0 0 0 0 -4.8878938938487609e-06 0 0 0 0 0 0 0 0 0 0 0 -1.0240371836454685e-05 0 0 0 0 0 1.025996812819786e-05 0 6.3065287299749604e-06
leaf_weight=658 381 3248 920 91 58 3152 210 40 190 1817 1864 2206 507 624 191 125 44 111 336 1359 24 538 580 134 52 30 105 761 29 579
leaf_count=658 381 3248 920 91 58 3152 210 40 190 1817 1864 2206 507 624 191 125 44 111 336 1359 24 538 580 134 52 30 105 761 29 579
internal_value=0 -8.60961e-07 -1.75342e-06 -2.66867e-06 -3.66723e-06 5.38613e-07 2.64936e-06 -4.27051e-06 3.59499e-06 -4.68758e-06 0 5.19616e-07 1.50778e-06 -1.82181e-07 -2.09773e-06 -3.85551e-06 -4.93415e-06 -6.04983e-06 -6.74896e-06 2.73043e-06 3.26637e-06 -7.63194e-06 3.54857e-06 5.10831e-06 6.90236e-06 7.83117e-06 8.85961e-06 9.35931e-06 4.74882e-06 5.80081e-06
internal_weight=20964 6832 3584 2664 2006 14132 1389 1948 1179 1857 12743 8910 5758 3833 1969 1345 1220 1029 985 3552 3045 874 3021 1662 1082 1030 896 866 798 608
internal_count=20964 6832 3584 2664 2006 14132 1389 1948 1179 1857 12743 8910 5758 3833 1969 1345 1220 1029 985 3552 3045 874 3021 1662 1082 1030 896 866 798 608
is_linear=0
shrinkage=0.05


Tree=22
num_leaves=31
num_cat=0
split_feature=21 7 34 12 27 14 23 25 7 39 34 18 9 39 35 5 22 5 38 4 22 22 4 22 5 5 0 31 21 34
split_gain=3.24564e-06 2.08435e-06 6.43966e-06 5.50527e-06 4.81437e-06 2.53064e-06 2.08077e-06 2.90647e-06 2.40894e-06 2.87773e-06 1.93658e-06 2.0928e-06 2.26521e-06 1.03147e-06 1.43484e-06 6.5597e-07 7.59601e-07 6.70898e-07 4.8387e-07 5.42203e-07 4.39713e-07 3.4331e-07 1.72787e-06 1.8748e-06 2.09649e-06 2.1811e-06 1.18693e-06 1.01442e-06 1.99751e-06 3.17251e-06
threshold=-0.10397338867187499 39109.15368097039 0.40026855468750006 132.3987525368818 120092.94526272596 1.0009132104412151 -0.17352294921874997 110399.20000000001 17361.042311124012 5.1545914911013866e-07 0.40319824218750006 6.236378832167532e-08 278461.37534822512 5.8151360855429305e-08 41464.742717265726 3.028538138397492e-08 3.0151438267577361e-08 2.3838421060488051e-07 1.1036703998941462e-08 -0.0036335856476649923 3.941856376968393e-07 2.1124408429981043e-07 0.00069071337718672112 6.113077551190882e-08 1.6258191473667673e-07 3.5018307640615106e-08 -0.72321397871922632 64100469.808664031 0.066802978515625014 0.39025878906250006
decision_type=2 2 2 2 2 2 2 2 2 2 2 2 2 2 2 2 2 2 2 2 2 2 2 2 2 2 2 2 2 2
left_child=6 -2 21 -4 5 -5 7 8 -1 13 -7 -12 15 -10 -15 -13 -17 20 -16 -20 -18 22 -3 -24 25 -25 -27 -23 29 -29
right_child=1 2 3 4 -6 10 -8 -9 9 -11 11 12 -14 14 18 16 17 -19 19 -21 -22 27 23 24 -26 26 -28 28 -30 -31
leaf_value=0 0 0 0 0 0 0 0 0 0 0 0 0 0 0 0 0 7.0741135228865795e-06 0 0 -4.7377361323467657e-06 0 0 0 0 0 0 -6.0122819413728169e-06 4.5080547043670678e-06 0 0
leaf_weight=152 3784 2908 2476 309 238 100 3359 916 324 55 105 102 57 21 240 25 1584 25 39 1726 21 475 131 61 102 25 650 762 143 49
leaf_count=152 3784 2908 2476 309 238 100 3359 916 324 55 105 102 57 21 240 25 1584 25 39 1726 21 475 131 61 102 25 650 762 143 49
internal_value=0 5.17562e-07 9.32406e-07 2.23097e-06 3.89142e-06 4.67558e-06 -7.95964e-07 -1.65653e-06 -2.56293e-06 -3.08022e-06 5.32353e-06 5.68678e-06 6.0906e-06 -3.57367e-06 -4.01075e-06 6.44373e-06 6.71353e-06 6.85037e-06 -4.24777e-06 -4.60242e-06 6.97879e-06 0 -4.63117e-07 -2.30553e-06 -3.42618e-06 -4.5261e-06 -5.51485e-06 1.36748e-07 1.63892e-06 3.05228e-06
internal_weight=20964 14132 10348 5042 2566 2328 6832 3473 2557 2405 2019 1919 1814 2350 2026 1757 1655 1630 2005 1765 1605 5306 3877 969 838 736 675 1429 954 811
internal_count=20964 14132 10348 5042 2566 2328 6832 3473 2557 2405 2019 1919 1814 2350 2026 1757 1655 1630 2005 1765 1605 5306 3877 969 838 736 675 1429 954 811
is_linear=0
shrinkage=0.05


Tree=23
num_leaves=31
num_cat=0
split_feature=22 4 32 6 9 35 22 25 7 12 4 24 23 13 31 1 8 13 7 23 11 23 12 4 13 18 25 7 7 18
split_gain=1.23053e-06 2.76032e-06 1.71199e-06 2.05669e-06 2.64948e-06 3.06209e-06 1.30255e-06 3.3376e-06 3.41469e-06 4.11059e-06 3.63587e-06 2.58882e-06 2.70169e-06 2.73674e-06 2.11743e-06 1.73255e-06 1.29036e-06 7.66441e-07 4.22629e-07 1.48891e-06 1.75901e-06 2.42697e-06 1.45761e-06 1.69948e-06 2.08093e-06 1.11348e-06 8.07195e-07 8.23085e-07 7.52966e-07 5.54226e-07
threshold=2.1124408429981043e-07 0.0031616054600746841 1376818.3263854452 -1287.4999999999998 84053.611304161474 239658.18717680033 1.1751376210952476e-07 103697.95000000003 217279.97278784873 124.46764301967893 -0.0012554574565914842 274473.59179671603 -0.11575317382812499 1.0006637712854103 13484101.158828886 118039.68156799658 1.5006609377303444e-07 1.0013360227216588 39109.15368097039 -0.14447021484374997 102773.90000000001 -0.20867919921874997 109.24250650921859 -0.0012204218966021436 1.00108997741464 5.192794034395862e-08 117390.3 40378.456514883102 20724.397019301363 5.3982888401697327e-08
decision_type=2 2 2 2 2 2 2 2 2 2 2 2 2 2 2 2 2 2 2 2 2 2 2 2 2 2 2 2 2 2
left_child=6 2 -2 -4 -5 -6 18 -8 9 -9 -11 -12 13 -13 -15 16 -16 -7 28 20 -20 -22 -23 -24 -25 -26 27 -27 -1 -30
right_child=1 -3 3 4 5 17 7 8 -10 10 11 12 -14 14 15 -17 -18 -19 19 -21 21 22 23 24 25 26 -28 -29 29 -31
leaf_value=0 0 0 0 0 0 0 0 0 0 0 0 0 0 0 -7.8027153573359921e-06 0 0 7.7562220280836049e-06 0 0 0 0 0 0 0 0 0 4.3450754611057071e-06 0 -1.28027456277579e-06
leaf_weight=2638 1031 158 30 34 35 253 1225 268 319 280 76 107 75 40 1190 20 90 591 1129 1741 548 1824 475 1322 127 27 27 1863 1413 2008
leaf_count=2638 1031 158 30 34 35 253 1225 268 319 280 76 107 75 40 1190 20 90 591 1129 1741 548 1824 475 1322 127 27 27 1863 1413 2008
internal_value=0 1.19456e-06 2.24429e-06 3.88347e-06 4.60521e-06 5.43717e-06 -4.2404e-08 -9.44267e-07 -2.17246e-06 -3.06576e-06 -4.02639e-06 -4.97394e-06 -5.49795e-06 -6.03833e-06 -6.6692e-06 -7.06529e-06 -7.35404e-06 6.31329e-06 0 3.37247e-07 8.04787e-07 1.21374e-06 1.63911e-06 2.21612e-06 2.62038e-06 3.72186e-06 4.02764e-06 4.18585e-06 -6.22806e-08 -7.46396e-07
internal_weight=20964 2132 1974 943 913 879 18832 3690 2465 2146 1878 1598 1522 1447 1340 1300 1280 844 15142 9083 7342 6213 5665 3841 3366 2044 1917 1890 6059 3421
internal_count=20964 2132 1974 943 913 879 18832 3690 2465 2146 1878 1598 1522 1447 1340 1300 1280 844 15142 9083 7342 6213 5665 3841 3366 2044 1917 1890 6059 3421
is_linear=0
shrinkage=0.05


Tree=24
num_leaves=31
num_cat=0
split_feature=4 34 32 6 5 18 34 3 6 22 20 16 23 39 13 4 13 17 34 6 37 15 27 9 5 7 37 20 6 20
split_gain=1.19111e-06 2.61113e-06 3.08678e-06 2.97204e-06 2.31607e-06 1.33498e-06 2.3926e-06 1.73988e-06 1.75064e-06 2.43408e-06 2.26523e-06 1.54034e-06 1.31189e-06 1.2673e-06 1.05152e-06 9.33575e-07 1.63213e-06 3.69925e-06 1.24703e-06 1.38146e-06 8.92187e-07 8.94509e-07 8.87346e-07 5.41409e-07 4.7304e-07 3.29162e-07 9.45287e-07 1.32338e-06 3.22418e-07 2.00958e-07
threshold=-0.00086259922158787839 0.37609863281250006 439081.20762781525 607.34999999999866 5.4287413431248532e-08 3.4329687623334668e-07 0.44641113281250006 103419.93496915634 84.349999999998559 2.193491255210459e-07 47.17004914420545 9.0400084110102586e-07 -0.21502685546874997 4.2401555401789815e-07 1.0009071860040131 0.0019839906096089442 1.0032910843799423 -61.099999999998538 0.31042480468750006 -347.99999999999994 96518.636606870845 55.549999999995642 12510.57874624547 14578.044887830441 8.5622482300692913e-09 37792.24248183993 102913.30937828349 43.35896117323157 715.15000000000157 68.79862822849428
decision_type=2 2 2 2 2 2 2 2 2 2 2 2 2 2 2 2 2 2 2 2 2 2 2 2 2 2 2 2 2 2
left_child=1 2 -1 4 -4 6 7 -2 -9 10 -10 12 -12 22 -6 16 17 -7 -19 -20 -21 -22 -14 -24 -25 -8 -27 -28 -23 -29
right_child=5 -3 3 -5 14 15 25 8 9 -11 11 -13 13 -15 -16 -17 -18 18 19 20 21 28 23 24 -26 26 27 29 -30 -31
leaf_value=0 0 0 0 0 0 0 0 0 0 0 0 0 0 0 7.9259357701993718e-06 0 0 0 0 0 0 6.672854126618677e-06 0 0 -4.0355599812350207e-06 0 0 2.7621452404900348e-06 0 0
leaf_weight=142 1980 2123 127 21 50 486 3382 5589 136 236 175 121 135 48 525 353 124 37 28 23 20 626 31 25 2736 546 110 917 42 70
leaf_count=142 1980 2123 127 21 50 486 3382 5589 136 236 175 121 135 48 525 353 124 37 28 23 20 626 31 25 2736 546 110 917 42 70
internal_value=0 9.8399e-07 3.30001e-06 4.86834e-06 5.91543e-06 -6.85927e-08 -4.3341e-07 -8.97507e-07 -1.20392e-06 -2.2078e-06 -2.64538e-06 -3.00337e-06 -3.2541e-06 -3.50919e-06 7.26552e-06 4.6248e-07 1.3972e-06 2.31882e-06 4.54534e-06 5.09043e-06 5.63822e-06 6.0078e-06 -3.68765e-06 -3.87953e-06 -3.96358e-06 0 7.07689e-07 1.70415e-06 6.36564e-06 2.56504e-06
internal_weight=20964 2988 865 723 702 17976 16237 11212 9232 3643 3407 3271 3150 2975 575 1739 1386 1262 776 739 711 688 2927 2792 2761 5025 1643 1097 668 987
internal_count=20964 2988 865 723 702 17976 16237 11212 9232 3643 3407 3271 3150 2975 575 1739 1386 1262 776 739 711 688 2927 2792 2761 5025 1643 1097 668 987
is_linear=0
shrinkage=0.05


Tree=25
num_leaves=31
num_cat=0
split_feature=21 20 15 6 12 35 10 34 34 38 18 28 28 5 9 18 18 5 9 5 9 21 24 24 24 35 18 12 12 35
split_gain=2.76617e-06 4.936e-06 6.99164e-06 7.67342e-06 4.56705e-06 5.1114e-06 9.39426e-06 6.3532e-06 6.01228e-06 3.7276e-06 9.80433e-07 4.78416e-07 4.98857e-07 4.51934e-07 4.17808e-07 3.48218e-07 3.26913e-07 2.53519e-07 3.10882e-07 1.95356e-07 1.59885e-07 1.24892e-07 5.66886e-07 8.83295e-07 3.65942e-07 4.94765e-07 3.32579e-07 3.02202e-07 2.64615e-07 1.15251e-07
threshold=-0.059677124023437493 45.078025851780005 264.40000000000151 -133.84999999999852 193.48856964117158 654151.0967130732 109256.19975000004 0.35388183593750006 0.44445800781250006 1.2658653461910487e-08 9.2136961154492381e-08 5.8891153855226359e-07 2.4227381637355893e-07 1.4041112139820172e-07 448884.36320069199 6.8966737965823968e-08 8.0713149945753804e-08 1.806738943165875e-08 19486.859200672308 2.2294539251554863e-08 350227.14990237064 -0.13531494140624997 334597.97144535749 1295973.217937032 106318.72626451649 1044920.8969620836 4.0229144360203685e-07 156.09390704691478 64.447531567349415 33242.842644996468
decision_type=2 2 2 2 2 2 2 2 2 2 2 2 2 2 2 2 2 2 2 2 2 2 2 2 2 2 2 2 2 2
left_child=4 2 -2 -4 21 6 7 -6 9 -9 -11 12 -3 15 16 -14 -13 -17 -19 -18 -20 24 -23 26 -1 27 -24 28 -26 -30
right_child=1 11 3 -5 5 -7 -8 8 -10 10 -12 14 13 -15 -16 17 19 18 20 -21 -22 22 23 -25 25 -27 -28 -29 29 -31
leaf_value=0 0 0 1.5430845459959674e-05 0 0 0 0 0 0 0 -1.4011589726679719e-05 0 0 0 0 0 0 0 -1.4607477564509661e-06 1.2970945804851509e-06 0 0 1.3939806765200932e-06 0 0 0 0 0 0 -1.2695084904439782e-06
leaf_weight=604 1687 2600 225 25 103 414 487 20 50 33 472 35 301 292 141 104 25 31 2397 2074 26 2739 2329 221 222 26 28 683 26 2544
leaf_count=604 1687 2600 225 25 103 414 487 20 50 33 472 35 301 292 141 104 25 31 2397 2074 26 2739 2329 221 222 26 28 683 26 2544
internal_value=0 6.79202e-07 2.95686e-06 1.17306e-05 -4.59156e-07 -2.94944e-06 -4.77054e-06 -8.58703e-06 -1.07033e-05 -1.24135e-05 -1.33658e-05 0 -9.92533e-08 -6.43241e-07 7.07677e-07 -9.22599e-07 1.0116e-06 -1.13651e-06 -1.26675e-06 1.19572e-06 -1.39497e-06 0 1.13888e-07 7.59252e-07 -2.43432e-07 -5.75141e-07 1.25194e-06 -8.3018e-07 -1.06225e-06 -1.21788e-06
internal_weight=20964 9963 1937 250 11001 1579 1165 678 575 525 505 8026 5751 3151 2275 2859 2134 2558 2454 2099 2423 9422 5317 2578 4105 3501 2357 3475 2792 2570
internal_count=20964 9963 1937 250 11001 1579 1165 678 575 525 505 8026 5751 3151 2275 2859 2134 2558 2454 2099 2423 9422 5317 2578 4105 3501 2357 3475 2792 2570
is_linear=0
shrinkage=0.05


Tree=26
num_leaves=31
num_cat=0
split_feature=21 20 15 6 37 9 20 17 34 13 20 6 35 7 21 34 23 18 28 28 31 31 9 18 9 31 18 21 17 34
split_gain=2.5774e-06 4.60316e-06 5.81515e-06 7.16488e-06 4.3089e-06 9.33855e-06 7.17131e-06 7.59966e-06 5.65059e-06 6.0001e-06 1.77792e-06 2.0259e-06 2.21784e-06 1.94644e-06 4.26713e-07 2.12991e-06 1.10002e-06 5.33567e-07 3.93677e-07 4.24427e-07 1.05384e-06 8.84263e-07 6.63359e-07 5.73015e-07 3.85314e-07 4.01024e-07 5.07445e-07 3.39131e-07 3.14256e-07 3.05774e-07
threshold=-0.059677124023437493 45.078025851780005 264.40000000000151 -133.84999999999852 106126.48326784374 30205.435665603891 33.335046642802773 111.15000000000147 0.34973144531250006 1.0005968451989888 51.571856230457421 120.04999999999565 50822.842978006571 23211.195040734663 -0.14874267578124997 0.36291503906250006 -0.13458251953124997 1.9511126776658531e-08 5.8891153855226359e-07 2.4227381637355893e-07 63057714.781767048 11684387.70492824 37783.593883286871 7.6970882255402288e-08 448884.36320069199 25025150.149289772 8.0713149945753804e-08 -0.061172485351562493 -568.34999999999843 0.44763183593750006
decision_type=2 2 2 2 2 2 2 2 2 2 2 2 2 2 2 2 2 2 2 2 2 2 2 2 2 2 2 2 2 2
left_child=4 2 -2 -4 5 -1 -7 8 -8 -10 11 12 -11 -14 29 -16 17 -17 19 -3 21 -21 -23 -24 25 -20 -27 -19 -28 -6
right_child=1 18 3 -5 14 6 7 -9 9 10 -12 -13 13 -15 15 16 -18 27 24 20 -22 22 23 -25 -26 26 28 -29 -30 -31
leaf_value=0 0 0 1.4659645826882505e-05 0 -5.3702788707779378e-07 0 0 0 0 0 0 0 0 -1.3910512052179933e-05 0 0 0 2.0710812481105561e-06 0 0 0 0 0 -2.1172826628068277e-06 0 0 0 0 1.6313752887223195e-06 0
leaf_weight=1225 1687 2600 225 25 2870 228 43 378 209 33 182 61 73 631 1034 191 234 2625 213 452 316 154 216 2013 141 25 26 30 1870 954
leaf_count=1225 1687 2600 225 25 2870 228 43 378 209 33 182 61 73 631 1034 191 234 2625 213 452 316 154 216 2013 141 25 26 30 1870 954
internal_value=0 6.65849e-07 2.86725e-06 1.10364e-05 -4.29175e-07 -2.04409e-06 -4.43444e-06 -5.79515e-06 -7.70111e-06 -8.5634e-06 -1.02115e-05 -1.15595e-05 -1.23106e-05 -1.29046e-05 0 4.93876e-07 1.43337e-06 1.78598e-06 0 -6.8812e-08 -5.87683e-07 -1.14593e-06 -1.57793e-06 -1.84549e-06 6.48555e-07 9.48573e-07 1.23346e-06 1.9803e-06 1.48679e-06 -1.28657e-07
internal_weight=20964 9963 1937 250 11001 3063 1838 1610 1232 1189 980 798 737 704 7938 4114 3080 2846 8026 5751 3151 2835 2383 2229 2275 2134 1921 2655 1896 3824
internal_count=20964 9963 1937 250 11001 3063 1838 1610 1232 1189 980 798 737 704 7938 4114 3080 2846 8026 5751 3151 2835 2383 2229 2275 2134 1921 2655 1896 3824
is_linear=0
shrinkage=0.05


Tree=27
num_leaves=31
num_cat=0
split_feature=21 10 39 18 10 12 15 39 24 26 23 21 21 37 23 27 27 20 23 20 18 12 21 22 39 32 26 1 23 21
split_gain=2.56936e-06 2.52976e-06 3.31069e-06 2.56945e-06 2.04454e-06 2.10719e-06 1.35059e-06 1.19019e-06 1.15816e-06 1.00696e-06 1.73858e-06 1.28044e-06 1.69017e-06 1.52428e-06 1.13368e-06 1.11067e-06 1.1988e-06 1.0267e-06 7.92962e-07 7.79786e-07 7.79087e-07 8.3508e-07 7.32968e-07 7.19432e-07 6.47131e-07 5.532e-07 5.22618e-07 5.20337e-07 4.40095e-07 3.48175e-07
threshold=-0.10397338867187499 107616.52150000009 4.115391492288022e-08 4.5766878358826113e-07 105760.9825 335.61777939571061 66.20000000000438 1.0217211500234958e-06 212464.90357275508 104308.90929691034 -0.24688720703124997 -0.067108154296874986 0.073516845703125014 104293.12940814451 -0.16949462890624997 134570.48574500062 8898.4253155832248 37.834736907619394 -0.14849853515624997 74.90562810378951 3.0407154357367897e-08 86.799547226852653 1.0000000180025095e-35 1.9963184350025738e-08 4.2401555401789815e-07 214630.98816671231 104281.30421465272 104176.07662352816 -0.14263916015624997 -0.095062255859374986
decision_type=2 2 2 2 2 2 2 2 2 2 2 2 2 2 2 2 2 2 2 2 2 2 2 2 2 2 2 2 2 2
left_child=1 2 -1 18 9 6 -6 8 -8 10 -2 -12 13 15 -11 16 -13 -16 20 26 -4 -22 27 -23 -25 -10 28 -19 -18 -29
right_child=4 -3 3 -5 5 -7 7 -9 25 14 11 12 -14 -15 17 -17 19 22 -20 -21 21 23 -24 24 -26 -27 -28 29 -30 -31
leaf_value=0 0 0 0 0 0 0 0 0 0 0 0 0 0 0 0 0 2.8775273959422279e-06 0 0 0 0 0 0 -6.0992921270104212e-06 0 3.3540109477505749e-06 0 0 0 -2.1823439261279568e-06
leaf_weight=478 972 5046 38 82 470 97 214 38 60 1311 507 139 385 223 199 483 3324 44 95 22 116 49 674 905 23 2153 22 62 610 2123
leaf_count=478 972 5046 38 82 470 97 214 38 60 1311 507 139 385 223 199 483 3324 44 95 22 116 49 674 905 23 2153 22 62 610 2123
internal_value=0 -6.85659e-07 -2.31067e-06 -3.6902e-06 4.76701e-07 1.65677e-06 2.15184e-06 2.62354e-06 2.86647e-06 0 5.20334e-07 1.03794e-06 1.34046e-06 1.6782e-06 -4.00225e-07 1.94455e-06 2.21343e-06 -1.06842e-06 -4.44605e-06 2.41326e-06 -4.81458e-06 -5.07621e-06 -1.45048e-06 -5.5645e-06 -5.87676e-06 3.2124e-06 2.51972e-06 -1.88735e-06 2.59164e-06 -2.05649e-06
internal_weight=20964 6832 1786 1308 14132 3032 2935 2465 2427 11100 6687 5715 5208 4823 4413 4600 4117 3102 1226 3978 1131 1093 2903 977 928 2213 3956 2229 3934 2185
internal_count=20964 6832 1786 1308 14132 3032 2935 2465 2427 11100 6687 5715 5208 4823 4413 4600 4117 3102 1226 3978 1131 1093 2903 977 928 2213 3956 2229 3934 2185
is_linear=0
shrinkage=0.05


Tree=28
num_leaves=31
num_cat=0
split_feature=21 10 6 28 0 4 19 23 21 20 31 23 21 0 27 0 23 37 5 4 20 3 6 10 21 27 28 32 11 32
split_gain=2.21386e-06 2.93672e-06 2.7287e-06 1.67658e-06 2.907e-06 2.50013e-06 1.87774e-06 1.62571e-06 4.10685e-06 5.04153e-06 4.0519e-06 3.24057e-06 1.93667e-06 2.88407e-06 1.5815e-06 1.52759e-06 1.37471e-06 2.35487e-06 1.61272e-06 1.81013e-06 1.24075e-06 1.35312e-06 1.1873e-06 9.16268e-07 8.71783e-07 8.32436e-07 6.53763e-07 1.38647e-06 6.52976e-07 5.61198e-07
threshold=-0.13531494140624997 105760.9825 405.0999999999986 1.2169648597815113e-07 -0.99234172226238193 0.0021098559090842344 66.20000000000438 -0.18316650390624997 -0.0077133178710937491 32.011394891476435 11558288.303597318 -0.24688720703124997 -0.051559448242187493 1.7800533408711894 21935.716364743461 -3.1429633129294436 -0.17437744140624997 111015.44136892304 1.0000974115906688e-08 -0.0018135489508099769 74.90562810378951 105348.43626144009 209.34999999999857 111072.05225000002 0.073516845703125014 9190.1015173313845 6.0451261154955381e-07 376818.26220098365 99037.050000000003 1879566.2098142682
decision_type=2 2 2 2 2 2 2 2 2 2 2 2 2 2 2 2 2 2 2 2 2 2 2 2 2 2 2 2 2 2
left_child=16 7 3 -3 -5 6 -6 11 9 -9 -11 -2 13 14 -12 -16 17 18 -1 -20 21 24 28 -21 25 -13 27 -14 -10 -27
right_child=1 2 -4 4 5 -7 -8 8 22 10 12 20 26 -15 15 -17 -18 -19 19 23 -22 -23 -24 -25 -26 29 -28 -29 -30 -31
leaf_value=0 0 0 0 0 0 0 4.2040731010904892e-06 0 0 0 0 0 0 0 0 -1.0050143736033099e-05 0 0 0 -3.5209918382233877e-06 0 0 0 0 0 3.1499865282866755e-06 0 -2.1473968041295472e-06 1.7178086242279571e-06 0
leaf_weight=107 972 621 497 831 468 106 2187 156 200 2364 69 197 430 63 30 541 1698 803 246 1905 47 92 659 77 108 2266 510 1106 1559 49
leaf_count=107 972 621 497 831 468 106 2187 156 200 2364 69 197 430 63 30 541 1698 803 246 1905 47 92 659 77 108 2266 510 1106 1559 49
internal_value=0 3.59822e-07 1.41494e-06 1.96403e-06 2.38561e-06 3.16798e-06 3.57643e-06 0 -4.87748e-07 -1.51513e-06 -2.19788e-06 7.74056e-07 -3.55941e-06 -7.51153e-06 -8.55807e-06 -9.43464e-06 -8.44195e-07 -1.48103e-06 -2.33857e-06 -2.7461e-06 1.93559e-06 2.22601e-06 0 -3.28026e-06 2.53382e-06 2.75024e-06 0 -1.0315e-06 1.29899e-06 3.01768e-06
internal_weight=20964 16128 4710 4213 3592 2761 2655 11418 7687 5269 5113 3731 2749 703 640 571 4836 3138 2335 2228 2759 2712 2418 1982 2620 2512 2046 1536 1759 2315
internal_count=20964 16128 4710 4213 3592 2761 2655 11418 7687 5269 5113 3731 2749 703 640 571 4836 3138 2335 2228 2759 2712 2418 1982 2620 2512 2046 1536 1759 2315
is_linear=0
shrinkage=0.05


Tree=29
num_leaves=25
num_cat=0
split_feature=21 20 15 6 39 0 3 13 20 32 20 39 6 9 23 16 32 32 31 31 31 32 21 21
split_gain=1.96701e-06 4.50782e-06 4.86528e-06 6.66396e-06 3.87647e-06 3.30522e-06 4.16868e-06 3.18555e-06 2.72657e-06 2.79127e-06 3.30254e-06 2.58249e-06 2.77023e-06 2.63277e-06 4.94269e-07 2.08888e-07 1.26928e-07 2.78244e-07 6.26497e-07 7.99622e-07 2.14006e-07 2.27374e-07 2.79179e-08 1.20211e-08
threshold=-0.059677124023437493 45.078025851780005 264.40000000000151 -133.84999999999852 2.3893898112352827e-07 -3.0367531345221725 110726.86274371432 1.0007068994001862 30.60273177788606 306276.80561629304 59.60417532089506 2.432759405549009e-07 551.60000000000593 48529.096082985248 -0.13079833984374997 1.8392154012691462e-07 932558.48917540768 394052.69052296208 63057714.781767048 13127226.194395924 25025150.149289772 4100394.1320500472 -0.13531494140624997 -0.061172485351562493
decision_type=2 2 2 2 2 2 2 2 2 2 2 2 2 2 2 2 2 2 2 2 2 2 2 2
left_child=4 2 -2 -4 22 -6 7 -7 -9 -10 11 -11 13 -13 15 -15 17 -3 19 -19 -18 -22 -1 -24
right_child=1 16 3 -5 5 6 -8 8 9 10 -12 12 -14 14 -16 -17 20 18 -20 -21 21 -23 23 -25
leaf_value=-6.8260603177681804e-08 0 0 1.388274856869055e-05 0 0 0 0 0 0 0 0 0 0 0 0 -9.9471348652417616e-06 0 0 0 -1.3988320511071257e-06 8.6592188973926742e-07 0 1.2717837151388049e-07 0
leaf_weight=4138 1687 2828 225 25 96 94 410 21 49 40 81 27 45 21 44 826 205 510 341 2190 1862 90 4981 128
leaf_count=4138 1687 2828 225 25 96 94 410 21 49 40 81 27 45 21 44 826 205 510 341 2190 1862 90 4981 128
internal_value=0 5.74736e-07 2.74166e-06 1.03369e-05 -3.84512e-07 -2.5401e-06 -3.43644e-06 -4.9029e-06 -5.73558e-06 -6.28668e-06 -6.90981e-06 -7.7351e-06 -8.30785e-06 -8.94129e-06 -9.47393e-06 -9.79163e-06 0 -6.46492e-08 -4.86623e-07 -9.20205e-07 3.6842e-07 6.51198e-07 0 9.9433e-08
internal_weight=20964 9963 1937 250 11001 1754 1658 1248 1154 1133 1084 1003 963 918 891 847 8026 5869 3041 2700 2157 1952 9247 5109
internal_count=20964 9963 1937 250 11001 1754 1658 1248 1154 1133 1084 1003 963 918 891 847 8026 5869 3041 2700 2157 1952 9247 5109
is_linear=0
shrinkage=0.05


Tree=30
num_leaves=31
num_cat=0
split_feature=21 10 39 34 20 18 24 31 23 18 21 12 23 20 5 20 31 27 17 31 38 35 38 20 2 5 35 24 22 5
split_gain=1.85739e-06 2.24567e-06 2.91084e-06 2.89094e-06 2.20985e-06 2.2287e-06 9.01549e-07 8.29803e-07 8.00566e-07 7.25772e-07 7.01357e-07 6.93337e-07 6.01002e-07 3.3497e-06 3.22774e-06 2.6226e-06 2.70267e-06 2.5731e-06 3.2876e-06 5.26887e-06 2.95125e-06 2.30362e-06 1.68394e-06 1.39987e-06 1.22811e-06 6.77365e-07 6.57656e-07 5.65386e-07 5.1635e-07 2.80245e-07
threshold=-0.10397338867187499 107616.52150000009 4.115391492288022e-08 0.36462402343750006 40.384382453584074 3.1137006386397787e-07 138767.22729204965 6243838.1719578719 -0.14190673828124997 3.0407154357367897e-08 0.031295776367187507 86.799547226852653 -0.14483642578124997 52.043152760612308 2.7856671356867468e-08 53.612957035185353 175578026.87595055 111024.30894744104 -32.150000000001448 23805016.738868874 1.7594118807762104e-08 111848.87091245469 2.165683216340134e-08 73.363184391589428 102409.13128049053 4.5711388233281549e-07 108533.28750581476 2437957.6287343358 1.9963184350025738e-08 3.7209652573347081e-08
decision_type=2 2 2 2 2 2 2 2 2 2 2 2 2 2 2 2 2 2 2 2 2 2 2 2 2 2 2 2 2 2
left_child=1 2 -1 -4 5 6 -2 -8 9 -5 -9 -11 13 -6 -15 -14 22 18 -16 -20 -21 -22 -17 -23 -24 26 -26 29 -13 -28
right_child=4 -3 3 8 12 -7 7 10 -10 11 -12 28 15 14 17 16 -18 -19 19 20 21 23 24 -25 25 -27 27 -29 -30 -31
leaf_value=0 0 0 0 0 0 0 0 5.0357463186407859e-06 0 0 0 0 0 0 0 0 0 0 0 0 0 8.3819898379367454e-06 0 0 0 0 0 0 -5.5139655574897548e-06 -5.6802027323618834e-06
leaf_weight=478 143 5046 89 43 4029 210 194 770 31 133 72 50 2269 1839 612 233 152 183 1100 148 75 885 63 39 64 20 108 110 962 814
leaf_count=478 143 5046 89 43 4029 210 194 770 31 133 72 50 2269 1839 612 233 152 183 1100 148 75 885 63 39 64 20 108 110 962 814
internal_value=0 -5.79307e-07 -2.10403e-06 -3.40701e-06 4.07839e-07 2.38103e-06 3.37705e-06 3.89279e-06 -4.28761e-06 -4.53297e-06 4.59439e-06 -4.78581e-06 0 3.79132e-07 1.40643e-06 -2.40528e-07 -2.08174e-06 2.41378e-06 2.90675e-06 3.79578e-06 6.30137e-06 7.27833e-06 -3.09596e-06 7.96904e-06 -3.87936e-06 -4.31854e-06 -4.53156e-06 -4.8375e-06 -5.25608e-06 -5.26554e-06
internal_weight=20964 6832 1786 1308 14132 1389 1179 1036 1219 1188 842 1145 12743 8910 4881 3833 1564 3042 2859 2247 1147 999 1412 924 1179 1116 1096 1032 1012 922
internal_count=20964 6832 1786 1308 14132 1389 1179 1036 1219 1188 842 1145 12743 8910 4881 3833 1564 3042 2859 2247 1147 999 1412 924 1179 1116 1096 1032 1012 922
is_linear=0
shrinkage=0.05


Tree=31
num_leaves=31
num_cat=0
split_feature=21 10 6 28 13 23 21 23 6 31 24 13 10 23 17 38 23 33 38 39 39 13 6 3 21 27 27 21 27 7
split_gain=1.67749e-06 2.88868e-06 2.61379e-06 1.61168e-06 1.71085e-06 1.26548e-06 3.77374e-06 2.8086e-06 2.76139e-06 3.35169e-06 2.16291e-06 1.24691e-06 1.24544e-06 1.56131e-06 1.34303e-06 1.16839e-06 1.16768e-06 1.88161e-06 1.53989e-06 2.09938e-06 1.71392e-06 1.11306e-06 1.02805e-06 9.74912e-07 9.55144e-07 7.30918e-07 6.53582e-07 6.51487e-07 6.45698e-07 9.37973e-07
threshold=-0.13531494140624997 105760.9825 405.0999999999986 1.2169648597815113e-07 1.0045465601060448 -0.18316650390624997 -0.0077133178710937491 -0.24688720703124997 -894.8000000000028 11558288.303597318 274473.59179671603 1.0004768022366071 105255.19475000001 -0.11996459960937499 466.25000000000006 1.3400431617468378e-07 -0.17437744140624997 110568.85077855157 1.1036703998941462e-08 5.1545914911013866e-07 5.8861360213043618e-08 1.0048762375316076 209.34999999999857 105348.43626144009 0.073516845703125014 9190.1015173313845 11881.55235401754 -0.13433837890624997 17965.00346229874 25338.993477866756
decision_type=2 2 2 2 2 2 2 2 2 2 2 2 2 2 2 2 2 2 2 2 2 2 2 2 2 2 2 2 2 2
left_child=16 5 3 -3 11 7 8 -2 -7 -10 -11 -5 13 14 28 26 17 18 -1 20 -20 -22 -8 24 25 -9 -13 -28 -12 -30
right_child=1 2 -4 4 -6 6 22 23 9 10 12 15 -14 -15 -16 -17 -18 -19 19 -21 21 -23 -24 -25 -26 -27 27 -29 29 -31
leaf_value=0 0 0 0 0 0 0 1.2087345097845508e-06 0 0 0 0 0 0 0 0 0 0 0 0 0 -4.1454360232518662e-06 0 0 0 0 2.5398592752612582e-06 0 3.3016082034951603e-06 0 -5.3321793787075248e-06
leaf_weight=530 972 621 497 303 33 102 1759 198 2423 297 54 72 571 91 78 117 1698 924 76 40 1530 38 659 101 112 2348 35 3032 30 1623
leaf_count=530 972 621 497 303 33 102 1759 198 2423 297 54 72 571 91 78 117 1698 924 76 40 1530 38 659 101 112 2348 35 3032 30 1623
internal_value=0 3.23548e-07 1.37539e-06 1.91464e-06 2.32836e-06 0 -4.68922e-07 6.28408e-07 -1.45303e-06 -1.86789e-06 -3.10215e-06 2.58327e-06 -3.60568e-06 -4.31479e-06 -4.66402e-06 2.87256e-06 -7.19763e-07 -1.31477e-06 -2.13883e-06 -2.881e-06 -3.41971e-06 -3.87217e-06 0 1.75467e-06 2.028e-06 2.28726e-06 3.08053e-06 3.20081e-06 -4.9713e-06 -5.14759e-06
internal_weight=20964 16128 4710 4213 3592 11418 7687 3731 5269 5167 2744 3559 2447 1876 1785 3256 4836 3138 2214 1684 1644 1568 2418 2759 2658 2546 3139 3067 1707 1653
internal_count=20964 16128 4710 4213 3592 11418 7687 3731 5269 5167 2744 3559 2447 1876 1785 3256 4836 3138 2214 1684 1644 1568 2418 2759 2658 2546 3139 3067 1707 1653
is_linear=0
shrinkage=0.05


Tree=32
num_leaves=28
num_cat=0
split_feature=21 20 15 26 9 20 17 15 34 17 20 32 12 21 34 28 21 3 28 28 34 26 34 32 32 32 28
split_gain=1.615e-06 4.25286e-06 4.00708e-06 3.43403e-06 8.22134e-06 5.92218e-06 8.32919e-06 6.46918e-06 2.6884e-06 2.3047e-06 1.9424e-06 3.9314e-06 1.23128e-06 2.43165e-07 1.8016e-06 1.19925e-06 1.01052e-06 5.3468e-07 1.92263e-07 4.00427e-07 1.91488e-07 3.14448e-07 2.55646e-07 1.45655e-07 1.96785e-07 1.29531e-07 6.20112e-08
threshold=-0.059677124023437493 45.078025851780005 264.40000000000151 106185.87808483282 30205.435665603891 33.335046642802773 108.90000000000147 69.549999999995649 0.33532714843750006 -130.15000000000143 49.016870214386962 183959.92492873999 78.201893553026551 -0.18463134765624997 0.42687988281250006 1.1864757235000059e-07 -0.16656494140624997 106320.13300468297 5.8891153855226359e-07 2.4227381637355893e-07 0.37487792968750006 107563.22952662771 0.44812011718750006 4100394.1320500472 862216.19720065047 379813.85964147479 4.9794002270446835e-07
decision_type=2 2 2 2 2 2 2 2 2 2 2 2 2 2 2 2 2 2 2 2 2 2 2 2 2 2 2
left_child=3 2 -2 4 -1 -6 7 -7 -9 -4 11 -10 -13 20 -15 -16 -17 -18 19 -3 -5 -22 26 24 -20 -21 -23
right_child=1 18 9 13 5 6 -8 8 10 -11 -12 12 -14 14 15 16 17 -19 23 25 21 22 -24 -25 -26 -27 -28
leaf_value=0 0 0 1.2173185362803808e-05 0 0 0 0 0 0 0 0 0 -1.378767287390415e-05 0 0 0 0 3.2512637835511221e-06 0 0 0 -1.3644773887488054e-06 0 0 7.6160085138475567e-07 -6.8695689053529978e-07 0
leaf_weight=1246 1687 2600 197 269 219 289 399 20 92 53 247 30 561 3780 1055 179 26 1132 51 134 54 1109 250 90 2134 3017 44
leaf_count=1246 1687 2600 197 269 219 289 399 20 92 53 247 30 561 3780 1055 179 26 1132 51 134 54 1109 250 90 2134 3017 44
internal_value=0 5.29746e-07 2.63288e-06 -3.35941e-07 -1.77953e-06 -4.0446e-06 -5.25205e-06 -7.29872e-06 -9.30041e-06 9.68223e-06 -9.77669e-06 -1.17156e-05 -1.3238e-05 0 3.12301e-07 1.461e-06 2.4619e-06 3.02972e-06 0 -1.31139e-07 -5.86448e-08 -5.7673e-07 -9.51679e-07 4.09629e-07 5.84255e-07 -5.90826e-07 -1.28698e-06
internal_weight=20964 9963 1937 11001 3103 1857 1638 1239 950 250 930 683 591 7898 6172 2392 1337 1158 8026 5751 1726 1457 1403 2275 2185 3151 1153
internal_count=20964 9963 1937 11001 3103 1857 1638 1239 950 250 930 683 591 7898 6172 2392 1337 1158 8026 5751 1726 1457 1403 2275 2185 3151 1153
is_linear=0
shrinkage=0.05


Tree=33
num_leaves=31
num_cat=0
split_feature=4 21 9 6 35 21 38 35 19 16 0 23 22 17 13 10 12 15 23 6 15 31 0 35 38 5 35 0 10 5
split_gain=1.67312e-06 2.93221e-06 1.69313e-06 1.84921e-06 2.16829e-06 1.14162e-06 1.34297e-06 2.10576e-06 1.42963e-06 9.38284e-07 1.369e-06 1.23086e-06 9.14314e-07 1.18636e-06 1.92552e-06 1.23052e-06 6.21015e-07 5.98994e-07 5.30512e-07 3.65921e-06 2.97746e-06 2.80049e-06 2.36849e-06 4.3246e-06 3.90156e-06 2.05493e-06 1.82247e-06 6.88767e-07 5.36138e-07 3.16735e-07
threshold=-0.00086259922158787839 -0.035354614257812493 30962.07500682327 415.40000000000151 96495.632696686938 -0.097320556640624986 1.2241476797917541e-08 598947.22840770299 90.400000000001469 1.4453968827199417e-07 3.5461353548139516 -0.14776611328124997 3.3659757889717952e-08 -344.79999999999558 1.0042700737798944 117274.22225000009 87.977469474668183 56.849999999998552 -0.14483642578124997 39.650000000001462 123.40000000000147 352669766.32988763 0.49055847585079865 275039.22737877216 7.0830709771971519e-08 3.6379382926983501e-08 150653.397061481 0.55556430497118792 94268.122750000126 2.7256830597304817e-08
decision_type=2 2 2 2 2 2 2 2 2 2 2 2 2 2 2 2 2 2 2 2 2 2 2 2 2 2 2 2 2 2
left_child=1 -1 -3 4 -4 6 -2 8 -8 -10 11 12 -11 -14 15 16 -15 -6 22 -20 -21 25 -7 -24 27 -22 -27 -25 -29 -30
right_child=5 2 3 -5 17 18 7 -9 9 10 -12 -13 13 14 -16 -17 -18 -19 19 20 21 -23 23 24 -26 26 -28 28 29 -31
leaf_value=0 0 0 0 0 0 0 0 0 0 0 0 0 0 0 0 0 -5.3894880313529418e-06 6.9468160823508612e-06 0 0 0 0 0 0 0 0 -6.2514958331842439e-06 0 0 6.270217058896899e-06
leaf_weight=2278 2394 80 27 20 21 4424 1153 245 273 141 32 119 82 22 20 80 1334 562 1719 792 68 38 3011 28 153 60 855 32 99 802
leaf_count=2278 2394 80 27 20 21 4424 1153 245 273 141 32 119 82 22 20 80 1334 562 1719 792 68 38 3011 28 153 60 855 32 99 802
internal_value=0 1.16009e-06 3.9983e-06 4.97331e-06 5.75518e-06 -9.47606e-08 -7.15208e-07 -1.34917e-06 -1.8905e-06 -2.68939e-06 -3.09734e-06 -3.41579e-06 -3.78512e-06 -4.13844e-06 -4.48643e-06 -4.87446e-06 -5.23741e-06 6.62964e-06 0 -1.93262e-07 -2.26236e-06 -4.04698e-06 3.73772e-07 1.31337e-06 4.01137e-06 -4.9125e-06 -5.61604e-06 5.36669e-06 5.61346e-06 5.84101e-06
internal_weight=20964 2988 710 630 610 17976 5895 3501 3256 2103 1830 1798 1679 1538 1456 1436 1356 583 12081 3532 1813 1021 8549 4125 1114 983 915 961 933 901
internal_count=20964 2988 710 630 610 17976 5895 3501 3256 2103 1830 1798 1679 1538 1456 1436 1356 583 12081 3532 1813 1021 8549 4125 1114 983 915 961 933 901
is_linear=0
shrinkage=0.05


Tree=34
num_leaves=27
num_cat=0
split_feature=4 21 9 6 15 18 9 21 31 13 16 22 9 4 13 17 6 0 37 15 23 9 5 31 39 39
split_gain=1.47175e-06 2.50535e-06 1.5436e-06 1.7279e-06 1.29302e-06 1.1244e-06 1.63642e-06 2.03092e-06 1.4369e-06 1.3858e-06 2.04466e-06 1.66845e-06 1.33168e-06 7.26244e-07 1.43683e-06 3.2366e-06 1.10794e-06 7.22397e-07 7.18755e-07 7.18165e-07 5.4426e-07 5.81366e-07 2.53092e-07 1.42573e-07 3.59712e-08 1.14827e-06
threshold=-0.00086259922158787839 -0.035354614257812493 30962.07500682327 415.40000000000151 56.849999999998552 3.4329687623334668e-07 29731.754487726477 0.038101196289062507 11558288.303597318 1.0008126544287392 1.430369891969071e-07 3.941856376968393e-07 392676.13500632584 0.0019839906096089442 1.0032910843799423 -61.099999999998538 -347.99999999999994 -3.2729605652953855 96518.636606870845 55.549999999995642 -0.12142944335937499 32641.778852843141 1.1706871605557326e-08 25542860.965825375 2.3893898112352827e-07 4.0833059962195915e-07
decision_type=2 2 2 2 2 2 2 2 2 2 2 2 2 2 2 2 2 2 2 2 2 2 2 2 2 2
left_child=1 24 -3 4 -4 6 -2 8 -8 -10 -11 12 17 14 15 -7 -17 -12 -18 -20 21 -19 -23 -21 -1 -26
right_child=5 2 3 -5 -6 13 7 -9 9 10 11 -13 -14 -15 -16 16 18 20 19 23 -22 22 -24 -25 25 -27
leaf_value=2.585651871069715e-07 0 0 0 0 6.0273253730526976e-06 0 0 0 0 0 0 0 0 0 0 0 0 0 0 0 0 0 -2.7713159037669234e-06 5.7015276119701668e-06 -2.2303146247401786e-06 0
leaf_weight=1345 4158 80 25 20 585 486 3266 1055 1981 411 25 55 58 353 124 28 23 70 20 80 299 55 4804 625 577 356
leaf_count=1345 4158 80 25 20 585 486 3266 1055 1981 411 25 55 58 353 124 28 23 70 20 80 299 55 4804 625 577 356
internal_value=0 1.09476e-06 3.7234e-06 4.6635e-06 5.43522e-06 -7.38832e-08 -4.15749e-07 -7.55668e-07 -1.04223e-06 -1.41653e-06 -1.81503e-06 -2.12114e-06 -2.30893e-06 2.42896e-07 1.17639e-06 2.08949e-06 4.18639e-06 -2.45434e-06 4.67807e-06 5.00566e-06 -2.52944e-06 -2.65748e-06 -2.73186e-06 5.32106e-06 0 0
internal_weight=20964 2988 710 630 610 17976 16237 12079 11024 7758 5777 5366 5311 1739 1386 1262 776 5253 748 725 5228 4929 4859 705 2278 933
internal_count=20964 2988 710 630 610 17976 16237 12079 11024 7758 5777 5366 5311 1739 1386 1262 776 5253 748 725 5228 4929 4859 705 2278 933
is_linear=0
shrinkage=0.05


Tree=35
num_leaves=31
num_cat=0
split_feature=20 21 30 17 7 38 38 31 24 21 30 39 17 7 16 0 13 13 30 0 4 0 19 38 4 30 0 24 24 15
split_gain=1.37532e-06 3.0356e-06 1.35873e-06 1.4959e-06 2.14539e-06 2.57326e-06 2.0396e-06 2.1386e-06 1.71803e-06 1.05554e-06 1.17009e-06 1.89499e-06 1.08768e-06 9.41517e-07 9.96759e-07 7.56223e-07 7.29398e-07 7.22632e-07 4.72666e-07 2.37118e-06 2.85888e-06 2.64731e-06 1.54611e-06 1.98779e-06 1.36928e-06 7.35462e-07 5.1757e-07 8.03786e-07 1.04838e-06 1.53118e-06
threshold=41.021892473465655 -0.18463134765624997 103186.10000000002 64.049999999995649 254870.10828091815 1.263641645826202e-07 6.3606447256728721e-09 109706289.43756531 127161.28514332691 -0.13629150390624997 111996.85000000002 4.6263161733996583e-08 -248.15000000000143 153286.29901724576 6.5315494113098001e-08 3.5461353548139516 1.0004489592171859 1.0003678181402509 106125.00000000001 -0.99234172226238193 0.0021098559090842344 2.3792751615432772 108.45000000000438 5.6506771290258761e-09 -0.001389014188593703 106532.90000000001 1.2892628601887852 1809596.3500219772 264683.47019852063 78.900000000001469
decision_type=2 2 2 2 2 2 2 2 2 2 2 2 2 2 2 2 2 2 2 2 2 2 2 2 2 2 2 2 2 2
left_child=1 -1 -3 4 5 6 -4 8 -8 10 11 -2 -13 14 -14 16 -16 -10 26 -20 21 22 -21 -24 -25 -26 27 28 -11 -30
right_child=9 2 3 -5 -6 -7 7 -9 17 18 -12 12 13 -15 15 -17 -18 -19 19 20 -22 -23 23 24 25 -27 -28 -29 29 -31
leaf_value=0 0 0 0 0 0 0 0 0 0 0 0 0 0 0 0 0 -3.525253180033539e-06 6.2326210874182879e-06 0 0 0 0 0 0 0 4.704430837096174e-06 0 0 0 -1.7111659314418151e-06
leaf_weight=411 757 970 113 98 79 25 49 43 23 2052 594 156 25 196 208 24 1740 1196 674 1683 347 344 36 48 67 1580 2488 412 1195 3331
leaf_count=411 757 970 113 98 79 25 49 43 23 2052 594 156 25 196 208 24 1740 1196 674 1683 347 344 36 48 67 1580 2488 412 1195 3331
internal_value=0 1.06236e-06 2.05682e-06 2.97373e-06 3.44347e-06 4.02556e-06 4.58334e-06 5.16784e-06 5.64166e-06 -4.97492e-08 -8.51586e-07 -1.34374e-06 -2.09863e-06 -2.44078e-06 -2.77861e-06 -3.01366e-06 -3.18818e-06 6.05234e-06 0 4.96943e-07 1.31588e-06 1.94762e-06 2.47264e-06 3.78033e-06 4.18641e-06 4.48499e-06 -1.23802e-08 -4.30483e-07 -7.08802e-07 -1.14422e-06
internal_weight=20964 3007 2596 1626 1528 1449 1424 1311 1268 17957 3700 3106 2349 2193 1997 1972 1948 1219 14257 4779 4105 3758 3414 1731 1695 1647 9478 6990 6578 4526
internal_count=20964 3007 2596 1626 1528 1449 1424 1311 1268 17957 3700 3106 2349 2193 1997 1972 1948 1219 14257 4779 4105 3758 3414 1731 1695 1647 9478 6990 6578 4526
is_linear=0
shrinkage=0.05


Tree=36
num_leaves=30
num_cat=0
split_feature=4 7 31 23 17 24 18 22 22 27 10 13 32 39 0 8 32 4 13 17 6 29 15 8 16 11 2 31 7
split_gain=1.1512e-06 1.25438e-06 1.66057e-06 1.77391e-06 1.70587e-06 9.02636e-07 8.86084e-07 1.39664e-06 9.55714e-07 1.3761e-06 1.53152e-06 1.5531e-06 2.42535e-06 2.43037e-06 3.56174e-06 2.10536e-06 7.10357e-07 5.8704e-07 1.30152e-06 2.92892e-06 1.03289e-06 6.9238e-07 6.72028e-07 5.42734e-07 3.13263e-07 3.71241e-07 1.5415e-07 8.3843e-08 1.20531e-08
threshold=-0.00086259922158787839 269688.77676408557 199537083.12971011 -0.17205810546874997 252.50000000000003 230578.15746772531 3.4329687623334668e-07 3.9546219854891133e-08 2.193491255210459e-07 21060.491722670671 94815.874000000113 1.0008126544287392 376818.26220098365 1.4716199577247786e-07 -0.64485419087950413 1.6795835137545739e-07 250782.61763340243 0.0019839906096089442 1.0032910843799423 -61.099999999998538 -347.99999999999994 96518.626243307081 55.549999999995642 2.7273906783416074e-08 2.0659748667527369e-06 103023.15000000001 109641.50603489632 26504866.408183228 19092.043490268126
decision_type=2 2 2 2 2 2 2 2 2 2 2 2 2 2 2 2 2 2 2 2 2 2 2 2 2 2 2 2 2
left_child=1 2 3 -1 5 -5 7 -2 9 -9 -11 -12 -13 -14 -15 23 -7 18 19 -8 -21 -22 -23 -16 25 -18 28 -24 -27
right_child=6 -3 -4 4 -6 16 17 8 -10 10 11 12 13 14 15 -17 24 -19 -20 20 21 22 27 -25 -26 26 -28 -29 -30
leaf_value=0 0 0 0 0 0 0 0 0 0 0 0 0 0 0 0 0 0 0 0 0 0 0 0 -4.6020581984957037e-06 0 0 0 5.4644771307951689e-06 5.0089109390633356e-06
leaf_weight=1263 5430 171 30 117 116 65 486 1842 766 272 2324 1434 1025 774 60 95 141 353 124 28 22 20 94 2215 31 21 37 612 996
leaf_count=1263 5430 171 30 117 116 65 486 1842 766 272 2324 1434 1025 774 60 95 141 353 124 28 22 20 94 2215 31 21 37 612 996
internal_value=0 9.75805e-07 1.45711e-06 1.90671e-06 3.09161e-06 3.65706e-06 -4.26788e-08 -3.69502e-07 -7.26784e-07 -8.98032e-07 -1.18627e-06 -1.39231e-06 -1.85352e-06 -2.46405e-06 -3.15966e-06 -4.12318e-06 4.04152e-06 1.33661e-07 1.03981e-06 1.94049e-06 3.94439e-06 4.42632e-06 4.75077e-06 -4.47482e-06 4.31836e-06 4.44829e-06 4.82851e-06 5.0585e-06 4.95394e-06
internal_weight=20964 2988 2817 2787 1524 1408 17976 16237 10807 10041 8199 7927 5603 4169 3144 2370 1291 1739 1386 1262 776 748 726 2275 1226 1195 1054 706 1017
internal_count=20964 2988 2817 2787 1524 1408 17976 16237 10807 10041 8199 7927 5603 4169 3144 2370 1291 1739 1386 1262 776 748 726 2275 1226 1195 1054 706 1017
is_linear=0
shrinkage=0.05


Tree=37
num_leaves=31
num_cat=0
split_feature=7 34 12 12 39 9 27 13 9 22 17 22 11 23 7 7 35 39 34 27 34 17 15 8 37 34 38 18 28 10
split_gain=6.32222e-07 3.12876e-06 5.32445e-06 6.76551e-06 2.55574e-06 2.44596e-06 2.26074e-06 1.70803e-06 2.33907e-06 1.70091e-06 1.59032e-06 3.28051e-06 1.79712e-06 1.42198e-06 1.36942e-06 1.32242e-06 1.36679e-06 1.51081e-06 1.49558e-06 1.81229e-06 1.10556e-06 3.71921e-06 4.07923e-06 1.84005e-06 1.34321e-06 1.09546e-06 1.29435e-06 9.54254e-07 9.04227e-07 9.36419e-07
threshold=43710.484294143804 0.40319824218750006 132.3987525368818 199.96563063185775 3.4954490292260437e-07 29731.754487726477 10974.269000926928 1.0009132104412151 151451.24951370383 2.7344899164159785e-08 74.549999999995649 2.1124408429981043e-07 103550.50000000001 -0.21502685546874997 24949.51978878165 61281.714661128724 1218152.7169834112 1.2687893859271508e-07 0.39465332031250006 33232.0543088431 0.37487792968750006 -176.55000000000288 160.95000000000439 2.6653515777038071e-07 99219.92413368226 0.35070800781250006 1.155623742197964e-08 4.7129578019681682e-07 8.8355260537901359e-07 94268.122750000126
decision_type=2 2 2 2 2 2 2 2 2 2 2 2 2 2 2 2 2 2 2 2 2 2 2 2 2 2 2 2 2 2
left_child=5 10 -3 4 6 -1 -4 -8 9 -9 20 12 -12 -14 -7 -15 17 -17 19 -19 21 22 -2 24 -24 -16 -27 -11 29 -28
right_child=1 2 3 -5 -6 14 7 8 -10 27 11 -13 13 15 25 16 -18 18 -20 -21 -22 -23 23 -25 -26 26 28 -29 -30 -31
leaf_value=0 0 0 0 0 0 0 0 0 0 6.9121852653091669e-06 0 0 0 0 0 0 0 0 0 -6.1766813130793729e-06 0 0 0 0 7.6667283924561453e-06 0 0 0 0 -3.5211436428138578e-06
leaf_weight=3473 406 3053 44 818 163 1281 338 40 200 1423 353 707 54 145 72 188 30 113 130 1022 1902 2107 20 31 514 570 28 57 25 1657
leaf_count=3473 406 3053 44 818 163 1281 338 40 200 1423 353 707 54 145 72 188 30 113 130 1022 1902 2107 20 31 514 570 28 57 25 1657
internal_value=0 2.88026e-07 1.20917e-06 2.68838e-06 4.15987e-06 -2.46248e-07 4.65681e-06 4.98955e-06 5.68067e-06 6.35317e-06 0 -1.20412e-06 -2.44612e-06 -3.14804e-06 -1.34228e-06 -3.52454e-06 -3.98322e-06 -4.3064e-06 -4.92813e-06 -5.51017e-06 0 9.4759e-07 3.52433e-06 6.27625e-06 7.09158e-06 -2.05876e-06 -2.36081e-06 6.65782e-06 -3.05342e-06 -3.28682e-06
internal_weight=20964 13858 6136 3083 2265 7106 2102 2058 1720 1520 7722 2742 2035 1682 3633 1628 1483 1453 1265 1135 4980 3078 971 565 534 2352 2280 1480 1710 1685
internal_count=20964 13858 6136 3083 2265 7106 2102 2058 1720 1520 7722 2742 2035 1682 3633 1628 1483 1453 1265 1135 4980 3078 971 565 534 2352 2280 1480 1710 1685
is_linear=0
shrinkage=0.05


Tree=38
num_leaves=31
num_cat=0
split_feature=21 17 19 12 3 8 20 17 13 34 4 20 6 5 18 33 15 24 6 21 22 17 30 33 13 34 10 21 34 28
split_gain=1.36236e-06 3.76056e-06 4.49608e-06 3.18105e-06 3.09923e-06 7.52573e-06 4.95481e-06 8.24327e-06 6.58379e-06 3.18557e-06 2.79499e-06 2.35772e-06 1.91049e-06 1.68874e-06 1.52809e-06 8.86057e-07 8.83005e-07 1.20268e-06 7.44664e-07 5.69053e-07 5.44528e-07 4.54662e-07 4.01408e-07 7.55425e-07 8.33392e-07 9.31976e-07 2.77191e-07 2.50706e-07 1.74937e-06 1.16271e-06
threshold=-0.059677124023437493 154.8499999999913 173.90000000000148 120.89211501644812 106182.48517837822 1.9602058698770293e-08 33.335046642802773 111.15000000000147 1.0005968451989888 0.33532714843750006 0.0021098559090842344 51.571856230457421 120.04999999999565 1.5920918340467144e-08 5.3284602312772563e-08 102262.05065131503 99.900000000001469 152436.71591770084 577.40000000000157 0.058700561523437507 5.8552657177832701e-07 157.90000000000148 99599.500000000015 105454.02182979755 1.0013569932362356 0.33264160156250006 107964.35750000023 -0.18463134765624997 0.42687988281250006 1.1864757235000059e-07
decision_type=2 2 2 2 2 2 2 2 2 2 2 2 2 2 2 2 2 2 2 2 2 2 2 2 2 2 2 2 2 2
left_child=4 2 22 -4 5 -1 -7 8 -8 -10 14 12 13 -11 -5 -3 -17 -18 19 -16 21 -19 -2 24 25 -24 -23 -6 -29 -30
right_child=1 15 3 10 27 6 7 -9 9 11 -12 -13 -14 -15 18 16 17 20 -20 -21 -22 26 23 -25 -26 -27 -28 28 29 -31
leaf_value=0 0 0 0 0 0 0 0 0 0 0 0 0 0 -1.2919386531041064e-05 5.9397060126255985e-06 0 0 0 0 0 0 -2.9810309928309314e-06 0 0 0 1.6685333374106002e-06 0 0 0 2.4390830475466578e-06
leaf_weight=1288 1556 597 154 20 1724 215 222 383 21 108 178 188 61 597 1284 350 31 27 26 71 24 1195 167 1077 543 2624 39 3810 1055 1329
