tree
version=v4
num_class=1
num_tree_per_iteration=1
label_index=0
max_feature_idx=39
objective=regression
feature_names=Column_0 Column_1 Column_2 Column_3 Column_4 Column_5 Column_6 Column_7 Column_8 Column_9 Column_10 Column_11 Column_12 Column_13 Column_14 Column_15 Column_16 Column_17 Column_18 Column_19 Column_20 Column_21 Column_22 Column_23 Column_24 Column_25 Column_26 Column_27 Column_28 Column_29 Column_30 Column_31 Column_32 Column_33 Column_34 Column_35 Column_36 Column_37 Column_38 Column_39
feature_infos=[-3.8100189314397994:3.3191131113696621] [-3.5878493522830173:4.9112583104545697] [-3.7166433686777158:3.3853089397911029] [-3.6986441604450784:3.8632481383928345] [-3.8832514346085012:3.8959486730594999] [-4.4358654010451968:3.6713707562227067] [-3.909805411460217:3.5373145499015006] [-3.812636328981474:3.5086593244277053] [-3.6073918224826329:4.4168948272510953] [-3.9737955393451818:4.5850677959936501] [-3.64353221850289:3.7302572998651278] [-3.6441436895201837:3.6183130487491004] [-3.8996579840046444:3.8614347307079058] [-4.2327291009210741:3.5542496988880137] [-3.5806047977022462:3.4699823746216154] [-4.0737440523491877:3.5229441466483209] [-3.5872840350610806:5.0072352319089966] [-3.7472751885804971:3.9789485224456564] [-3.6650910462190671:4.2182245002445473] [-3.8275019368023311:3.6236294505540454] [-3.8239461497411482:3.5377085946174698] [-4.9282384807851214:3.96328532677241] [-3.8190890376974873:3.8795740783785937] [-3.5514036502233131:4.3269207406101309] [-3.3226759614956793:3.7076380079996634] [-3.8930864044964908:3.7982103403702117] [-3.2052888558517205:3.5524873051415695] [-3.7582846153384746:3.5411459082114072] [-3.2770051187212395:3.55220559097907] [-3.9067876095644034:3.7096640530924128] [-4.2570092882479944:3.3595852358311351] [-3.6448853905971568:3.4680735742345776] [-4.2102216413865152:3.8623916251005626] [-3.7533129738499666:4.9932761191434611] [-3.7737653507460398:4.0896136183047176] [-3.7504323631274477:3.7258982714992146] [-4.2552797663511406:3.9828398211139842] [-3.7419493643111266:3.7073133031247676] [-3.6055727090686274:3.5283894055726011] [-3.4187876606119434:3.5079407926093076]
tree_sizes=2997 2962 2961 2974 2962 2976 2971 2967 2978 2941 2985 2978 2968 2984 2954 2975 2968 2952 2986 2975 2951 2997 2947 2983 2977 2983 2966 2977 2969 2931 3000 2995 3000 2978 2968 2979 2971 2959 2947 2963 2975 2976 2986 2962 2997 2957 3003 2990 2962 2960 2945 2957 2964 2978 2974 2940 2956 2956 2980 2965 2963 2983 2966 2971 2970 2953 2962 2980 2972 2955 2985 2941 2957 2972 2993 2974 2959 2955 2962 2951 2964 2971 2946 2954 3000 2929 2993 2970 2955 2963 2895 2954 2933 2949 2935 2969 2960 2954 2971 2960 2971 2946 2916 2974 2978 2949 2976 2989 2914 2948 2973 2962 2991 2951 2945 2899 2929 2904 2925 2940 2923 2903 2952 2872 2952 2977 2925 2929 2888 2966 2969 2935 2942 2893 2919 2946 2914 2916 2906 2911 2987 2859 2938 2927 2920 2938 2909 2919 2947 2900 2989 2921 2891 2934 2843 2979 2919

Tree=0
num_leaves=31
num_cat=0
split_feature=12 25 13 18 35 14 16 16 34 5 10 38 16 28 5 14 16 35 35 11 38 25 14 17 5 18 10 12 34 38
split_gain=1.44046 1.20946 0.969017 0.753277 0.566105 0.488193 0.483667 0.424815 0.418618 0.390646 0.369211 0.364664 0.360884 0.328397 0.322187 0.346292 0.315174 0.277208 0.275802 0.271417 0.276063 0.265352 0.262906 0.261244 0.244373 0.238054 0.23195 0.229141 0.226728 0.232266
threshold=0.46170934484465292 0.47544460067696304 -0.40367102219074041 0.77827599518086876 0.33649884898766241 -0.25173702409424925 0.73941326860999279 -1.0550597227598093 0.72939286426168548 0.032712344426859309 0.82366363857573821 0.40828255559887744 -0.14127610440418284 1.0310032501142554 -0.16825355728594868 -0.79390164837794563 0.041813485959347516 -0.71026434133698058 -0.62710127878869237 -1.2945556837452656 1.030113272924142 -0.74777144321853417 -1.4190870566088047 -0.44205930055223192 -1.2274508975248348 0.36636811622366239 0.54126303205976245 1.306823415832866 0.89943034450488979 -0.40511586410128236
decision_type=2 2 2 2 2 2 2 2 2 2 2 2 2 2 2 2 2 2 2 2 2 2 2 2 2 2 2 2 2 2
left_child=1 2 12 5 8 7 14 -4 11 16 17 22 -1 23 15 -3 -5 -7 -14 -20 -21 27 -2 -6 -24 -25 -9 -10 29 -19
right_child=4 6 3 9 13 10 -8 26 21 -11 -12 -13 18 -15 -16 -17 -18 28 19 20 -22 -23 24 25 -26 -27 -28 -29 -30 -31
leaf_value=-0.0048248828761742347 -0.0044758065650200556 -0.0047990450763541175 -0.0057627864207377005 -0.0066398715732731133 0.0018612373231768019 -0.0021485064123503276 0.00032798903719215961 -0.0017375355264499337 -0.0038280097609575186 -0.0023989028967224481 -0.0028407115321079455 -0.0030759246888759444 -0.0046697924294445076 -0.0020651794929731999 -0.00095596650766215639 -0.0018705959312364478 -0.0032943908839175575 0.00091877358524087064 0.0016035636997642833 -0.0022782195370059832 -0.0056273182712814566 0.00087914086639105465 -0.0035459921808443711 0.00063043792490467322 -0.00063727002246067167 -0.0016773454806104564 -0.0039845506356236205 0.0011458473033146195 0.0016858761359097492 -0.0013072995162863557
leaf_weight=578 57 129 99 154 262 218 403 507 67 268 231 408 207 137 756 480 140 175 37 396 74 270 80 355 641 170 147 35 141 378
leaf_count=578 57 129 99 154 262 218 403 507 67 268 231 408 207 137 756 480 140 175 37 396 74 270 80 355 641 170 147 35 141 378
internal_value=-0.00182126 -0.00227123 -0.00278003 -0.00219479 -0.000820901 -0.00172072 -0.00119489 -0.00270609 -0.00140654 -0.00380276 -0.00106717 -0.00186147 -0.00388944 0.000161014 -0.00164828 -0.0024995 -0.00506483 -0.000612409 -0.00312486 -0.00248379 -0.00281686 5.69201e-05 -0.00123094 0.000554881 -0.000967141 -0.000107153 -0.00223521 -0.00207109 -0.000122708 -0.000593438
internal_weight=8000 5518 3750 2458 2482 1896 1768 753 1558 562 1143 1186 1292 924 1365 609 294 912 714 507 470 372 778 787 721 525 654 102 694 553
internal_count=8000 5518 3750 2458 2482 1896 1768 753 1558 562 1143 1186 1292 924 1365 609 294 912 714 507 470 372 778 787 721 525 654 102 694 553
is_linear=0
shrinkage=1


Tree=1
num_leaves=31
num_cat=0
split_feature=0 12 10 5 34 31 14 12 13 18 12 28 5 31 5 14 14 1 5 33 38 31 27 1 13 1 39 18 11 9
split_gain=1.42067 0.958372 0.746535 0.520064 0.51683 0.514808 0.443066 0.433176 0.452617 0.415766 0.365955 0.324983 0.322215 0.30518 0.326345 0.297465 0.24281 0.235732 0.234944 0.252141 0.237971 0.233959 0.239864 0.232863 0.236925 0.230259 0.236617 0.227989 0.224389 0.204632
threshold=-0.11043127151119324 -0.25634685974945154 -0.41501294038058062 -1.6080748311295874 0.83548165252634432 0.21323662816814887 0.5829987929096857 1.306823415832866 -0.75467850470471509 0.15140244832582006 0.38187494532258187 1.721626293638497 0.12576012852084917 -0.23384577095664841 0.76544263631109311 -0.72855167831841261 -0.84178538035629535 0.1781083834738075 1.4514833072981299 -1.5580452703856529 0.01923487143886898 -0.52083482539594528 0.61410298552783393 0.93497713342985567 -0.55582839519897587 1.0755025505106317 1.2297367544074425 -0.86633983091951217 -1.7074719377241425 0.37643960009443495
decision_type=2 2 2 2 2 2 2 2 2 2 2 2 2 2 2 2 2 2 2 2 2 2 2 2 2 2 2 2 2 2
left_child=2 6 4 -3 11 12 9 8 -5 21 16 13 23 27 -15 -10 -7 -9 19 -17 -21 -2 25 24 -4 26 -23 -1 -18 -14
right_child=1 3 5 7 -6 10 -8 17 15 -11 -12 -13 29 14 -16 18 28 -19 -20 20 -22 22 -24 -25 -26 -27 -28 -29 -30 -31
leaf_value=0.0034007298367453552 0.0014243450355536779 -0.0019324032254257823 -0.0023975737890369652 -0.00030684335809299466 0.0022352048680453159 -0.0048572610259797616 0.00093731509279876236 0.0038060625845429998 0.0001848847292888027 -0.0017927939963661233 -0.00076777362386264624 -0.0045200241822533288 0.00088368839139325427 -0.0014930822121203258 0.0013951480883243625 -0.0012163586087351988 0.0025852458538284514 0.0013554750246043302 0.004279056617948372 0.0025715318050755832 0.0010650505818509905 0.0010980907577018402 -0.002463862438054144 -0.0031138148128368208 -0.00024134098649695996 -0.0028265456460647145 -0.0031801207067181773 0.00036513721548810086 -0.0025712966962503471 -0.0010615947174020929
leaf_weight=79 209 124 183 461 259 126 522 254 362 571 325 43 399 428 125 71 21 173 93 537 544 281 125 148 440 58 36 308 492 203
leaf_count=79 209 124 183 461 259 126 522 254 362 571 325 43 399 428 125 71 21 173 93 537 544 281 125 148 440 58 36 308 492 203
internal_value=0 0.000599335 -0.000740694 0.00121033 0.000246493 -0.00126746 -0.000285912 0.00136859 0.00106524 -0.0007887 -0.00215526 -0.000272579 -0.000640373 -7.25018e-05 -0.000831053 0.00146195 -0.0028529 0.00282546 0.00182922 0.00162675 0.00181821 1.30447e-05 -0.000567048 -0.00131807 -0.00088302 5.23824e-05 0.00059562 0.000998441 -0.00235 0.000219349
internal_weight=8000 4421 3579 2619 1242 2337 1802 2495 2068 1280 964 983 1373 940 553 1607 639 427 1245 1152 1081 709 500 771 623 375 317 387 513 602
internal_count=8000 4421 3579 2619 1242 2337 1802 2495 2068 1280 964 983 1373 940 553 1607 639 427 1245 1152 1081 709 500 771 623 375 317 387 513 602
is_linear=0
shrinkage=0.05


Tree=2
num_leaves=31
num_cat=0
split_feature=35 34 16 25 12 13 16 13 5 12 35 18 18 31 35 25 31 18 35 13 12 5 5 28 13 5 3 34 13 5
split_gain=1.30461 1.18919 0.922606 0.741822 0.658036 0.507262 0.427786 0.400013 0.398218 0.376423 0.367024 0.339233 0.317437 0.295109 0.283812 0.260786 0.260102 0.259348 0.257271 0.25575 0.24876 0.237838 0.219918 0.21944 0.217515 0.217367 0.207933 0.206385 0.203303 0.202562
threshold=1.091640764201532 0.30135568292638631 -0.54720158735142899 -0.28190454290920552 -0.3506125102225805 0.92348965772595926 0.54841162896874718 0.0092009290276228017 1.4514833072981299 0.38187494532258187 -0.38032655637211715 0.67129466427927575 -1.4388410941587668 -0.69339189844061988 -0.8819908287372763 0.77166954088583795 0.57052014178923616 -0.38399465007187567 -0.32010792650645664 -1.3298203112266325 0.51952728008664761 1.0636593476337943 -0.70156165367538648 0.55990240904230659 1.2762136921549596 0.76544263631109311 0.91323662186169241 0.74619706652437279 0.018274162662066513 -0.56039266723182302
decision_type=2 2 2 2 2 2 2 2 2 2 2 2 2 2 2 2 2 2 2 2 2 2 2 2 2 2 2 2 2 2
left_child=1 2 5 7 13 17 16 -3 10 11 22 23 -7 -4 -9 25 24 -1 -12 29 -19 -18 -6 -5 -2 -15 -24 -11 -22 -20
right_child=6 3 4 9 8 12 -8 14 -10 27 18 -13 -14 15 -16 -17 21 20 19 -21 28 -23 26 -25 -26 -27 -28 -29 -30 -31
leaf_value=-0.0012966982619192315 0.0011606529714534095 -0.0014609902452469552 0.00015664700598667461 0.0017618964160031833 -0.0023484093558770527 0.0062697249205217733 0.0030874669922796982 -0.0015232988644939395 0.0028233094712712559 0.0010991946228753075 0.0041622910830759249 -0.00077610869989153076 -0.00032225802427507491 -0.0026482073879762202 0.0011899810804673842 -5.8200523867486464e-05 -0.0012809785120063691 -0.0036026750506703772 -0.0056598610658803441 0.00073256234754653698 0 0.0033131982714748095 0.00017312232117666496 -6.7782503830552415e-05 0.0044978773840595168 -0.00042971103979378458 -0.0023301135837219033 0.0031285041361361304 -0.0033828827289031139 -0.00043752066887867949
leaf_weight=365 478 511 276 562 177 20 340 127 141 219 50 283 192 525 387 193 178 472 27 912 107 33 429 224 56 147 102 326 74 67
leaf_count=365 478 511 276 562 177 20 340 127 141 219 50 283 192 525 387 193 178 472 27 912 107 33 429 224 56 147 102 326 74 67
internal_value=0 -0.000253117 -0.000768724 0.00058043 -0.000300044 -0.00192519 0.00161166 -0.000467937 0.000266552 0.0012493 5.92029e-05 0.000697274 0.000278716 -0.00125035 0.000509688 -0.00170503 0.000931101 -0.00238905 0.000652363 0.000472548 -0.00299168 -0.000537543 -0.000818417 0.00123416 0.00152076 -0.00217049 -0.000298659 0.00232258 -0.00136965 -0.00199511
internal_weight=8000 6915 4276 2639 3046 1230 1085 1025 1905 1614 1764 1069 212 1141 514 865 745 1018 1056 1006 653 211 708 786 534 672 531 545 181 94
internal_count=8000 6915 4276 2639 3046 1230 1085 1025 1905 1614 1764 1069 212 1141 514 865 745 1018 1056 1006 653 211 708 786 534 672 531 545 181 94
is_linear=0
shrinkage=0.05


Tree=3
num_leaves=31
num_cat=0
split_feature=35 16 5 13 5 14 35 25 39 25 16 14 13 34 18 18 25 4 13 34 1 36 25 20 34 1 4 17 10 34
split_gain=1.22301 0.873574 0.610414 0.55863 0.490638 0.488921 0.43065 0.463397 0.407293 0.401001 0.368949 0.354497 0.330926 0.307089 0.277057 0.274458 0.255092 0.247661 0.278034 0.241181 0.293044 0.228825 0.218668 0.214428 0.204383 0.203756 0.203049 0.217613 0.201606 0.198533
threshold=-0.19970966909323715 -0.68299441216458989 0.76544263631109311 0.67396190979769333 0.45367482008574955 0.83359444190233856 1.2120546994116459 1.0002372022390906 -1.6010041361353358 1.0000000180025095e-35 -0.78454271888594762 -0.59806956455197913 0.18243713508556036 0.54515980440026979 0.58459477174697516 -1.7651388273511464 -0.069099779104373607 1.0714499579331977 -0.21310355441000178 0.33091726458792631 -1.3656905814688807 0.79557782998758253 0.5784293820486367 0.031340641357309663 0.97144346843800233 -0.8653622263141082 -1.1079380913860748 -0.74324787215760946 0.077632377457539911 -0.39661497644007748
decision_type=2 2 2 2 2 2 2 2 2 2 2 2 2 2 2 2 2 2 2 2 2 2 2 2 2 2 2 2 2 2
left_child=3 9 5 4 8 6 7 12 -1 14 22 -5 25 21 -2 -12 26 18 -8 20 -4 -7 -10 -13 -16 -3 -6 -28 -14 -17
right_child=1 2 19 11 16 13 17 -9 10 -11 15 23 28 -15 24 29 -18 -19 -20 -21 -22 -23 -24 -25 -26 -27 27 -29 -30 -31
leaf_value=0.0014699768118465919 -0.00086495029134017135 0.00046264120667012287 0.0054286650873777674 -0.0011503685619562636 0.0019748617763476455 0.00051082903777982969 -0.00079712185088238465 0.0017387291044507515 -0.0040344376623006805 0.00026670745278862482 0.0019665617572116423 0.0019766950803310019 0.0012298321924976807 0.0036571593218458799 -0.0040879697655937762 -0.0024011168650610358 0.00082668499298868743 0.0044632781344592911 0.0021247344510949406 0.0034367250718875656 0.0011086065491322178 0.0034092789437262568 -0.0011850074189692058 3.7915022884991962e-05 0.00024221718874295809 -0.001513007427176892 0.00091930775074522365 -0.0021342124402875711 -0.00057872551807647049 -0.001053885220610479
leaf_weight=103 394 157 44 256 49 342 122 278 243 555 58 310 331 169 143 426 403 67 233 260 439 87 101 274 31 680 73 255 284 833
leaf_count=103 394 157 44 256 49 342 122 278 243 555 58 310 331 169 143 426 403 67 233 260 439 87 101 274 31 680 73 255 284 833
internal_value=0 0.000529098 0.000919714 -0.000722245 -0.0010919 0.00057364 0.000219525 -0.000127156 -0.00155369 -0.000681402 -0.00174428 0.00039133 -0.000487937 0.00183937 -0.0016165 -0.00135666 -4.10637e-05 0.00165229 0.00110658 0.00219363 0.00151354 0.00111094 -0.00321295 0.00107578 -0.00328808 -0.00113644 -0.000981889 -0.00143931 0.000386574 -0.00151387
internal_weight=8000 4616 3493 3384 2544 2750 2152 1730 1764 1123 1661 840 1452 598 568 1317 780 422 355 743 483 429 344 584 174 837 377 328 615 1259
internal_count=8000 4616 3493 3384 2544 2750 2152 1730 1764 1123 1661 840 1452 598 568 1317 780 422 355 743 483 429 344 584 174 837 377 328 615 1259
is_linear=0
shrinkage=0.05


Tree=4
num_leaves=31
num_cat=0
split_feature=0 12 10 25 25 13 34 34 10 14 13 16 5 39 25 31 16 31 16 12 16 5 12 25 31 13 0 5 10 16
split_gain=1.26017 0.799055 0.642387 0.476723 0.467777 0.457492 0.435572 0.434016 0.430855 0.397352 0.392585 0.3266 0.315682 0.306922 0.292142 0.275411 0.251688 0.248789 0.215429 0.261477 0.215406 0.213918 0.206828 0.205568 0.251097 0.343696 0.201463 0.200822 0.198 0.197345
threshold=-0.10061325996674285 -0.36171870432943848 -0.41501294038058062 0.094998728588958956 0.31888738017073975 -0.37280891151555823 -0.21067320476788634 0.83548165252634432 0.88263520244054205 1.1037899943483136 -0.25572302042108447 0.017618449037876797 -1.282439883557599 -0.058144326796165942 0.66206339721033647 -0.35372976139300905 0.18188878565501487 0.23180801008221155 -0.59320617078221527 1.2794765856738641 -0.64038808790033042 0.066349876988905848 1.3885579325384882 1.615085415402034 0.091393483134234774 0.18243713508556036 1.4073316288059485 0.76544263631109311 -1.5504122969765823 -0.86503982332766427
decision_type=2 2 2 2 2 2 2 2 2 2 2 2 2 2 2 2 2 2 2 2 2 2 2 2 2 2 2 2 2 2
left_child=2 3 7 11 10 6 14 15 18 -5 16 -2 -8 21 26 -1 -4 -12 19 -7 -19 -6 -14 24 -15 -26 -3 -17 -13 -10
right_child=1 5 4 9 13 8 12 -9 29 -11 17 28 22 23 -16 27 -18 20 -20 -21 -22 -23 -24 -25 25 -27 -28 -29 -30 -31
leaf_value=0.0008303955763292591 -0.0020351468714737029 -0.002489218437691806 -0.0035896584073078458 0.00016392682272219083 -0.00029105582461840066 0.00031983873648308179 -0.0025796854754126918 0.0020299329276928461 -0.0023833792146273351 0.0035770189518334926 -0.00031783370216753744 0.0039373851769017153 0.0010328683396696335 0.00043705823813432209 0.001222798378702735 -0.0013787287232815265 -0.0014946677402375896 -0.00419841229919016 0.0023001704048600455 0.0037447010480802889 -0.0013184851931529211 0.0019924280756725729 0.0038521568121932521 -0.0039970367486171976 -0.0037607062153468037 0.0006271752346168869 0.00085002426630264877 0.00073859048562290594 -0.00039514541459712737 0.00057222779522133151
leaf_weight=365 450 241 347 640 220 332 52 262 72 99 520 28 435 210 101 487 263 89 1068 68 277 187 79 56 115 70 53 142 413 259
leaf_count=365 450 241 347 640 220 332 52 262 72 99 520 28 435 210 101 487 263 89 1068 68 277 187 79 56 115 70 53 142 413 259
internal_value=0 0.00056914 -0.000691929 -0.00030624 -0.00117945 0.00108793 0.00020114 0.000217815 0.00155882 0.000628348 -0.00171376 -0.00108699 0.00109469 -0.000241904 -0.00106654 -0.000254952 -0.002695 -0.00103232 0.00192633 0.000915353 -0.00203341 0.000746062 0.00147657 -0.00114454 -0.000726566 -0.00207397 -0.00187016 -0.000892744 -0.000107899 -5.61082e-05
internal_weight=8000 4390 3610 1630 2354 2760 961 1256 1799 739 1496 891 566 858 395 994 610 886 1468 400 366 407 514 451 395 185 294 629 441 331
internal_count=8000 4390 3610 1630 2354 2760 961 1256 1799 739 1496 891 566 858 395 994 610 886 1468 400 366 407 514 451 395 185 294 629 441 331
is_linear=0
shrinkage=0.05


Tree=5
num_leaves=31
num_cat=0
split_feature=0 16 35 5 34 5 35 28 31 18 39 13 35 1 38 10 5 39 28 0 35 16 18 39 18 38 13 10 34 13
split_gain=1.15696 0.933226 0.616614 0.499567 0.445727 0.436254 0.405476 0.385283 0.380709 0.352795 0.312071 0.309885 0.288715 0.280997 0.279564 0.256939 0.245937 0.241593 0.237759 0.237228 0.235215 0.227344 0.297932 0.222797 0.218303 0.217637 0.216332 0.215743 0.212477 0.216594
threshold=-0.56985316257356322 -0.15091922286371523 1.2350324914128963 0.75172298852832486 0.30135568292638631 0.50885238835557911 1.0639328057184241 0.23729940271914249 0.1741221211637701 0.44573621984868955 -1.5010610081073135 1.5292987626189751 1.0454598530271961 -0.064475979802113878 0.37496656874574147 -1.0605442364887245 -0.93388713742092511 -0.058144326796165942 0.60111611658427522 0.4620713152479175 -0.79188259485833801 0.2553022629768294 0.46614309640394697 0.75039048376396422 0.62394310906883599 1.4799526093468731 1.2281051039722433 -0.12750850775823622 -0.18949453597346047 -0.33562049789426512
decision_type=2 2 2 2 2 2 2 2 2 2 2 2 2 2 2 2 2 2 2 2 2 2 2 2 2 2 2 2 2 2
left_child=5 4 3 9 6 8 11 -5 13 10 -3 14 17 -1 -2 -16 -6 -7 23 -17 -12 22 -10 25 -8 -18 -15 -11 29 -22
right_child=1 2 -4 7 16 12 24 -9 21 27 20 -13 -14 26 15 19 18 -19 -20 -21 28 -23 -24 -25 -26 -27 -28 -29 -30 -31
leaf_value=0.00020643970938758784 -0.00085203389327694013 0.0034949465281814982 0.0028584468423655377 0.0029129293029743751 -0.0013054372497673479 0.0007034868369213094 0.001905761160533499 0.00039840438026887063 -0.0020638215764570947 0.00035004558280094271 -0.00052862226005945549 0.0017593485350603155 0.0027724101687400002 -0.0019230301206332769 0.0003955728440318749 -0.0041107629673712461 0.0023020704854422188 -0.0014020996514861055 -0.00049793931400795308 -0.0015270608360676194 -0.0013693140864686154 -0.0012243097909626097 -0.0050350807509876036 -0.00031875293399767721 -0.0014284365281389405 -0.0017861505224754555 0.0013800847558855542 -0.0013283936096034202 0.0015608851495073205 0.00093040812919970104
leaf_weight=414 790 99 368 386 156 283 178 260 249 353 354 80 89 439 65 204 396 260 226 172 157 284 136 137 66 34 54 409 610 292
leaf_count=414 790 99 368 386 156 283 178 260 249 353 354 80 89 439 65 204 396 260 226 172 157 284 136 137 66 34 54 409 610 292
internal_value=0 0.000371422 0.000925693 0.000680311 -0.000354401 -0.000973669 -0.000876686 0.00190885 -0.00141898 0.000329039 0.00077251 -0.0012267 0.000128924 -0.000743306 -0.00142495 -0.0024395 0.000496132 -0.000295579 0.000856963 -0.00294287 0.000577994 -0.0023273 -0.00312743 0.00140582 0.000983189 0.00196685 -0.00155088 -0.000544344 0.000952648 0.000115014
internal_weight=8000 5792 3288 2920 2504 2208 1555 646 1576 2274 1512 1311 632 907 1231 441 949 543 793 376 1413 669 385 567 244 430 493 762 1059 449
internal_count=8000 5792 3288 2920 2504 2208 1555 646 1576 2274 1512 1311 632 907 1231 441 949 543 793 376 1413 669 385 567 244 430 493 762 1059 449
is_linear=0
shrinkage=0.05


Tree=6
num_leaves=31
num_cat=0
split_feature=12 25 13 38 16 34 5 16 5 5 20 20 31 8 25 10 31 39 5 38 31 10 34 12 16 3 39 31 22 8
split_gain=1.08574 1.01024 0.651411 0.510125 0.479601 0.422128 0.331654 0.345096 0.312935 0.285959 0.268685 0.26841 0.262197 0.253086 0.245633 0.23937 0.233755 0.228537 0.225156 0.219395 0.213955 0.212404 0.207413 0.24405 0.20722 0.276999 0.223857 0.201143 0.211527 0.187354
threshold=0.64625494747988255 0.47544460067696304 -0.40367102219074041 0.63868156460265058 0.73941326860999279 0.89943034450488979 0.12576012852084917 -1.7965479774496014 0.25612340434182607 -0.31361677591987958 -0.61678106121144005 0.10563432929963616 -1.0683953871945004 0.77161619258379577 0.10573471866589136 0.48028230280361212 -0.75918007263292375 -1.5328371335767887 -0.041846117029585607 0.081166142118500054 0.23180801008221155 0.043774148808009741 0.63098244794765901 -0.26382129453692876 0.0084157117918364933 0.52509083210588448 0.6250991910263316 -0.19319791424910254 0.76201765033704782 0.88114002630110211
decision_type=2 2 2 2 2 2 2 2 2 2 2 2 2 2 2 2 2 2 2 2 2 2 2 2 2 2 2 2 2 2
left_child=1 2 8 18 9 6 7 -4 17 -3 14 -5 -13 -12 -8 24 -15 -1 -2 -11 -7 22 23 -10 25 -9 -26 -21 -29 -27
right_child=3 4 5 11 -6 20 10 15 21 19 13 12 -14 16 -16 -17 -18 -19 -20 27 -22 -23 -24 -25 26 29 -28 28 -30 -31
leaf_value=0.0011779220663370087 0.00082378628491180722 -0.00069404132541756763 -0.0058346342128675309 0.00074329843839120635 0.0020487704517929816 0.0017514017780378985 0.00051899641247613439 -0.0022369397794049879 -0.0021499136795218809 0.0014780518588939577 -0.00099508896321501804 0.0023779156790830844 -0.0021713170642476951 0.0053444831238425887 0.0040910436224246751 -0.002165441421543166 0.00032205251192303643 -0.002445517046249234 0.0020726119668965756 0.0011401028748054193 -0.00030997902051763809 -0.0017493574935192144 0.0024869208353864264 0.0012443865973350856 0.00084757170356610705 0.0016980788709664565 -0.0017929140181025241 -0.00018794082390620232 -0.0037102749483943669 -0.0032191324094117181
leaf_weight=44 709 577 39 277 444 321 202 282 114 469 523 36 217 29 65 332 127 815 776 186 201 257 75 97 325 92 106 182 57 24
leaf_count=44 709 577 39 277 444 321 202 282 114 469 523 36 217 29 65 332 127 815 776 186 201 257 75 97 325 92 106 182 57 24
internal_value=0 -0.000337855 -0.000783978 0.00100398 0.000607683 -0.000323079 -0.000634661 -0.00118672 -0.00165742 0.000169204 6.03979e-05 -0.000319906 -0.00150356 -0.000462485 0.00140852 -0.0010258 0.00129057 -0.00225398 0.00147983 0.000731961 0.000948168 -0.00070423 0.00021773 -0.000565965 -0.000563154 -0.00138716 0.000186308 -7.97638e-05 -0.00105011 0.000635762
internal_weight=8000 5985 4070 2015 1915 2668 2146 1200 1402 1471 946 530 253 679 267 1161 156 859 1485 894 522 543 286 211 829 398 431 425 239 116
internal_count=8000 5985 4070 2015 1915 2668 2146 1200 1402 1471 946 530 253 679 267 1161 156 859 1485 894 522 543 286 211 829 398 431 425 239 116
is_linear=0
shrinkage=0.05


Tree=7
num_leaves=31
num_cat=0
split_feature=0 12 16 31 14 5 25 18 16 12 38 38 25 18 38 34 5 12 31 13 28 5 25 13 7 12 18 16 34 13
split_gain=1.04235 0.700221 0.562964 0.439709 0.428412 0.426274 0.415654 0.395156 0.363341 0.359324 0.306277 0.304975 0.285649 0.274915 0.268848 0.243523 0.24197 0.26606 0.236309 0.234449 0.224632 0.333649 0.222293 0.264714 0.215375 0.20743 0.199951 0.268985 0.198901 0.198924
threshold=-0.11043127151119324 -0.36171870432943848 0.61332488453803802 0.038023668197115688 1.0885256418336318 -1.6080748311295874 -1.0786787475146071 0.18980023634834398 -0.15091922286371523 0.47228671311647252 -0.58142933305303701 0.01923487143886898 0.32912094525999563 0.64809572280696226 1.4799526093468731 0.72939286426168548 1.3887433743085398 1.2573326368202562 -1.0315218148245207 -0.098142263088707257 -0.47924381799310273 -0.052260908551646161 0.49387253613362375 0.50609221255211578 0.24085533250208543 1.4153183922185073 0.85994521401232171 0.091411932659072145 1.627117990894775 0.4026755242801755
decision_type=2 2 2 2 2 2 2 2 2 2 2 2 2 2 2 2 2 2 2 2 2 2 2 2 2 2 2 2 2 2
left_child=2 4 3 10 12 -3 -5 8 25 13 19 24 26 -8 -14 18 17 -13 -4 -1 21 -12 23 -10 -9 -7 28 -28 29 -2
right_child=1 5 15 6 -6 7 9 11 22 -11 20 16 14 -15 -16 -17 -18 -19 -20 -21 -22 -23 -24 -25 -26 -27 27 -29 -30 -31
leaf_value=-0.00047087982285688474 -0.0016073291264864981 -0.0017587035606913732 0.0020486929129256296 -0.0039029263183069369 0.0017193286052827916 0.00038091548162352048 -0.0012514217974861266 0.00043044873105378673 0.0010592364290332008 0.0001324948978875008 -0.0013443671318025213 -0.00115590258487719 0.00056544832933864302 -0.0033499959086436687 -0.0042889182174275084 0.0019239594291764212 0.002951019241041439 0.0018741094736845873 -0.0003904409775268406 0.0020344346796859376 -0.0013550989206676436 0.001967867476229933 0.0035105160985100083 0.0033723991086084108 0.0025072241398363879 0.0030110027267894672 -0.00431415023504589 -0.00034779792427461014 0.0032982634310859162 0.00015869481348517735
leaf_weight=175 432 132 117 184 225 556 535 311 420 303 154 456 503 229 30 204 50 85 652 194 683 149 279 182 217 88 105 77 28 245
leaf_count=175 432 132 117 184 225 556 535 311 420 303 154 456 503 229 30 204 50 85 652 194 683 149 279 182 217 88 105 77 28 245
internal_value=0 0.000513726 -0.0006341 -0.0010178 -0.000301368 0.000998528 -0.0016949 0.00113813 0.00166283 -0.00130912 -0.000388896 0.000418512 -0.000625168 -0.00188734 0.000282087 0.000388424 -0.000355057 -0.000670339 -1.26182e-05 0.000832925 -0.000851259 0.000268037 0.00232537 0.00176731 0.00129375 0.000748481 -0.00117595 -0.00266465 -0.000784214 -0.000960908
internal_weight=8000 4421 3579 2606 1645 2776 1251 2644 1525 1067 1355 1119 1420 764 533 973 591 541 769 369 986 303 881 602 528 644 887 182 705 677
internal_count=8000 4421 3579 2606 1645 2776 1251 2644 1525 1067 1355 1119 1420 764 533 973 591 541 769 369 986 303 881 602 528 644 887 182 705 677
is_linear=0
shrinkage=0.05


Tree=8
num_leaves=31
num_cat=0
split_feature=35 18 0 31 38 25 28 11 13 25 16 16 38 14 11 35 16 13 8 1 0 28 39 39 25 13 16 39 0 31
split_gain=1.04523 0.648089 0.5313 0.519113 0.499874 0.389041 0.359582 0.347439 0.334482 0.333766 0.320372 0.316856 0.343324 0.34193 0.313798 0.289229 0.27167 0.271081 0.24798 0.242336 0.239417 0.233586 0.231195 0.230971 0.218333 0.217095 0.214854 0.210801 0.20847 0.207096
threshold=-0.16669268202578838 0.64809572280696226 -0.21603931220389211 -1.1079886021833032 -0.16296732287544999 0.61299730910038119 -0.39109102392185086 -0.82398493555672714 -0.71597328409312166 1.0002372022390906 0.77802190048984599 0.46405458048338283 0.33286829938491586 -0.8303350632622678 0.64849158118119321 1.5810589121772736 -0.15091922286371523 0.42813157310194944 -0.58328281884216548 -1.3402115452215655 -0.62558081137527044 0.39271412963070007 0.2854845261559224 -1.2442300362227641 -0.19807708703952193 -1.0687065089940659 0.73941326860999279 0.29386205099816692 -0.71768860407942803 0.74004631346654326
decision_type=2 2 2 2 2 2 2 2 2 2 2 2 2 2 2 2 2 2 2 2 2 2 2 2 2 2 2 2 2 2
left_child=2 3 24 15 10 8 -3 23 -4 21 17 12 13 -8 16 -2 27 -5 -14 -12 -11 22 28 -6 -1 -26 -7 -10 -9 -30
right_child=1 6 5 4 7 26 11 9 14 20 19 -13 18 -15 -16 -17 -18 -19 -20 -21 -22 -23 -24 -25 25 -27 -28 -29 29 -31
leaf_value=-0.0021496468104351095 0.0020324376940530106 0.00078311180687698511 -0.0018838780005700337 0.00029318700956978917 0.0057027088618988907 0.00039959398601784214 -0.0041267289428473363 -0.0015204381743304503 0.00031412783649181563 -0.0013724193639524599 0.0067433985486791736 0.00032557858496527498 -0.00025685564549769951 -8.4753040295225835e-05 -0.0015141336104085639 0.0064662988636102932 0.0011522454515391638 0.0020787072849950575 -0.0044330735242332107 0.0022615911108848376 0.0024929364399960169 -0.0017137002210211656 -0.0013097709570622602 0.0010497164268931855 -0.0027835909446976893 -0.00050959971288235993 0.0026724039662285692 -0.0021264513007854336 0.0017759877245069557 -0.00098388250837912281
leaf_weight=583 397 380 365 617 30 433 64 96 215 52 36 270 50 300 305 42 472 331 150 254 156 364 273 301 126 691 140 147 272 88
leaf_count=583 397 380 365 617 30 433 64 96 215 52 36 270 50 300 305 42 472 331 150 254 156 364 273 301 126 691 140 147 272 88
internal_value=0 0.000501456 -0.000651465 0.000864515 0.00061721 -0.000141329 -0.000484005 3.93119e-05 -0.000565802 -0.00032554 0.00137492 -0.00106737 -0.00174301 -0.000810101 -0.000138898 0.0024694 0.000358162 0.00092204 -0.00341466 0.00283732 0.00150238 -0.000678076 -0.000153952 0.00148813 -0.00140465 -0.000866718 0.000963999 -0.000663441 0.000527192 0.00108738
internal_weight=8000 4523 3477 3309 2870 2077 1214 1632 1504 1301 1238 834 564 364 1139 439 834 948 200 290 208 1093 729 331 1400 817 573 362 456 360
internal_count=8000 4523 3477 3309 2870 2077 1214 1632 1504 1301 1238 834 564 364 1139 439 834 948 200 290 208 1093 729 331 1400 817 573 362 456 360
is_linear=0
shrinkage=0.05


Tree=9
num_leaves=31
num_cat=0
split_feature=35 5 13 12 39 17 25 14 14 5 39 12 13 20 10 13 31 28 14 38 25 10 35 39 10 20 35 35 28 17
split_gain=0.95763 0.589094 0.533478 0.51009 0.474479 0.451259 0.439522 0.374587 0.370427 0.350673 0.321853 0.331538 0.312388 0.304934 0.290073 0.282601 0.278392 0.26238 0.268781 0.25915 0.278863 0.226369 0.225076 0.215289 0.215047 0.19483 0.185251 0.182964 0.18254 0.178392
threshold=0.33649884898766241 0.76544263631109311 0.66185240806267742 -0.38874563306604187 1.0895234021786642 1.0927875903340902 0.4854626969505918 -0.55311143825948461 0.95598148536309979 -1.4807953719111488 -1.570749139882176 1.306823415832866 -1.290098982562444 0.031340641357309663 -0.21748718811062795 1.2594364186922575 -0.75918007263292375 0.61121146457375153 -0.27394558240406525 -0.21021910931345258 -1.3569658617339178 -1.0281717897345715 -1.1051048161488026 -0.75586794185357942 -0.0207051968527617 1.3410957440573859 -1.1051048161488026 1.5810589121772736 -1.1066284426198889 -0.58477331695451429
decision_type=2 2 2 2 2 2 2 2 2 2 2 2 2 2 2 2 2 2 2 2 2 2 2 2 2 2 2 2 2 2
left_child=1 2 5 8 22 6 10 26 15 -5 -1 12 -12 -9 -15 -2 27 18 21 25 -21 -8 -3 24 -22 -18 -4 -11 -7 -25
right_child=3 4 7 9 -6 28 17 13 -10 16 11 -13 -14 14 -16 -17 19 -19 -20 20 23 -23 -24 29 -26 -27 -28 -29 -30 -31
leaf_value=0.0012780608421871177 -0.00089912548277393364 -0.00045605235701273034 -0.0033631377070323732 -0.0013389237728052437 -0.0019332624477791335 0 0.0034728134775757046 0.0018772676203711155 0.0018312957907137932 0.0020654904610803325 -0.0034215945118893942 0.0008208446891127554 -0.00133711735372342 0.0015444280316429717 -0.0013912060242483293 0.0022057824351116445 0.0021971681441091974 -0.0012906122140985579 0.0016720465543136156 -0.0026445468743911127 0.0040901978516953378 -0.0011527350919365189 0.0014346627330054215 0.0017080045952989134 0.00041170643490521749 -0.0010110347372855703 -0.0004565346534601847 0.0050480136719261229 -0.0030496028649246104 -0.00022867179853279081
leaf_weight=117 782 195 75 124 156 55 30 379 190 330 214 148 1287 143 203 80 497 215 333 65 86 202 743 163 80 50 224 65 341 428
leaf_count=117 782 195 75 124 156 55 30 379 190 330 214 148 1287 143 203 80 497 215 333 65 86 202 743 163 80 50 224 65 341 428
internal_value=0 -0.0004166 -0.000700531 0.000718042 0.000608116 -0.001043 -0.000795895 0.000278532 -0.000160055 0.00120995 -0.00123285 -0.0014141 -0.00163784 0.000896602 -0.000163381 -0.000604945 0.00139202 0.000187043 0.000758313 0.0010483 0.000478853 -0.000531823 0.00103627 0.000753962 0.00234885 0.00189464 -0.00120321 0.00257009 -0.00261852 0.000297211
internal_weight=8000 5060 3966 2940 1094 2942 2546 1024 1052 1888 1766 1649 1501 725 346 862 1764 780 565 1369 822 232 938 757 166 547 299 395 396 591
internal_count=8000 5060 3966 2940 1094 2942 2546 1024 1052 1888 1766 1649 1501 725 346 862 1764 780 565 1369 822 232 938 757 166 547 299 395 396 591
is_linear=0
shrinkage=0.05


Tree=10
num_leaves=31
num_cat=0
split_feature=0 25 12 16 16 16 18 5 38 28 34 12 10 8 5 20 5 1 34 12 21 18 12 5 18 32 12 10 39 12
split_gain=0.897397 0.860355 0.629533 0.403601 0.348434 0.333925 0.334059 0.326441 0.302659 0.27009 0.260972 0.248956 0.246505 0.24216 0.233852 0.232837 0.222624 0.221913 0.221441 0.212526 0.197406 0.196073 0.22626 0.218996 0.194947 0.189747 0.186974 0.237754 0.186951 0.183153
threshold=-0.56985316257356322 0.61299730910038119 0.50660757938701506 0.062326533312601469 1.2571527845980273 0.87712054111127202 0.024596403127606626 0.50885238835557911 0.62451580914692462 1.5774669361166616 -0.61297594157740964 -1.3558147387981503 -0.75151445879215883 -0.32771309420876621 -0.2645138874411857 0.10563432929963616 1.1031301907109914 -1.4456256394116138 0.42464504985171464 0.64625494747988255 1.3581368596531385 0.51394678685549711 -0.53827489980620669 -0.029607789170715992 -0.61119179914472188 1.3590978464698018 -0.70261827780546515 0.96029433106338136 -0.19355719162109958 1.2329787089100026
decision_type=2 2 2 2 2 2 2 2 2 2 2 2 2 2 2 2 2 2 2 2 2 2 2 2 2 2 2 2 2 2
left_child=4 2 3 10 7 6 29 9 14 12 -2 -8 25 -6 20 -10 21 -5 -19 24 -4 -12 23 -23 -14 -1 -20 -28 -9 -3
right_child=1 5 8 17 13 -7 11 28 15 -11 16 -13 19 -15 -16 -17 -18 18 26 -21 -22 22 -24 -25 -26 -27 27 -29 -30 -31
leaf_value=-0.00048508113854574221 -0.0020353609773220462 0.0014584940454579439 0.00070611839361803448 0.0023970945237252314 0.0028285598057672524 0.0028272127270610034 -0.002568929470219623 0.00091864826794883694 0.00084942631084583542 -0.0044227562796106661 -0.00038994358289079468 0.00051199494456512153 -0.00081668645596953086 -0.00032620488121391848 0.001980763904011815 -0.0016785599403799677 0.0013322324720960791 -0.00047728393284373369 -0.00054465137723658252 -0.00028825750609115102 -0.003453126672200164 -0.0051085124101200403 -0.0007027473273475747 -0.00035828344225687938 -0.0025701332833272463 0.0035929181554639057 0.002264538723934098 -0.0016313692972223022 -0.00089884742285453842 0.0041881080488377258
leaf_weight=255 443 560 319 103 98 303 74 258 191 76 688 558 233 154 575 172 131 861 143 221 31 81 159 38 569 32 245 45 312 72
leaf_count=255 443 560 319 103 98 303 74 258 191 76 688 558 233 154 575 172 131 861 143 221 31 81 159 38 569 32 245 45 312 72
internal_value=0 0.000327356 -4.26269e-05 -0.00044793 -0.000857281 0.00132805 0.000964522 -0.00108388 0.000877659 -0.00149827 -0.00100662 0.000142994 -0.00132446 0.00088145 0.00135884 -0.000334769 -0.000586476 0.000164394 -9.63227e-06 -0.00168778 0.000322565 -0.00085196 -0.00197684 -0.00363519 -0.00206711 -1.18827e-05 0.000908622 0.00164241 -6.74042e-05 0.00177799
internal_weight=8000 5792 4225 2937 2208 1567 1264 1956 1288 1386 1540 632 1310 252 925 363 1097 1397 1294 1023 350 966 278 119 802 287 433 290 570 632
internal_count=8000 5792 4225 2937 2208 1567 1264 1956 1288 1386 1540 632 1310 252 925 363 1097 1397 1294 1023 350 966 278 119 802 287 433 290 570 632
is_linear=0
shrinkage=0.05


Tree=11
num_leaves=31
num_cat=0
split_feature=35 16 5 12 18 25 14 14 0 31 25 11 35 0 18 0 10 11 28 13 31 5 18 14 14 38 8 31 34 30
split_gain=0.872748 0.725416 0.460171 0.422789 0.460096 0.415582 0.332404 0.327788 0.375584 0.311885 0.310278 0.347026 0.300174 0.254419 0.243472 0.242115 0.232916 0.276948 0.22748 0.22532 0.248254 0.203239 0.20427 0.19173 0.189165 0.207683 0.282252 0.188568 0.186434 0.219495
threshold=-0.53454435434526715 -0.21205724900807335 0.75172298852832486 1.152268191276284 0.76225220420655659 -0.19807708703952193 0.83359444190233856 -0.55311143825948461 -0.17660986384974214 -1.1079886021833032 0.95476695656941835 -1.1857582123119228 1.5810589121772736 1.7098120145029843 -1.7651388273511464 0.61004122129266924 -0.62055960920706887 0.33465516711099946 -0.87794018532198004 -0.72819372554465167 1.4104846058210556 0.50885238835557911 -0.33274438000235307 0.39627539255489469 -1.3858810039808149 0.37496656874574147 -0.62861656890045869 0.91247141831525103 -0.36491936649533552 1.6014477907201317
decision_type=2 2 2 2 2 2 2 2 2 2 2 2 2 2 2 2 2 2 2 2 2 2 2 2 2 2 2 2 2 2
left_child=5 3 6 4 9 14 10 21 -9 -2 11 -3 19 28 -1 -5 23 -18 -6 -13 -21 22 -7 -11 -20 -26 -27 -8 -4 -30
right_child=1 2 13 15 18 7 27 8 -10 16 -12 12 -14 -15 -16 -17 17 -19 24 20 -22 -23 -24 -25 25 26 -28 -29 29 -31
leaf_value=0.0021586842714851934 0.0017122180536530683 0.0019936187986981969 0.00057467129473548538 0.0004282057340772936 0.00035923381052816052 -0.00032309300809770365 0.0019877345341290822 -0.00088373522280842652 0.0011191293273204639 -0.00012858702897078049 0.001559364589014782 -0.0017243703777914407 0.0021623739967680969 0.0065062743763244424 -0.0017190408498021536 0.0035129859749193498 -0.00019644686305435598 -0.0019458297837054495 -0.0062835548389732973 4.9634571041324218e-05 -0.0026100733057983685 0.00032354605907180248 -0.0031352216137941406 0.0023314108684837354 -0.0011918658557102443 0.00036507106611994016 -0.0050137224555300269 -0.00054049430482585638 0.0025994957486420098 -0.0024034668240807862
leaf_weight=41 191 180 237 211 84 106 468 401 558 248 350 309 111 30 987 94 623 362 31 974 96 115 184 114 234 30 100 84 425 22
leaf_count=41 191 180 237 211 84 106 468 401 558 248 350 309 111 30 987 94 623 362 31 974 96 115 184 114 234 30 100 84 425 22
internal_value=0 0.000341283 0.000819746 -0.00033367 -0.00059778 -0.000799405 0.000505324 -0.000222941 0.000276426 -0.000172729 0.000205308 -7.55592e-05 -0.000328999 0.00194514 -0.00155933 0.00139615 -0.000443827 -0.000844575 -0.0019518 -0.000533306 -0.000184543 -0.00141751 -0.00212504 0.00063273 -0.00245588 -0.00211453 -0.0037347 0.00159392 0.00173686 0.0023416
internal_weight=8000 5608 3286 2322 2017 2392 2572 1364 959 1538 2020 1670 1490 714 1028 305 1347 985 479 1379 1070 405 290 362 395 364 130 552 684 447
internal_count=8000 5608 3286 2322 2017 2392 2572 1364 959 1538 2020 1670 1490 714 1028 305 1347 985 479 1379 1070 405 290 362 395 364 130 552 684 447
is_linear=0
shrinkage=0.05


Tree=12
num_leaves=31
num_cat=0
split_feature=34 13 25 16 25 12 38 5 16 10 16 12 12 1 13 31 38 18 28 31 28 24 18 13 25 5 18 5 20 10
split_gain=0.804891 0.690232 0.593332 0.408381 0.348899 0.331892 0.30804 0.311985 0.300809 0.266527 0.264286 0.311174 0.257378 0.226495 0.226108 0.28316 0.326291 0.220075 0.21292 0.220231 0.210719 0.218902 0.210367 0.206156 0.203679 0.198253 0.193432 0.2565 0.215809 0.192099
threshold=0.70655380123957934 0.66185240806267742 0.66206339721033647 -0.71898039765624533 -0.28190454290920552 0.50660757938701506 0.030175221160774774 -1.0442359316945862 0.57927746356407117 -0.16435825208265223 0.86563037668624798 0.39117908974679744 1.306823415832866 -1.1333266111740767 0.19201094072941208 -0.70493622411667689 1.2435552991520293 0.23472994736175853 0.77851598303557512 0.88367612145933028 1.5774669361166616 1.8716454159441736 -0.621879783340341 -0.5662149214666351 -1.0786787475146071 -0.57202621802260178 0.54983571721449487 0.44279151157872193 1.2545954827970072 -0.45836525497500474
decision_type=2 2 2 2 2 2 2 2 2 2 2 2 2 2 2 2 2 2 2 2 2 2 2 2 2 2 2 2 2 2
left_child=1 2 3 26 12 13 7 -3 20 24 11 22 23 -5 15 -15 -17 -9 19 -7 21 25 -6 -2 -8 -4 28 -28 -1 -25
right_child=4 6 8 5 10 18 9 17 -10 -11 -12 -13 -14 14 -16 16 -18 -19 -20 -21 -22 -23 -24 29 -26 -27 27 -29 -30 -31
leaf_value=-0.0010576287665812537 -0.0016814539098626057 -0.0011485477033951791 -0.0013390395089829619 0.00045002332213018312 0.0018403493503812648 0.0010767257912660841 -0.0016941703002924678 0.002412101084796405 0.0016934438207995115 -0.0010045392274396904 0.0029782596053739285 0.0023222905835408444 0.0027196926241537843 -0.00022678857031446496 -9.1870312468346892e-05 -0.0016783606859254079 -0.0049559737747680056 0.00057134922766375403 -0.0012545992200173747 -0.0015238728253925528 -0.0040865714291133844 0.0051968175334049689 -0.00014357274599479563 0.0017241823363127245 0.0014860050139816252 0.00042556359992494409 -0.0041938966455177321 -0.00058214722915116439 -0.0045798064734219619 -0.00040596499832630832
leaf_weight=489 189 110 225 228 185 521 60 423 318 392 223 323 80 310 352 810 86 277 187 95 32 20 467 154 279 540 170 74 49 332
leaf_count=489 189 110 225 228 185 521 60 423 318 392 223 323 80 310 352 810 86 277 187 95 32 20 467 154 279 540 170 74 49 332
internal_value=0 -0.000284725 -0.000597686 -0.000931038 0.000882765 -0.00062568 0.00062713 0.00129913 0.000387975 -0.000110731 0.00141338 0.00105006 3.41146e-05 -0.00100575 -0.00122202 -0.0015477 -0.00199905 0.00169102 0.000213455 0.000667362 -0.000114177 4.18866e-05 0.000411878 -0.000277125 0.000908064 -8.70094e-05 -0.0019354 -0.0031197 -0.00138851 0.00025895
internal_weight=8000 6047 4506 3371 1953 2589 1541 810 1135 731 1198 975 755 1786 1558 1206 896 700 803 616 817 785 652 675 339 765 782 244 538 486
internal_count=8000 6047 4506 3371 1953 2589 1541 810 1135 731 1198 975 755 1786 1558 1206 896 700 803 616 817 785 652 675 339 765 782 244 538 486
is_linear=0
shrinkage=0.05


Tree=13
num_leaves=31
num_cat=0
split_feature=0 12 34 13 16 16 17 34 16 13 5 10 13 38 5 14 34 5 1 11 8 12 10 20 7 14 11 17 4 0
split_gain=0.779292 0.638403 0.424775 0.315705 0.313056 0.313036 0.306153 0.29746 0.282725 0.276387 0.274685 0.271734 0.27071 0.23429 0.26177 0.234348 0.224903 0.212831 0.209396 0.209128 0.208384 0.196134 0.187456 0.187196 0.185965 0.193167 0.210255 0.190862 0.190264 0.18541
threshold=-0.56985316257356322 0.33375171536092407 0.30135568292638631 1.1364481030488254 1.2571527845980273 0.050785639453108773 0.15919190380573942 0.74619706652437279 0.84969341308465396 0.091189556189795171 -0.11786899822131602 -0.41501294038058062 0.073080647006446675 1.2615146894898008 -0.28510428587273789 -0.55311143825948461 0.9553981919083766 0.50885238835557911 -1.2458648268634473 -0.13117456491610924 -0.32771309420876621 2.1648052916145448 -0.89294130533769034 -0.10738094047436796 -0.48778689459230656 0.47224085459079834 -0.10515547677168401 0.18558128695068057 -0.30594374799206631 0.86065297967511245
decision_type=2 2 2 2 2 2 2 2 2 2 2 2 2 2 2 2 2 2 2 2 2 2 2 2 2 2 2 2 2 2
left_child=3 2 5 4 6 9 16 8 13 19 29 -8 -13 14 15 -3 17 -1 -7 -2 -6 -17 -16 -11 27 26 -26 -12 -29 -4
right_child=1 7 10 -5 20 18 11 -9 -10 23 24 12 -14 -15 22 21 -18 -19 -20 -21 -22 -23 -24 -25 25 -27 -28 28 -30 -31
leaf_value=-0.0015245943208706918 -0.00078435848053856323 -0.0020708367292867009 0.00037517524190851373 0.00076249733327650037 0.0025469799169837771 0.0021264367743609939 -0.00062780292634489641 0.0021168680398222987 0.0019832171457158979 0.00070667675835262098 0.0012726393904293914 -0.0036868428669416943 -0.0012527522366218874 -0.0017373503864468989 0.0028730665064751991 2.5831313089516871e-05 0.0010081688912263042 0.00026380743137235788 -0.00013254898492382375 -0.0026149498109684205 -0.00052073486570350825 0.0049213217436525616 0.00076259819739766838 -0.0011372045217726953 0.0023537180316294858 0.0033735904904509417 -6.2855650073383755e-06 0.0008724006501083471 -0.0033973103763997345 -0.0014925312152124764
leaf_weight=580 303 139 459 279 92 114 240 471 331 267 148 293 200 122 134 306 163 227 998 345 134 22 552 281 185 142 184 44 59 186
leaf_count=580 303 139 459 279 92 114 240 471 331 267 148 293 200 122 134 306 163 227 998 345 134 22 552 281 185 142 184 44 59 186
internal_value=0 0.000304813 -8.64547e-05 -0.000799121 -0.0010276 -0.000505066 -0.0012607 0.00100703 0.000678312 -0.00106686 0.000596657 -0.00203523 -0.00270998 0.000335498 0.000559295 -0.000345505 -0.00067011 -0.00101537 9.47121e-05 -0.00176695 0.000706529 0.000370827 0.00118249 -0.00022973 0.00124009 0.00178811 0.00116368 0.00010422 -0.00152578 -0.000155816
internal_weight=8000 5792 3715 2208 1929 2308 1703 2077 1606 1196 1407 733 493 1275 1153 467 970 807 1112 648 226 328 686 548 762 511 369 251 103 645
internal_count=8000 5792 3715 2208 1929 2308 1703 2077 1606 1196 1407 733 493 1275 1153 467 970 807 1112 648 226 328 686 548 762 511 369 251 103 645
is_linear=0
shrinkage=0.05


Tree=14
num_leaves=31
num_cat=0
split_feature=35 0 25 0 5 16 18 13 20 16 13 12 12 25 34 30 13 34 28 14 14 5 10 7 19 12 5 18 25 10
split_gain=0.807687 0.503501 0.471323 0.414439 0.375683 0.279309 0.278316 0.347078 0.354241 0.276713 0.27079 0.26724 0.263513 0.255421 0.240692 0.265227 0.226028 0.217339 0.212901 0.220803 0.210776 0.207257 0.205036 0.250709 0.191817 0.190931 0.190827 0.198111 0.190362 0.17798
threshold=0.33649884898766241 -0.77598500987815722 0.61299730910038119 0.22917237841715296 0.76544263631109311 0.79150030040970054 0.50143411942326421 0.58764031532515071 0.051248267517590887 0.56070134946870931 -0.98998217146715251 0.39117908974679744 -0.4007808680361134 0.04606731163157831 0.4816994325970741 -0.62686362094368808 0.76318708041155081 -0.18949453597346047 -0.7161699924965933 1.1037899943483136 -1.0652980617980241 -0.91929347634473391 0.78466399729409686 0.60802874444562127 1.7092999276083141 0.35761657941488956 -1.9278660954769153 0.62394310906883599 -1.4205719732737128 0.51840476594705243
decision_type=2 2 2 2 2 2 2 2 2 2 2 2 2 2 2 2 2 2 2 2 2 2 2 2 2 2 2 2 2 2
left_child=1 20 4 9 6 14 7 17 22 18 -6 -8 13 -5 24 -16 -10 -3 21 25 -1 -2 23 -9 -4 -20 -14 -28 -12 -11
right_child=3 2 5 12 10 -7 11 8 16 29 28 -13 26 -15 15 -17 -18 -19 19 -21 -22 -23 -24 -25 -26 -27 27 -29 -30 -31
leaf_value=-0.0030930001556461594 -0.0017567326272491315 -0.0016675989544449273 -0.00046678721326598991 -0.00085713733200424311 -0.001605031792214431 0.0023625928035209513 -0.0022333346333751969 0.0040457745382612978 0.0026269163787387621 0.0017115043802873244 -0.0016565393993695236 -0.00018608556700962448 -0.0020691132737204322 0.0015963839771084847 0.0040905999845655249 0.00059739849838870375 -0.0014755812308543787 -0.00023805975416669699 -0.0015273596087929898 0.0012767649074117773 -0.0010525132101720754 0.0016377543991864339 -0.00069493952961425598 0 0.0041771261029810245 8.0568476934837427e-05 0.0025027406148672706 0.00061366877777422918 0.0014113953138686164 -0.00030486003279674807
leaf_weight=151 55 467 518 215 112 222 488 134 41 369 55 245 28 207 75 214 172 640 508 128 922 222 48 54 23 281 585 192 479 150
leaf_count=151 55 467 518 215 112 222 488 134 41 369 55 245 28 207 75 214 172 640 508 128 922 222 48 54 23 281 585 192 479 150
internal_value=0 -0.000382738 -0.000122599 0.000659295 -0.000449151 0.000783659 -0.000750646 -0.000367974 0.000798739 0.000153556 0.000611361 -0.001556 0.00136121 0.000334615 0.000355085 0.00152234 -0.000661573 -0.000845739 -0.000262039 -0.000632265 -0.00134459 0.000945324 0.00213763 0.00288741 -0.000259381 -0.000948427 0.00189305 0.00204252 0.0010858 0.00111916
internal_weight=8000 5060 3987 2940 2935 1052 2289 1556 449 1713 646 733 1227 422 830 289 213 1107 1194 917 1073 277 236 188 541 789 805 777 534 519
internal_count=8000 5060 3987 2940 2935 1052 2289 1556 449 1713 646 733 1227 422 830 289 213 1107 1194 917 1073 277 236 188 541 789 805 777 534 519
is_linear=0
shrinkage=0.05


Tree=15
num_leaves=31
num_cat=0
split_feature=35 34 25 14 13 0 1 0 31 13 7 29 0 10 6 38 30 38 17 38 10 4 38 35 14 22 17 38 25 2
split_gain=0.755583 0.718694 0.450579 0.441334 0.315226 0.277105 0.243976 0.236308 0.230536 0.229759 0.238599 0.214762 0.213401 0.207035 0.187887 0.187292 0.185719 0.183186 0.178681 0.168124 0.16634 0.191527 0.164215 0.163982 0.162755 0.174541 0.161419 0.158841 0.157731 0.172429
threshold=1.091640764201532 0.30135568292638631 -0.28190454290920552 0.53553892046240781 1.030019092179469 -0.67134642007139067 0.045455152537688219 -0.69296139782871924 0.56081763553666952 0.0092009290276228017 -1.2158228176293362 -0.44554146636493169 1.1248050929348221 -1.1888542639372053 -1.0431558816228097 0.58772171017992469 -0.18908950986354947 0.059480326253627563 -1.2627602179941468 -0.70073891791881848 -0.89294130533769034 0.13057507448721423 -0.7951548597407968 -0.68431364140412609 0.5477987202284138 1.1680910664340314 0.3596521022241404 0.2884471629259055 0.60214909871821554 -0.4829535109458542
decision_type=2 2 2 2 2 2 2 2 2 2 2 2 2 2 2 2 2 2 2 2 2 2 2 2 2 2 2 2 2 2
left_child=1 3 9 4 5 23 12 14 -2 11 -11 -3 20 -6 -4 28 -13 -10 -7 -20 -5 -22 -14 -1 25 -17 -12 -8 29 -9
right_child=8 2 7 6 13 18 27 15 17 10 26 16 22 -15 -16 24 -18 -19 19 -21 21 -23 -24 -25 -26 -27 -28 -29 -30 -31
leaf_value=-0.003366851102958702 0.0016848199790345294 0.00031265083627085718 0.0025317897618709101 0.0021519507394219179 0.0030090395209322156 0.00062544733325552171 9.7739701361153678e-05 -0.00036864986105943727 0.0011979520753342468 -0.0027429598306784281 0.0014937708243765741 -0.00035512385575842191 0.006507882472998338 -0.00012946583034470212 -0.0005746039682872488 -0.00080318679237416444 -0.0027878386612546855 -0.0012493168043938908 -0.00010246894530097849 -0.0012752393071934786 0.00096044020375183736 -0.0011335802716222032 0.0016789192380990117 -0.0015315416097864722 0.0021130910874275011 0.0032943198939023657 -0.00041685082945808595 -0.0015308872306484655 0.0024122225303137954 0.0016948541914795926
leaf_weight=178 778 170 57 117 60 184 384 143 165 54 285 135 26 401 325 227 206 142 411 1310 246 196 69 454 93 29 175 240 421 319
leaf_count=178 778 170 57 117 60 184 384 143 165 54 285 135 26 401 325 227 206 142 411 1310 246 196 69 454 93 29 175 240 421 319
internal_value=0 -0.000192336 0.000455433 -0.000593288 -0.000925208 -0.00114413 0.000181447 0.000976899 0.00122681 -0.000360823 0.00037831 -0.00111401 0.000859091 0.000268737 -9.74576e-05 0.00131406 -0.00183979 4.9671e-05 -0.000838628 -0.000998092 0.000475877 2.0514e-05 0.00305856 -0.00205681 0.00031564 -0.000318387 0.000756104 -0.000520789 0.00170293 0.00104539
internal_weight=8000 6915 2639 4276 2998 2537 1278 1614 1085 1025 514 511 654 461 382 1232 341 307 1905 1721 559 442 95 632 349 256 460 624 883 462
internal_count=8000 6915 2639 4276 2998 2537 1278 1614 1085 1025 514 511 654 461 382 1232 341 307 1905 1721 559 442 95 632 349 256 460 624 883 462
is_linear=0
shrinkage=0.05


Tree=16
num_leaves=31
num_cat=0
split_feature=35 16 5 18 31 11 38 14 25 2 38 18 14 10 35 10 25 12 34 25 12 0 28 38 14 10 5 28 13 0
split_gain=0.707201 0.599153 0.422474 0.393771 0.372775 0.360013 0.329394 0.308855 0.306499 0.276362 0.274586 0.243532 0.233325 0.230599 0.219322 0.233488 0.223313 0.241795 0.21862 0.210206 0.204249 0.232089 0.19316 0.186928 0.182719 0.179802 0.177068 0.183654 0.171228 0.168827
threshold=-0.57480229150129891 -0.21205724900807335 -0.25477242460726285 0.16521718221353446 0.038023668197115688 0.17571205779346402 -0.18216160523950797 1.6286596588362017 -0.20855407595624761 0.35287480990389325 -0.55674584749662914 0.54983571721449487 0.84718884894604674 -0.41501294038058062 0.37087210663574949 -0.52097610485975043 0.72034661232203023 0.81580339634951904 0.30135568292638631 0.50230826566197206 -1.0138737222128482 -1.6945368421125686 0.03767759378278205 0.21382484402396248 1.3468373540394512 -0.52097610485975043 -0.070191649974334483 0.55990240904230659 1.1545834747708261 0.99224448492253592
decision_type=2 2 2 2 2 2 2 2 2 2 2 2 2 2 2 2 2 2 2 2 2 2 2 2 2 2 2 2 2 2
left_child=3 4 7 8 9 10 14 28 -1 19 -4 12 -8 -7 15 -6 17 -16 -10 -2 -5 -22 29 -15 -23 -14 -13 -28 -3 -12
right_child=1 2 5 20 6 13 11 -9 18 -11 22 26 25 23 16 -17 -18 -19 -20 -21 21 24 -24 -25 -26 -27 27 -29 -30 -31
leaf_value=-0.0010459000038775576 -0.00079136347584413613 -0.00034354386916300706 0.0030097062639129275 -0.0030527754875047009 0.0014527172373805181 0.0015540741197008236 -0.0015564488367785017 0.0030908527242188445 -0.00016756922985825107 0.0013332576070845404 0.0015678677192867037 -0.0045346492053302484 0.0049464733088659544 0.00056535996329287318 -0.00068495016306797561 -0.0020365923527928772 0.0037981716273401602 0.0035944161393000546 0.001615147829702181 0.0010032524690740776 -0.0049921379598796252 -0.0011855916082479413 0.00045562249725993314 -0.001309775530697525 0.001590598903436999 -8.6610982086503953e-06 -7.620253655985098e-05 -0.0043398188010201856 0.0013850117338406096 0.0044004111018564026
leaf_weight=552 546 1150 326 176 65 283 368 79 437 423 361 106 24 321 150 170 58 42 279 231 38 723 393 225 63 68 75 40 163 65
leaf_count=552 546 1150 326 176 65 283 368 79 437 423 361 106 24 321 150 170 58 42 279 231 38 723 393 225 63 68 75 40 163 65
internal_value=0 0.00029589 0.000724913 -0.000747157 -0.000312354 0.00119541 -0.000950047 5.40709e-05 -0.000157636 0.000303133 0.00177119 -0.00165935 -0.000987413 0.000394 3.57353e-05 -0.00104999 0.00107632 0.000226517 0.000520239 -0.000251334 -0.00148958 -0.0011493 0.0012718 -0.000198303 -0.000956538 0.00123366 -0.00303426 -0.00160512 -0.000125059 0.00201273
internal_weight=8000 5732 3366 2268 2366 1974 1166 1392 1268 1200 1145 681 460 829 485 235 250 192 716 777 1000 824 819 546 786 92 221 115 1313 426
internal_count=8000 5732 3366 2268 2366 1974 1166 1392 1268 1200 1145 681 460 829 485 235 250 192 716 777 1000 824 819 546 786 92 221 115 1313 426
is_linear=0
shrinkage=0.05


Tree=17
num_leaves=31
num_cat=0
split_feature=35 34 16 12 25 13 28 5 18 12 16 20 20 25 18 17 14 5 31 1 36 13 16 14 18 10 9 18 35 7
split_gain=0.655005 0.6134 0.464775 0.394026 0.37411 0.299441 0.292138 0.284264 0.282522 0.271827 0.253796 0.247088 0.244838 0.245101 0.220591 0.215281 0.201499 0.201499 0.199309 0.228937 0.211613 0.193515 0.189865 0.182796 0.178727 0.174052 0.174006 0.171017 0.192407 0.164125
threshold=1.2350324914128963 0.30135568292638631 -0.59320617078221527 -0.3506125102225805 -0.28190454290920552 0.95570316733341698 0.03767759378278205 -1.3907604457293603 0.34623392276408399 1.306823415832866 0.54841162896874718 -0.78444241223685263 -0.018637484667108292 -1.377500823556683 -1.2970680679244826 -1.0799199319418269 1.6286596588362017 1.2643394341911318 -0.69339189844061988 0.76964546233381281 1.0904787583122764 0.22455880871152292 -0.020173079901643107 -0.25173702409424925 0.047453146647413513 -0.85170936319519919 0.56284744404176557 -0.38399465007187567 -0.8819908287372763 1.2325902586627968
decision_type=2 2 2 2 2 2 2 2 2 2 2 2 2 2 2 2 2 2 2 2 2 2 2 2 2 2 2 2 2 2
left_child=1 2 5 18 9 27 11 -5 12 15 -2 -6 26 -14 -7 -3 -10 -15 -4 -20 -21 -17 -13 -24 29 -26 -9 -1 -29 -8
right_child=10 4 3 7 6 14 24 8 16 -11 -12 22 13 17 -16 21 -18 -19 19 20 -22 -23 23 -25 25 -27 -28 28 -30 -31
leaf_value=-0.00083384275364705221 0.0007060073528710254 0.0013132275611495471 0.0001960401075250853 -0.0018438250824363792 0.0032283862255370597 0.0053514362594914338 0.00060263733082512321 0.0021756703326547325 -0.00064269420908757546 0.0021272169009145087 0.0025659790321789322 0.00027809658844391526 -0.0033914686905472079 9.2459850155443809e-05 -0.00014740173655456817 -0.0015451441125819238 0.0029549031375642239 0.0031732067151983793 -0.00082549130988375258 -0.0033929452021957971 0.00059598425375432119 0 0.0005775094540578726 0.0029772568944699718 0.0015302245251685568 -0.0010574014246978584 0.0002813163271353385 -0.0041957636517429234 -0.0018089935249413611 0.0040177057998863393
leaf_weight=368 595 129 293 153 175 20 353 401 634 103 273 356 45 490 183 464 41 60 684 185 38 358 146 191 80 323 183 106 530 40
leaf_count=368 595 129 293 153 175 20 353 401 634 103 273 356 45 490 183 464 41 60 684 185 38 358 146 191 80 323 183 106 530 40
internal_value=0 -0.000157632 -0.00052201 -0.000205395 0.000432272 -0.00135903 0.00089987 0.000221147 0.000394344 -0.00030122 0.00129699 0.00153513 0.000862725 0.000139588 0.000372105 -0.00056969 -0.000416362 0.000438146 -0.000922912 -0.00128988 -0.00269084 -0.000871391 0.00109993 0.00195292 0.000200761 -0.000531073 0.00159077 -0.00171403 -0.00221525 0.00096388
internal_weight=8000 7132 4414 3207 2718 1207 1664 2007 1854 1054 868 868 1179 595 203 951 675 550 1200 907 223 822 693 337 796 403 584 1004 636 393
internal_count=8000 7132 4414 3207 2718 1207 1664 2007 1854 1054 868 868 1179 595 203 951 675 550 1200 907 223 822 693 337 796 403 584 1004 636 393
is_linear=0
shrinkage=0.05


Tree=18
num_leaves=31
num_cat=0
split_feature=35 12 0 13 38 34 39 28 31 25 12 16 5 5 11 34 34 18 1 5 38 1 5 6 22 31 34 21 16 11
split_gain=0.6212 0.515043 0.333752 0.307311 0.293013 0.280172 0.269367 0.254716 0.298208 0.257997 0.22907 0.232443 0.227989 0.223876 0.218818 0.253906 0.218676 0.21625 0.214823 0.202052 0.188937 0.181703 0.210845 0.21075 0.174384 0.170024 0.162228 0.161362 0.1592 0.157162
threshold=-0.16669268202578838 -0.23727740085405505 -0.10061325996674285 1.8073380397392051 -0.20073632951659279 -0.064608667659884808 -1.6010041361353358 -0.063844777617798901 -1.157316781486059 -1.022786280429026 1.306823415832866 0.050785639453108773 -0.10115476691323753 -1.0007986240573314 -1.0349588925121771 -0.81314507585846985 -0.87582574457898044 0.083725613655754635 0.76964546233381281 -1.208609836104882 0.2884471629259055 0.20643053000897979 0.32008003032866089 -0.88004036599253244 -0.22595830649824872 0.91247141831525103 -0.14160986968625991 -0.073937676777703673 -0.50193387214664253 1.0628189094709175
decision_type=2 2 2 2 2 2 2 2 2 2 2 2 2 2 2 2 2 2 2 2 2 2 2 2 2 2 2 2 2 2
left_child=2 5 16 6 13 17 -4 21 26 -10 11 -8 25 -3 -15 -16 20 -2 29 -18 -1 23 -23 -6 -22 27 -9 -7 -24 -13
right_child=1 4 3 -5 7 12 10 8 9 -11 -12 18 -14 14 15 -17 19 -19 -20 -21 24 22 28 -25 -26 -27 -28 -29 -30 -31
leaf_value=-0.001231302320021643 -0.00016364930387213327 -0.00014781907882609614 0.0023576138171768641 0.0034592075317946207 -0.00029909206023263495 0.0011109617678502672 -0.0010903416468803987 -0.00017298993277374542 -0.0027684445762772157 -0.00016640550376424143 0.0014641920868791402 0.00096263561455873104 0.0010402123289105759 0.0036700071375158727 -0.00023998111285045436 0.0019324561414533568 -0.0024684699648516014 -0.0017422001556725198 -0.0013890011600055307 -0.00052411459845258816 -0.0015828497172949757 -0.00084172683250217082 -0.00098480436376934682 0.0023242383964789987 -0.0057677733998459128 -0.0025350391887605933 0.0036484614542065018 -0.00094473455039876652 0.0030205552505123885 -0.0011702231213420904
leaf_weight=171 484 173 99 60 95 172 819 42 115 584 162 487 532 135 168 603 154 405 180 1132 49 198 33 335 61 82 70 214 83 103
leaf_count=171 484 173 99 60 95 172 819 42 115 584 162 487 532 135 168 603 154 405 180 1132 49 198 33 335 61 82 70 214 83 103
internal_value=0 0.000386763 -0.000502048 -5.55598e-05 0.000839018 -0.00024122 -0.000172436 0.000395282 -0.000212515 -0.000601982 -0.000318464 -0.000503435 0.000329266 0.00147378 0.00178892 0.00145263 -0.00104304 -0.000888525 0.000114389 -0.000761015 -0.00231521 0.00106447 0.000132649 0.00173311 -0.00395212 -0.000468271 0.00217194 -1.57243e-05 0.00183817 0.000581681
internal_weight=8000 4523 3477 1910 2634 1889 1850 1555 811 699 1751 1589 1000 1079 906 771 1567 889 770 1286 281 744 314 430 110 468 112 386 116 590
internal_count=8000 4523 3477 1910 2634 1889 1850 1555 811 699 1751 1589 1000 1079 906 771 1567 889 770 1286 281 744 314 430 110 468 112 386 116 590
is_linear=0
shrinkage=0.05


Tree=19
num_leaves=31
num_cat=0
split_feature=14 34 25 13 17 16 5 20 12 35 16 6 6 39 21 29 5 13 16 25 5 33 2 35 2 8 11 35 12 12
split_gain=0.61994 0.516322 0.487257 0.409218 0.378689 0.375616 0.306977 0.284061 0.216722 0.208804 0.205576 0.209766 0.197829 0.195926 0.19381 0.306209 0.194513 0.187774 0.192774 0.185714 0.184606 0.179146 0.177717 0.174635 0.165506 0.207556 0.164137 0.15925 0.158251 0.156214
threshold=-0.55311143825948461 0.88711799893514487 0.43317327417565293 -0.35581245425873748 -0.49706509688951356 -0.90351425338359392 0.76544263631109311 0.020002831604967696 0.49683226896523075 -0.54380826049932485 -1.1441443444154025 -0.52379017596068767 1.6462319404597558 1.6993417400612214 0.020415088974703385 -0.29039159259908276 0.80261634757107103 1.7608165955515385 -0.75860796513517259 -0.33354333402207204 -1.4807953719111488 -0.6813073093739811 0.017828776625875037 1.0754175713379814 0.34520567529366525 0.12096620585173852 1.1787818473846701 -1.3312057122568626 0.23614196755916247 -1.9710319849895581
decision_type=2 2 2 2 2 2 2 2 2 2 2 2 2 2 2 2 2 2 2 2 2 2 2 2 2 2 2 2 2 2
left_child=5 2 3 8 -4 19 9 17 27 -7 21 -12 -6 26 16 -16 -9 18 -5 -1 -13 -3 -21 -10 28 -26 -8 -2 -20 -11
right_child=1 10 4 7 12 6 13 14 23 29 11 20 -14 -15 15 -17 -18 -19 24 22 -22 -23 -24 -25 25 -27 -28 -29 -30 -31
leaf_value=-0.003497000601516486 -0.0037086543694346327 -0.0032967792710611129 0.0019666653083702215 -0.00081400221472565509 0.00039537691266466858 -0.0016224453353275671 0.0014658210439279602 -0.0002617180761528589 -0.00050115778484802122 -0.0046068862760307097 0.00038120979314797284 -0.001071011441599863 -0.0030554206390636099 -0.0038414877550279215 -0.0029395558565904079 -0.00022736724613433044 0.0023237695406898269 0.0033998394135652706 -0.00036271847098478534 -0.0025124406312835006 0.0022398989298346829 0.00060684384150133587 0.00010133662777797757 0.002641420527057447 0.0005602506619977924 0.0035119958396137708 -0.0015065324756865623 -0.0012829969069371794 0.0015048431166785311 -0.00024279309534974008
leaf_weight=149 78 41 468 202 1002 456 344 408 291 21 290 43 43 21 167 288 88 62 286 130 619 99 123 52 131 117 52 704 185 1040
leaf_count=149 78 41 468 202 1002 456 344 408 291 21 290 43 43 21 167 288 88 62 286 130 619 99 123 52 131 117 52 704 185 1040
internal_value=0 0.000282824 4.83696e-05 -0.000313479 0.000783236 -0.000685195 -0.00039289 0.000125283 -0.00107215 -0.000724891 0.00125977 0.00152416 0.000248319 0.000802789 -0.000487633 -0.00123424 0.000187295 0.000723321 0.000537364 -0.00207858 0.00201716 -0.000502208 -0.00122242 -9.5279e-06 0.000924039 0.00197382 0.00106261 -0.00153178 0.000360375 -0.000334308
internal_weight=8000 5664 4572 3059 1513 2336 1934 1934 1125 1517 1092 952 1045 417 951 455 496 983 921 402 662 140 253 343 719 248 396 782 471 1061
internal_count=8000 5664 4572 3059 1513 2336 1934 1934 1125 1517 1092 952 1045 417 951 455 496 983 921 402 662 140 253 343 719 248 396 782 471 1061
is_linear=0
shrinkage=0.05


Tree=20
num_leaves=31
num_cat=0
split_feature=18 14 35 11 38 5 20 35 31 0 25 0 34 5 14 35 20 5 3 16 10 34 0 5 17 34 25 7 34 17
split_gain=0.600845 0.474969 0.44617 0.336296 0.332346 0.293555 0.278141 0.293718 0.267578 0.253484 0.241691 0.23088 0.214693 0.21357 0.20946 0.201327 0.190328 0.179457 0.174199 0.172777 0.169708 0.196913 0.161757 0.177366 0.160175 0.160638 0.16012 0.154544 0.17912 0.151511
threshold=0.45549276159780405 -0.8303350632622678 0.27725372364730705 -0.78777611247088353 0.33286829938491586 0.18201964414222885 0.038858051198269274 -1.1245252593703852 -0.75918007263292375 0.23745853692660931 -0.36429770728431587 -0.10061325996674285 0.9553981919083766 -0.070191649974334483 -0.30006900677196141 1.6249552090526114 -1.0955756281322475 -0.94956096835585957 -0.14244764079199415 -0.66691493001749702 0.043774148808009741 -0.46660862812909276 -0.74448642414927579 -0.35918384519863639 1.1356898090097476 0.89943034450488979 0.82348428287891562 1.047010321642712 -1.092171881405432 0.78497119166120266
decision_type=2 2 2 2 2 2 2 2 2 2 2 2 2 2 2 2 2 2 2 2 2 2 2 2 2 2 2 2 2 2
left_child=2 22 6 17 11 19 7 -1 15 13 20 27 -12 18 16 -5 -9 -4 -10 -6 21 -8 -2 -24 25 -16 -11 28 -3 -7
right_child=1 4 3 8 5 29 10 14 9 26 12 -13 -14 -15 24 -17 -18 -19 -20 -21 -22 -23 23 -25 -26 -27 -28 -29 -30 -31
leaf_value=-0.00089966134093227975 -0.0038181116336631345 -0.0025050966270711707 0 0.001263770252770074 -0.0034799533599751686 0.00054705943121823627 -0.0023171585761174343 0.0014733931593438733 -0.002533875918597551 0.00057000721624921675 -0.0003959843902301024 0.00085051175848394631 0.0015265676145771578 0.00036495479966967343 0.0011343583780232896 0.0049248382533623796 -0.00063689987604964647 0.0025324546195886876 -0.00024149374669373997 -0.0012763843927735513 -0.0022821231469472613 0.00026428804198519077 -0.0028803010047158874 -0.00072383169756966683 -0.00056972875538821913 0.0030956811250927143 0.0027767439268162508 -0.0024397783078163454 0.00020820082649362299 -0.0019519286769552184
leaf_weight=345 99 70 89 326 127 284 108 149 160 411 823 685 176 403 549 44 376 379 183 345 264 225 155 271 101 135 106 87 448 77
leaf_count=345 99 70 89 326 127 284 108 149 160 411 823 685 176 403 549 44 376 379 183 345 264 225 155 271 101 135 106 87 448 77
internal_value=0 -0.000616037 0.000304778 0.000872797 -0.000280245 -0.00105972 -6.07898e-05 0.000391623 0.000529953 0.000179055 -0.000533055 0.000219261 -5.21531e-05 -0.000405814 0.000735553 0.00171386 -2.82901e-05 0.00205804 -0.00132583 -0.0018805 -0.00132926 -0.000558372 -0.00196408 -0.00152069 0.00125271 0.00152917 0.00103257 -0.000487221 -0.000149223 0
internal_weight=8000 2648 5352 2101 2123 833 3251 1655 1633 1263 1596 1290 999 746 1310 370 525 468 343 472 597 333 525 426 785 684 517 605 518 361
internal_count=8000 2648 5352 2101 2123 833 3251 1655 1633 1263 1596 1290 999 746 1310 370 525 468 343 472 597 333 525 426 785 684 517 605 518 361
is_linear=0
shrinkage=0.05


Tree=21
num_leaves=31
num_cat=0
split_feature=0 14 31 39 38 16 34 35 11 17 13 11 39 18 23 13 20 7 35 16 30 38 17 28 0 14 17 17 16 20
split_gain=0.554437 0.404512 0.382927 0.305858 0.317903 0.296168 0.25847 0.256669 0.249229 0.286457 0.243188 0.224916 0.21769 0.21348 0.198332 0.189454 0.185357 0.195493 0.184437 0.175709 0.181229 0.170139 0.221308 0.168895 0.159464 0.155961 0.151852 0.151668 0.202732 0.152678
threshold=-0.10061325996674285 -0.70235782604427188 0.038023668197115688 -1.6010041361353358 0.20466674173086705 -0.66691493001749702 1.4222897782542132 -0.68431364140412609 -0.087631363287310041 -1.2124229940046451 -0.66689760502369899 -1.0014803317640133 0.33614116682794648 -0.621879783340341 0.28266784140483331 -0.0094193776123370435 -0.24720537735005979 0.066887516747884401 0.47428011565911904 -1.9255616670738529 0.25081903339497019 -1.2939014125252659 -0.56361240778080757 0.57378134800397207 -0.28356043596082092 0.14109324568822754 -0.86846985626987905 0.83513521352105535 1.0000000180025095e-35 -0.039199834195815124
decision_type=2 2 2 2 2 2 2 2 2 2 2 2 2 2 2 2 2 2 2 2 2 2 2 2 2 2 2 2 2 2
left_child=2 11 7 -3 6 14 10 -1 -6 -10 -5 -2 15 -9 23 24 17 -14 -11 -13 -21 -15 -23 -4 26 -17 -7 29 -29 -12
right_child=1 3 5 4 8 12 -8 13 9 18 27 19 16 21 -16 25 -18 -19 -20 20 -22 22 -24 -25 -26 -27 -28 28 -30 -31
leaf_value=-0.0010051879064290733 0.0010812930228386991 0.002715032739423391 -0.00039912906877561126 -0.00018887191805908921 0.00066820924285227205 0.00066922785894953248 0.003219725783566536 0.001334879315222642 0.002285828211596275 -0.0016261243197171109 0.0020672154482860717 -0.005356113462608475 0.0015268859917605699 0.0019814449636838386 -0.0034481994414593308 -0.00023275204906881387 -0.0022259688210389209 -0.0017814303277465884 0.000195472173900863 -0.0012829970960759115 0.00020018644426964374 0.0010373447644395808 -0.00069713502378299498 -0.0032885675225536059 0.0013293197444323938 0.0016934510007870522 -0.0019041921867474128 -0.001400733045908721 0.0015107530001537493 0.00082002692296920948
leaf_weight=452 189 171 187 448 631 70 120 404 71 432 490 21 86 96 175 228 298 92 198 516 334 250 684 72 65 189 262 122 117 530
leaf_count=452 189 171 187 448 631 70 120 404 71 432 490 21 86 96 175 228 298 92 198 516 334 250 684 72 65 189 262 122 117 530
internal_value=0 0.000377396 -0.000459073 0.000648815 0.000535304 -0.000997752 0.000963699 3.0712e-05 -4.8567e-05 -0.000700903 0.000801994 -0.000470535 -0.000612094 0.000360764 -0.00213214 -0.000108705 -0.00146223 -0.000154996 -0.00104575 -0.000813094 -0.000694357 -1.6555e-05 -0.00022746 -0.00122263 -0.000895586 0.000628484 -0.00134651 0.00115854 3.67909e-06 0.00142421
internal_weight=8000 4390 3610 3330 3159 1724 1827 1886 1332 701 1707 1060 1290 1434 434 814 476 178 630 871 850 1030 934 259 397 417 332 1259 239 1020
internal_count=8000 4390 3610 3330 3159 1724 1827 1886 1332 701 1707 1060 1290 1434 434 814 476 178 630 871 850 1030 934 259 397 417 332 1259 239 1020
is_linear=0
shrinkage=0.05


Tree=22
num_leaves=31
num_cat=0
split_feature=12 18 25 39 38 0 14 34 35 35 21 25 16 35 5 12 14 0 1 10 25 10 31 34 38 14 8 16 5 21
split_gain=0.549812 0.512936 0.33185 0.324505 0.315608 0.309538 0.301345 0.273682 0.270111 0.239321 0.233011 0.229265 0.222337 0.208758 0.20239 0.191046 0.18299 0.206059 0.208353 0.180402 0.16805 0.166747 0.198072 0.166725 0.187257 0.196995 0.16426 0.178288 0.159697 0.237056
threshold=0.64625494747988255 0.64809572280696226 -0.39715411763751901 -1.5010610081073135 0.63868156460265058 0.83505443510321864 -0.8303350632622678 0.70655380123957934 1.6676246763315485 1.1529719511242333 -0.33496771032974409 0.43317327417565293 -0.86503982332766427 -0.25916721199049036 0.77921127298664239 0.38187494532258187 -0.30006900677196141 0.86065297967511245 0.045455152537688219 -0.40609957749223569 -0.2375395789015303 -0.59761151863152262 1.6249595882796628 0.92641054023481628 0.33286829938491586 1.4219958830271697 -0.0088485397184016913 0.36992169978794021 -0.2645138874411857 -1.0553471658568183
decision_type=2 2 2 2 2 2 2 2 2 2 2 2 2 2 2 2 2 2 2 2 2 2 2 2 2 2 2 2 2 2
left_child=1 2 13 -4 16 7 10 9 20 21 -3 14 -12 -1 15 23 -2 -18 -19 -15 -6 -5 -23 24 25 -8 -16 -28 -7 -30
right_child=4 6 3 5 8 28 11 -9 -10 -11 12 -13 -14 19 26 -17 17 18 -20 -21 -22 22 -24 -25 -26 -27 27 -29 29 -31
leaf_value=-0.0012751966820478862 0.00037702822220294177 -0.0041010795818718577 0.0024426822245993554 0.00025101818310695466 -0.001583483069958358 0.00026105855933418524 -0.0018447464745801542 0.00091032307446992837 0.0041748264085776938 0.0012389238052498642 -0.004589902778601369 0.00027655688924683672 -0.00042741493151400692 0.00084302541130220016 -0.0012779228785925474 0.00062097276910609133 0.0011612441965110872 0.0046692026628600003 0.0010198543308157519 -0.00063090355982096274 0.00024004944134267637 -0.00080138908586465166 -0.0042242082298945991 1.9232109069986293e-05 -0.0034298594559428021 0.0023004200621328384 0 0.0044314298896715437 -0.0013997168416317266 0.0025155952864698607
leaf_weight=611 573 123 175 388 237 243 267 543 31 196 41 432 163 334 80 87 743 96 73 546 262 967 45 95 197 31 58 38 43 282
leaf_count=611 573 123 175 388 237 243 267 543 31 196 41 432 163 334 80 87 743 96 73 546 262 967 45 95 197 31 58 38 43 282
internal_value=0 -0.000240479 3.94637e-05 0.000353816 0.00071439 0.000216844 -0.00100296 -5.64563e-05 -0.000325768 -0.000388548 -0.0023638 -0.000652609 -0.00129033 -0.000564787 -0.00112902 -0.00152311 0.00108899 0.00153073 0.00312396 -6.57671e-05 -0.000616163 -0.000620038 -0.000958932 -0.0018478 -0.00221615 -0.00139614 0.000358491 0.00177411 0.00125468 0.00198192
internal_weight=8000 5985 4373 2882 2015 2707 1612 2139 530 1596 327 1285 204 1491 853 677 1485 912 169 880 499 1400 1012 590 495 298 176 96 568 325
internal_count=8000 5985 4373 2882 2015 2707 1612 2139 530 1596 327 1285 204 1491 853 677 1485 912 169 880 499 1400 1012 590 495 298 176 96 568 325
is_linear=0
shrinkage=0.05


Tree=23
num_leaves=31
num_cat=0
split_feature=18 0 35 13 14 25 13 13 12 0 31 16 25 16 17 12 12 0 31 12 14 1 17 7 12 16 14 2 29 17
split_gain=0.503786 0.392169 0.385611 0.304004 0.273159 0.267232 0.279991 0.241622 0.2346 0.225744 0.205895 0.190234 0.186036 0.189189 0.186112 0.172922 0.167029 0.194798 0.160758 0.163946 0.157742 0.154193 0.154063 0.222894 0.153795 0.153125 0.152471 0.248206 0.177166 0.147668
threshold=0.16521718221353446 0.20791194206273403 -0.57480229150129891 0.93734147211866925 0.83359444190233856 0.43317327417565293 0.0092009290276228017 1.8366998762219946 1.3662433583726183 -0.69296139782871924 -0.71693197160043598 0.94955787340433806 2.0274314911755562 -1.3322535239413431 0.67321993110741329 1.4902851540410562 -1.0138737222128482 -1.6945368421125686 0.1741221211637701 1.0191512303891042 -0.46331827848317791 0.63542751251866603 0.60467669247789024 -0.20919994228183111 -0.38009601832541967 -0.64038808790033042 0.19683829314803394 -0.50622002283927858 0.014324239182210399 -0.45376407336524766
decision_type=2 2 2 2 2 2 2 2 2 2 2 2 2 2 2 2 2 2 2 2 2 2 2 2 2 2 2 2 2 2
left_child=1 5 16 4 11 6 21 8 12 -7 -8 18 13 -3 -15 29 -2 -18 -4 -20 25 26 -6 -24 -23 -5 27 28 -1 -11
right_child=2 7 3 20 22 9 10 -9 -10 15 -12 -13 -14 14 -16 -17 17 -19 19 -21 -22 24 23 -25 -26 -27 -28 -29 -30 -31
leaf_value=-0.0011800648569121296 -0.0026954081307259464 -0.0012289872340060111 -0.00043489691251626664 -0.0033841591653833215 0.0013259954188045854 -0.00022583142308566222 0.0015819626153846555 0.0041679991807234218 0.0024691397587686178 0.0025904590121398185 -0.0001977237608721433 0.00050180408866978864 0.0042189192240447487 0.0010023924153591893 -0.00025304673882752801 0.0048703818027450146 -0.004493185133964136 -0.00079575263012027697 -0.0019063429672249298 0.00043511767148407901 0.0016014681393277871 -0.0037400045405891272 0.001678668499910965 -0.0027503861818462972 -0.0010369663371946958 0.00054619894297417424 0.00022079065218757435 -0.00045374264955587782 -0.0054199147028515292 0.00049445205489479318
leaf_weight=53 176 140 736 33 309 354 213 55 188 125 672 274 35 1144 390 35 38 786 498 84 338 93 49 65 138 94 288 262 53 282
leaf_count=53 176 140 736 33 309 354 213 55 188 125 672 274 35 1144 390 35 38 786 498 84 338 93 49 65 138 94 288 262 53 282
internal_value=0 0.000348381 -0.000451957 -0.000115505 -0.000383257 -5.58442e-05 -0.000399497 0.000882705 0.000784604 0.000702845 0.000225089 -0.000684969 0.000596236 0.000517259 0.000679958 0.00145782 -0.00128126 -0.000972857 -0.000935501 -0.00155979 0.00103384 -0.00102827 0.00074034 -0.000803046 -0.00214799 -0.000437595 -0.000626086 -0.00130232 -0.00335023 0.00115095
internal_weight=8000 4520 3480 2480 2015 2568 1772 1952 1897 796 885 1592 1709 1674 1534 442 1000 824 1318 582 465 887 423 114 231 127 656 368 106 407
internal_count=8000 4520 3480 2480 2015 2568 1772 1952 1897 796 885 1592 1709 1674 1534 442 1000 824 1318 582 465 887 423 114 231 127 656 368 106 407
is_linear=0
shrinkage=0.05


Tree=24
num_leaves=31
num_cat=0
split_feature=16 13 34 12 35 17 10 35 35 25 20 39 25 14 34 29 8 36 13 39 32 18 26 10 6 14 7 24 5 18
split_gain=0.484894 0.454047 0.3703 0.317708 0.306076 0.281073 0.244912 0.23531 0.234969 0.262065 0.217849 0.199343 0.192085 0.189151 0.18827 0.173311 0.167709 0.169481 0.15996 0.15936 0.158688 0.158345 0.157798 0.155385 0.1499 0.148563 0.145229 0.243015 0.1449 0.144834
threshold=0.75319487168698129 0.70127385723505309 -0.064608667659884808 0.35761657941488956 0.94708731218328979 -0.72853202038170439 -0.15720973640463812 -1.1804567335939729 1.5435488027737265 0.60214909871821554 0.80781576752887074 -1.6010041361353358 -0.17553176120051786 0.47224085459079834 -0.27098544148775228 -0.88016099464823849 0.47333563469952855 -1.271413252283341 -0.41131262920043266 -0.98964892332152699 1.6780730081578346 0.63523227635397517 0.56457388794651819 0.51840476594705243 0.69310598896515951 -0.33947870728151408 -0.20919994228183111 1.6982610575041905 0.54251484130275085 -0.13757903130678867
decision_type=2 2 2 2 2 2 2 2 2 2 2 2 2 2 2 2 2 2 2 2 2 2 2 2 2 2 2 2 2 2
left_child=1 2 4 12 11 22 16 28 9 14 -5 -1 18 26 -7 -12 25 -18 -4 -11 -15 -6 -2 24 -16 -3 -13 -28 -8 -14
right_child=5 6 3 10 21 8 7 -9 -10 19 15 13 29 20 23 -17 17 -19 -20 -21 -22 -23 -24 -25 -26 -27 27 -29 -30 -31
leaf_value=0.00091183918006499233 0.0023889336167489945 0.00060995045965748487 -0.0019179461121701605 0.0011484826649771286 0.00095827995263170803 -0.0010954990086212135 -0.0036355155504700053 0.00029263769639521271 0.0028878818814232778 0.0037609401889391208 -0.0043331632749065499 -0.0010051303582520018 0.00067571139327506264 -0.00078616594697585225 0.0014276170959738356 -7.8758658389241354e-05 0.0038674572338189546 -0.00043055249572256636 -0.00036812641092958721 0.00085537759977704622 0.0029742675843005325 -0.0013722057193095367 0.00027456677718611767 -0.00091482468515657531 -0.00084841659426058156 0.0025232930477496352 -0.0024014312492955554 0.0021875680219246027 4.7085522627574099e-05 -0.00057424591479798143
leaf_weight=102 324 172 315 681 282 385 67 745 86 59 29 452 440 550 303 150 26 186 374 281 29 97 129 170 92 279 637 29 40 489
leaf_count=102 324 172 315 681 282 385 67 745 86 59 29 452 440 550 303 150 26 186 374 281 29 97 129 170 92 279 637 29 40 489
internal_value=0 -0.000211736 -0.000456965 -3.68142e-05 -0.000932668 0.000715187 0.000538597 -1.64425e-05 0.000354951 0.000182003 0.00073749 -0.00120534 -0.000451483 -0.00133559 -0.000239887 -0.000797972 0.00125929 7.4563e-05 -0.00108411 0.00137524 -0.000588704 0.000348429 0.00179806 0.000334383 0.000884767 0.00180497 -0.00171784 -0.00219381 -0.0022134 1.23958e-05
internal_weight=8000 6171 4656 2478 2178 1829 1515 852 1376 1290 860 1799 1618 1697 950 179 663 212 689 340 579 379 453 565 395 451 1118 666 107 929
internal_count=8000 6171 4656 2478 2178 1829 1515 852 1376 1290 860 1799 1618 1697 950 179 663 212 689 340 579 379 453 565 395 451 1118 666 107 929
is_linear=0
shrinkage=0.05


Tree=25
num_leaves=31
num_cat=0
split_feature=38 14 11 5 0 39 35 13 5 18 35 39 20 12 11 37 10 25 10 12 8 0 11 25 37 11 34 0 13 18
split_gain=0.48143 0.442977 0.358321 0.288593 0.269151 0.262291 0.240171 0.233559 0.229534 0.279005 0.218705 0.218513 0.214693 0.210697 0.19396 0.268848 0.185873 0.205711 0.18206 0.21276 0.18089 0.178756 0.174854 0.17129 0.195917 0.170457 0.162419 0.154466 0.153628 0.149951
threshold=0.33286829938491586 0.14109324568822754 -0.13117456491610924 -0.97426166481236709 -0.77598500987815722 -1.1344958590990437 0.41765910301421144 0.67396190979769333 -0.012615686765942977 0.51394678685549711 -0.69944740090327595 -0.6328390491696364 -0.80704345441292846 -0.6802756662011149 0.17571205779346402 0.37164141610528934 -0.1728463904036385 0.054068386465396849 -1.0112140871150919 -1.3839729283008175 1.4018200632219104 -0.93223826825852407 -1.166536487001725 -0.67823780532201761 0.28839064433846773 1.4205978856924377 -0.77123560511925671 -0.51722917137665136 -1.1389180542592774 0.23472994736175853
decision_type=2 2 2 2 2 2 2 2 2 2 2 2 2 2 2 2 2 2 2 2 2 2 2 2 2 2 2 2 2 2
left_child=1 3 4 26 20 -5 18 13 9 11 23 -6 28 -7 -14 -16 17 -8 -4 -20 22 -9 -2 24 -3 29 -1 -25 -12 -23
right_child=2 10 6 5 8 7 16 21 -10 -11 12 -13 14 -15 15 -17 -18 -19 19 -21 -22 25 -24 27 -26 -27 -28 -29 -30 -31
leaf_value=-0.0030741752062357526 0.00036493303271185895 -0.0031336450045726634 0.00011942797858728317 0.0015133654432154132 0.0023907055701218776 -0.0013592831990421664 -0.00048220872274670838 -0.0012359778777253426 0.0011958805734093411 -0.0019201935985588845 -0.00044274829109168371 -0.00028789190869547187 0.0013085822170692937 -3.8658384925756981e-05 0.00096120359888579891 -0.0012362954144789304 -0.00098105258108371787 0.0023694805862812338 -0.0041445293139316655 -0.0014509258322858507 0.0030602973554795382 0.0022882279943719861 -0.0025237724174687406 -0.0011106402239745878 0.00066926737037072451 -0.0017698081880542416 -0.00075556188019898539 0.0011134793601353646 0.0025917353045493566 0.00027702724435713495
leaf_weight=99 70 83 156 289 109 426 130 88 534 173 45 244 797 1066 358 227 302 119 83 848 21 250 179 108 54 42 364 269 310 157
leaf_count=99 70 83 156 289 109 426 130 88 534 173 45 244 797 1066 358 227 302 119 83 848 21 250 179 108 54 42 364 269 310 157
internal_value=0 0.000298164 -0.000504758 -0.000122338 0.00010152 0.000103325 -0.00100006 -9.51141e-05 0.000463999 -0.000269595 0.000819876 0.000525493 0.00108816 -0.000419144 0.000800604 9.98877e-05 -0.00013955 0.000860979 -0.00143161 -0.00169685 -0.00130268 0.00079577 -0.00169179 -7.70695e-05 -0.00159882 0.00120529 -0.00126269 0.000462946 0.00219299 0.00152495
internal_weight=8000 5032 2968 2781 1330 2318 1638 2029 1060 526 2251 353 1737 1492 1382 585 551 249 1087 931 270 537 249 514 137 449 463 377 355 407
internal_count=8000 5032 2968 2781 1330 2318 1638 2029 1060 526 2251 353 1737 1492 1382 585 551 249 1087 931 270 537 249 514 137 449 463 377 355 407
is_linear=0
shrinkage=0.05


Tree=26
num_leaves=31
num_cat=0
split_feature=12 25 14 16 38 17 11 28 35 17 6 35 20 39 28 35 34 34 39 18 12 13 38 0 18 18 8 23 7 6
split_gain=0.442716 0.413887 0.350234 0.30391 0.266051 0.247935 0.236358 0.214064 0.22361 0.214608 0.225942 0.21157 0.233785 0.206251 0.199646 0.198735 0.198726 0.175991 0.174742 0.171676 0.171323 0.169246 0.161275 0.159945 0.159764 0.153627 0.150053 0.146663 0.146321 0.146152
threshold=0.6712518909726557 0.47544460067696304 0.53553892046240781 -0.73523439365120924 0.63868156460265058 -1.1524791726133807 -0.95126404864177483 -0.3645538929276872 -0.19970966909323715 0.11354882386951339 1.3854523196824924 1.6676246763315485 0.10563432929963616 0.24076155461141438 1.0731578206597006 -0.64667618517196745 -0.10479781520544415 0.47060427948266109 -0.31063895194409696 0.62394310906883599 1.306823415832866 -0.72819372554465167 0.32126042104849095 0.86065297967511245 1.2600454915167336 -0.8395609318609597 0.52959677564863916 -0.1169955668468584 -0.76585141710282267 0.727182858449133
decision_type=2 2 2 2 2 2 2 2 2 2 2 2 2 2 2 2 2 2 2 2 2 2 2 2 2 2 2 2 2 2
left_child=1 2 3 19 14 -5 -7 9 -9 -3 -11 12 29 21 23 24 28 22 -19 -1 26 -8 25 -2 -4 -17 -16 -25 -10 -6
right_child=4 7 15 5 11 6 13 8 16 10 -12 -13 -14 -15 20 17 -18 18 -20 -21 -22 -23 -24 27 -26 -27 -28 -29 -30 -31
leaf_value=-0.0012272522458392214 0.00094212099834697742 0.0018679967355679323 -0.00048093640487950325 0.00088585056438338734 0.0010224230605409633 0.00048379579515579285 -0.0017504730200458797 -0.00078796349008148888 0.001556944548085696 0.00047622584927571295 -0.0047703755071293978 0.0037278949131452758 -0.0017607738605687582 -0.0016697977131004981 -0.002826644046575295 0.0023574110092281419 0.0013081232266064157 0.003233323830862782 0.00059938176800203953 -0.0030735998682797027 0.0012843263676328039 -0.00014613192191333289 -0.00092130906737298071 0.0011139056274522782 -0.0042437371903395046 0.00013933016525537276 0.00087286761819490113 0.0035646555491606439 -0.00097198058500605152 -0.0020157464301908726
leaf_weight=462 975 391 283 272 209 333 213 524 74 281 22 30 225 641 84 106 403 106 170 183 84 758 236 130 32 317 38 130 240 48
leaf_count=462 975 391 283 272 209 333 213 524 74 281 22 30 225 641 84 106 403 106 170 183 84 758 236 130 32 317 38 130 240 48
internal_value=0 -0.000211217 -0.000495513 -0.000800815 0.000654642 -0.000519653 -0.000718813 0.000390339 0 0.00109352 7.73401e-05 -0.000316948 -0.000579795 -0.000970359 0.00100332 0.000199516 0.000570773 0.000568701 0.00162988 -0.00175925 -0.000419469 -0.000503355 0.000116495 0.00124471 -0.000880283 0.000707405 -0.00163362 0.0023594 -0.000359767 0.000434972
internal_weight=8000 6047 4112 2862 1953 2217 1945 1935 1241 694 303 512 482 1612 1441 1250 717 935 276 645 206 971 659 1235 315 423 122 260 314 257
internal_count=8000 6047 4112 2862 1953 2217 1945 1935 1241 694 303 512 482 1612 1441 1250 717 935 276 645 206 971 659 1235 315 423 122 260 314 257
is_linear=0
shrinkage=0.05


Tree=27
num_leaves=31
num_cat=0
split_feature=5 13 35 10 11 10 31 16 10 18 39 16 25 17 1 20 14 14 35 12 25 1 31 1 12 39 9 13 39 26
split_gain=0.43859 0.342318 0.334608 0.328478 0.278676 0.278027 0.267686 0.262202 0.231016 0.277614 0.22264 0.221836 0.216303 0.202994 0.194165 0.182464 0.180008 0.172636 0.166708 0.16548 0.15854 0.156597 0.154685 0.147857 0.142285 0.140701 0.165186 0.134259 0.133544 0.130066
threshold=-0.10982969141485817 -0.15164538978750355 1.0639328057184241 -0.57205065531976185 -0.46719288023379757 -1.3302012560694472 -0.77116444319526622 0.70139614080866497 0.88263520244054205 0.62394310906883599 -0.15133087036359461 -0.55827428130727352 0.95476695656941835 -1.2353270469583915 -1.3126213005592622 -0.77136829085545655 0.45494891583012209 1.1173980163928057 -1.3059036715586603 0.38187494532258187 0.69045027668396675 -1.120277127513071 1.7056904094837024 0.53242474890714842 -0.6315461657587319 1.5895611539264254 -0.50464852658597159 1.5033248086949302 1.2869472581476991 0.86086421476553687
decision_type=2 2 2 2 2 2 2 2 2 2 2 2 2 2 2 2 2 2 2 2 2 2 2 2 2 2 2 2 2 2
left_child=1 5 3 13 18 -1 24 12 9 14 29 -10 -7 -2 -3 21 20 23 -5 -11 -17 -15 -12 -9 -6 -20 -27 -4 -16 -8
right_child=2 8 27 4 6 7 10 17 11 19 22 -13 -14 15 28 16 -18 -19 25 -21 -22 -23 -24 -25 -26 26 -28 -29 -30 -31
leaf_value=0.0010664630304428292 0.0030227965428820465 0.0026302517964272541 0.0011965269741921452 -0.0013496873251287972 -0.00096760283034715727 -0.0018512560120029047 0.00034602917798129309 0.00038834393907962936 -0.0030106781029115128 -0.0014022676238155275 -0.0015368554326530117 -0.00028793938406000452 -2.3172650932632883e-05 0.0056699643932975174 0.00064389699202268267 -0.00070547276551670337 0.0014649962692587471 0.0030947282382937421 0.0010463764936788067 0.00056748667474506458 0.0014508528150506076 0.0014254392665414273 0.0015564583103714052 -0.001971992879773152 0.0011194682555289201 0.0022146107388871131 -0.0031799954020800695 0.0040599462578356981 -0.0011624604573865472 -0.0015476084923992679
leaf_weight=153 104 115 576 96 107 922 424 203 109 322 762 254 203 26 1011 392 226 41 713 155 108 183 41 97 321 20 43 46 112 115
leaf_count=153 104 115 576 96 107 922 424 203 109 322 762 254 203 26 1011 392 226 41 713 155 108 183 41 97 321 20 43 46 112 115
internal_value=0 -0.00039915 0.000343405 0.00016061 -0.000133944 -0.000944283 -0.000495913 -0.0011576 2.31898e-05 0.000268102 -0.000844681 -0.00111989 -0.00152586 0.000914363 0.000665111 0.000674196 0.000291223 4.27601e-05 0.000595026 -0.000751736 -0.000229511 0.00197984 -0.00137252 -0.000358573 0.000585917 0.000842194 -0.00138739 0.00141695 0.000459204 -4.89311e-05
internal_weight=8000 3697 4303 3681 2642 1619 1770 1466 2078 1715 1342 363 1125 1039 1238 935 726 341 872 477 500 209 803 300 428 776 63 622 1123 539
internal_count=8000 3697 4303 3681 2642 1619 1770 1466 2078 1715 1342 363 1125 1039 1238 935 726 341 872 477 500 209 803 300 428 776 63 622 1123 539
is_linear=0
shrinkage=0.05


Tree=28
num_leaves=31
num_cat=0
split_feature=0 25 14 16 11 28 10 17 16 9 1 17 14 30 10 15 28 12 12 5 10 1 20 16 1 32 9 21 18 5
split_gain=0.413119 0.408528 0.302675 0.281468 0.250998 0.234792 0.223158 0.220662 0.219508 0.217851 0.212721 0.201728 0.1956 0.191738 0.180236 0.182859 0.176334 0.171195 0.170371 0.163909 0.186174 0.162487 0.160904 0.159579 0.154367 0.153209 0.153159 0.150885 0.16405 0.150486
threshold=-0.56985316257356322 0.61299730910038119 0.44548903485822916 -1.0550597227598093 -0.80954715132881605 0.68638924375156474 -0.44867170946406248 0.15919190380573942 -0.16961448831700096 -0.048079579403385857 1.0621355569239364 -1.1946896883581049 1.4906499695647899 0.5917205550861232 -0.35205614694109588 -0.58924778650452703 -0.063844777617798901 1.2573326368202562 2.0964078517317 -0.012615686765942977 1.0774147685923097 0.57418613454236134 -0.70259035839689488 1.3178639020904692 -1.4456256394116138 -0.97113814576294899 -1.1221874798044713 1.1794326580713987 -1.7342599094694588 -0.16825355728594868
decision_type=2 2 2 2 2 2 2 2 2 2 2 2 2 2 2 2 2 2 2 2 2 2 2 2 2 2 2 2 2 2
left_child=7 2 3 26 29 10 13 19 17 25 18 -6 14 -3 15 -9 -10 -8 22 -1 -21 -14 -4 -16 -13 -7 -2 28 -24 -5
right_child=1 6 5 4 11 9 8 12 16 -11 -12 24 21 -15 23 -17 -18 -19 -20 20 -22 -23 27 -25 -26 -27 -28 -29 -30 -31
leaf_value=-0.00070715984553666408 0.00093666713408814724 0.0023755311937294649 0.0022190721943196458 -0.00018389887283993468 0.0010465162212388473 -0.0056180035981399888 -0.0006960986246017974 0.0014752109436385753 0.0020390549330032803 0.00058916980084198394 -0.00075924532333872556 0.0011428237814274933 0.0028187572363059746 0.00023290265759120588 -0.0021660044382019153 -0.0011900138192672345 0.00030038031832678013 0.0025410146334522432 0.0055022080334153397 0.00076910096322522093 -0.0017743675289340955 -0.0023868237311641376 0.0053726179489945345 0.00083165383554157681 -0.00073329623624055656 -0.0012060264656161871 -0.0019926988097446591 -0.0010917257172911683 0.00082572109457312512 0.0015096791505172546
leaf_weight=649 49 370 238 215 208 24 397 91 276 190 158 116 52 153 514 213 326 45 23 541 82 20 21 46 1537 144 332 99 553 318
leaf_count=649 49 370 238 215 208 24 397 91 276 190 158 116 52 153 514 213 326 45 23 541 82 20 21 46 1537 144 332 99 553 318
internal_value=0 0.000222248 -3.2349e-05 -0.000339375 -0.000136175 0.000551771 0.000911848 -0.00058152 0.000482824 -0.000550631 0.000917777 -0.000411954 -0.00116496 0.00175844 -0.00137647 -0.000375535 0.00110602 -0.000354718 0.00120687 -0.000148206 0.000426071 0.00130211 0.00109235 -0.00191074 -0.000598553 -0.00186902 -0.00160269 0.000686196 0.00100169 0.000817243
internal_weight=8000 5792 4225 2775 2394 1450 1567 2208 1044 358 1092 1861 936 523 864 304 602 442 934 1272 623 72 911 560 1653 168 381 673 574 533
internal_count=8000 5792 4225 2775 2394 1450 1567 2208 1044 358 1092 1861 936 523 864 304 602 442 934 1272 623 72 911 560 1653 168 381 673 574 533
is_linear=0
shrinkage=0.05


Tree=29
num_leaves=31
num_cat=0
split_feature=38 14 11 0 12 18 21 13 39 31 13 16 11 20 37 21 31 1 39 38 25 21 8 0 11 12 6 15 3 22
split_gain=0.411042 0.357592 0.299693 0.227335 0.208067 0.196316 0.209791 0.193922 0.194928 0.197494 0.183382 0.182924 0.179982 0.179514 0.199345 0.17962 0.165776 0.162576 0.160268 0.160513 0.17768 0.16014 0.15993 0.155044 0.15338 0.152778 0.152598 0.15555 0.156011 0.148897
threshold=0.33286829938491586 0.14109324568822754 -0.13117456491610924 -0.77598500987815722 0.69800504379060357 -0.099134444225773194 1.8569266389858294 0.18243713508556036 -1.176418989400652 -0.77116444319526622 -1.4474278530701801 0.21399850931335027 -0.75980372984726507 -0.7309360620054739 0.52981129790180093 0.98138142378338711 -1.2675263502599889 -1.0354199242701452 -2.1437307067362021 1.7737416905619241 -0.78728421522562053 0.67402314830175902 1.4018200632219104 0.94888295066560902 -1.166536487001725 -0.52476948535963786 -1.2507388115498432 -0.009604486194611515 0.57028156283680709 1.0230809688176772
decision_type=2 2 2 2 2 2 2 2 2 2 2 2 2 2 2 2 2 2 2 2 2 2 2 2 2 2 2 2 2 2
left_child=1 4 3 22 7 6 -4 8 9 -1 -3 -7 -9 16 15 -15 -12 -16 -5 20 21 -20 24 -19 -2 -22 -13 -28 -29 -14
right_child=2 10 5 18 -6 11 -8 12 -10 -11 13 26 29 14 17 -17 -18 23 19 -21 25 -23 -24 -25 -26 -27 27 28 -30 -31
leaf_value=0.0049956746603477282 0.00035384166696787777 -0.00079935979715129606 -0.00044578102339782634 0.0044686375472779653 0.00068176062231935989 -0.0020305055862915155 0.0046006009234247896 0.0015897758896326981 -0.00098712475434723206 6.0993922922249655e-05 0.0049193078254098242 0.0023042867023746329 0.00014601295531904761 0.0012966693924322393 0.0020734798908870421 -0.00036376886618873927 0.0014451524236906833 -0.00098835951822268358 0 -0.0014702765887719899 -0.00010023896262601809 -0.0034860408092954836 0.002896421782283986 0.0014366480881663503 -0.0023484956752385382 0.001409195294702561 0.00010237170366661615 -0.0030437215286633918 0 -0.001860666352622065
leaf_weight=25 70 174 697 24 646 517 21 187 1077 117 39 40 621 909 68 193 425 364 148 110 246 43 21 79 179 489 179 117 67 108
leaf_count=25 70 174 697 24 646 517 21 187 1077 117 39 40 621 909 68 193 425 364 148 110 246 43 21 79 179 489 179 117 67 108
internal_value=0 0.000275796 -0.00046611 8.80467e-05 -0.000101836 -0.000919096 -0.000290602 -0.000341296 -0.000755228 0.000967866 0.000744547 -0.00140408 0.000204124 0.000876327 0.000622119 0.00100132 0.00174893 -0.00018591 0.000421477 0.000322472 0.000540969 -0.00080365 -0.00120214 -0.000544398 -0.00156889 0.00089725 -0.000587735 -0.000920732 -0.00194271 -0.00014463
internal_weight=8000 5032 2968 1330 2781 1638 718 2135 1219 142 2251 920 916 2077 1613 1102 464 511 1060 1036 926 191 270 443 249 735 403 363 184 729
internal_count=8000 5032 2968 1330 2781 1638 718 2135 1219 142 2251 920 916 2077 1613 1102 464 511 1060 1036 926 191 270 443 249 735 403 363 184 729
is_linear=0
shrinkage=0.05


Tree=30
num_leaves=31
num_cat=0
split_feature=16 14 13 35 38 17 5 17 18 21 2 35 25 18 34 12 13 11 36 13 12 1 25 31 16 10 5 36 10 18
split_gain=0.388516 0.371614 0.368826 0.351551 0.287861 0.236415 0.221574 0.206624 0.202366 0.207849 0.203354 0.191669 0.214254 0.1869 0.184851 0.182865 0.180852 0.180318 0.242268 0.173416 0.171506 0.166854 0.160691 0.155312 0.15437 0.154288 0.152231 0.150481 0.172954 0.146375
threshold=0.75319487168698129 -0.55311143825948461 0.19201094072941208 0.11889121202733455 0.33286829938491586 -0.72853202038170439 2.0844749588627396 1.1356898090097476 0.18980023634834398 -0.086533716384195686 0.29032610986739221 1.5435488027737265 1.0753311727918857 1.3289736530485703 0.14015516637307823 0.6712518909726557 1.0472713305325521 -0.78777611247088353 0.72201152658199075 -0.25572302042108447 -0.2850664562367477 -0.94499306517293358 0.43317327417565293 -1.1385889877583166 0.0084157117918364933 -0.10386270926999656 0.46521937182648582 -1.3528880323958707 -0.84019336699205749 -1.848068886650936
decision_type=2 2 2 2 2 2 2 2 2 2 2 2 2 2 2 2 2 2 2 2 2 2 2 2 2 2 2 2 2 2
left_child=1 6 3 15 7 -2 8 29 9 10 -1 12 20 17 26 22 25 -5 23 24 21 -7 -3 -19 -11 -6 -10 -16 -29 -4
right_child=5 2 4 13 16 11 -8 -9 14 19 -12 -13 -14 -15 27 -17 -18 18 -20 -21 -22 -23 -24 -25 -26 -27 -28 28 -30 -31
leaf_value=-0.0004744973838489505 0.0016338893831757768 -0.0016482155656822345 0.0046637129093438741 0.0017704823802565384 0.00012148892138545475 0.0013577546630285252 0.0029459309837538894 -0.00064053860624315459 -0.0027468583852337217 -0.0031868323685256073 0.0016556393717103127 0.0025977552521478445 0.0017916903383965307 -0.0016528920189940177 0.0031661156043255724 8.0478481930463158e-05 0.00085733231934924262 0.0017861968309263176 0.0017867040244613193 -0.00034451464054682346 0.00041920744756939431 -0.0012488887875149396 -0.00026777252714043845 -0.00058497994808740623 -0.00020871801329129712 -0.0017068222589487166 -0.00049637362685622463 0.0014104133599322295 -0.0015138579850371922 0.0012205919920401668
leaf_weight=281 453 695 33 225 221 71 38 148 318 138 184 86 173 109 24 358 256 78 180 325 655 391 316 560 69 231 106 62 244 972
leaf_count=281 453 695 33 225 221 71 38 148 318 138 184 86 173 109 24 358 256 78 180 325 655 391 316 560 69 231 106 62 244 972
internal_value=3.27537e-08 -0.000189039 5.78186e-05 -0.000335034 0.000592671 0.000640666 -0.00079646 0.0010806 -0.000880696 -0.000406282 0.00035782 0.000309954 0.000153368 0.000305395 -0.00150124 -0.000877582 -0.00019492 0.00051498 0.000163354 -0.00108349 -9.60355e-05 -0.000837273 -0.00122176 -0.000287017 -0.00221885 -0.000802003 -0.00219628 -0.000592677 -0.000904757 0.00133908
internal_weight=8000 6171 4382 2521 1861 1829 1789 1153 1751 997 465 1376 1290 1152 754 1369 708 1043 818 532 1117 462 1011 638 207 452 424 330 306 1005
internal_count=8000 6171 4382 2521 1861 1829 1789 1153 1751 997 465 1376 1290 1152 754 1369 708 1043 818 532 1117 462 1011 638 207 452 424 330 306 1005
is_linear=0
shrinkage=0.05


Tree=31
num_leaves=31
num_cat=0
split_feature=5 12 35 10 1 14 17 34 14 13 38 25 3 38 25 39 5 33 34 28 34 13 16 13 1 18 6 13 11 39
split_gain=0.377746 0.396962 0.314692 0.263782 0.246913 0.219573 0.251427 0.210375 0.202646 0.208003 0.198703 0.266816 0.197382 0.191715 0.196946 0.20565 0.183599 0.179394 0.168845 0.162963 0.189354 0.156991 0.156955 0.147114 0.159859 0.159285 0.144004 0.176618 0.214657 0.195274
threshold=-1.3907604457293603 -0.3506125102225805 -0.16669268202578838 0.33926236583693664 -1.120277127513071 0.53553892046240781 -1.1946896883581049 -1.1687235107531604 -1.4190870566088047 -0.85801806742559916 -0.20073632951659279 -0.89472080648344054 1.0462828958549504 0.40828255559887744 -1.4205719732737128 1.4621388484421287 -0.96359692765723781 -0.62061787086949216 0.84552433728269516 0.069268867659555533 -0.91142733563755429 0.21460659043022662 -1.0550597227598093 -0.42078285400182969 0.29265138012042313 -0.5649359226605809 -1.4167098174612631 1.0091836214106129 -0.30992896746824822 1.82980388493497
decision_type=2 2 2 2 2 2 2 2 2 2 2 2 2 2 2 2 2 2 2 2 2 2 2 2 2 2 2 2 2 2
left_child=-1 5 8 7 -5 6 19 12 -3 16 -9 -12 21 14 -11 -16 -10 -15 23 20 -2 -4 -13 24 -7 -25 -8 28 29 -28
right_child=1 2 3 4 -6 18 26 10 9 13 11 22 -14 17 15 -17 -18 -19 -20 -21 -22 -23 -24 25 -26 -27 27 -29 -30 -31
leaf_value=-0.0011643026800320306 -0.0019837117290368717 -0.0018347685304616356 -0.0010003345805456338 0.0021761337466529112 -0.00024330326798808295 -0.00015599196177557017 0.00074837272561088363 0.0020686842401620386 -0.0040409804440088692 -0.0018008554804134797 -0.00077389634556679051 -0.0006959907720761599 -0.0043962758555437407 -0.0020599620303745421 0.0011759672878148574 -0.0016199729993315642 -0.00056776500645731431 9.6493534177736278e-05 0.0016656660100713599 -0.0005462678355222083 0.0029954730267002898 0.0018658421310046901 0.0015921237752592331 0.0019768273518709703 -0.0031122967448859186 -0.00014562207935020374 -0.00020826673669814747 0.00015349042560297343 -0.0017341345301854789 -0.0051402133081761585
leaf_weight=640 22 153 109 121 809 147 125 575 44 69 192 82 26 130 817 70 328 358 181 104 105 84 617 125 69 289 497 272 819 21
leaf_count=640 22 153 109 121 809 147 125 575 44 69 192 82 26 130 817 70 328 358 181 104 105 84 617 125 69 289 497 272 819 21
internal_value=1.01451e-07 0.000102048 0.000388331 0.000748004 6.63081e-05 -0.000368887 -0.000655393 0.00112126 -8.68199e-05 5.77865e-05 0.00133783 0.00086039 -0.000305623 0.000331997 0.000745616 0.000949524 -0.000992988 -0.000468033 0.000319132 0.000883244 0.00209272 0.000221547 0.00131649 -5.99974e-05 -0.00112451 0.000483462 -0.00086329 -0.000991643 -0.00122834 -0.000418815
internal_weight=8000 7360 4584 2615 930 2776 1965 1685 1969 1816 1466 891 219 1444 956 887 372 488 811 231 127 193 699 630 216 414 1734 1609 1337 518
internal_count=8000 7360 4584 2615 930 2776 1965 1685 1969 1816 1466 891 219 1444 956 887 372 488 811 231 127 193 699 630 216 414 1734 1609 1337 518
is_linear=0
shrinkage=0.05


Tree=32
num_leaves=31
num_cat=0
split_feature=0 10 12 16 17 34 28 18 25 35 8 20 34 38 34 16 14 1 25 3 18 12 9 30 15 27 25 35 35 10
split_gain=0.362926 0.305797 0.278035 0.263386 0.216558 0.210976 0.235708 0.221795 0.210366 0.212264 0.232031 0.176514 0.17632 0.172607 0.166779 0.149026 0.147401 0.145533 0.138893 0.18166 0.153739 0.161896 0.166931 0.143367 0.156562 0.137009 0.130282 0.129099 0.127141 0.125247
threshold=-0.10061325996674285 -0.41501294038058062 1.306823415832866 -0.16961448831700096 0.20771397742709347 0.60556877171619672 1.6870660221333149 -0.90889001013911486 0.66206339721033647 -1.0719335833820736 0.28353271320604717 0.88778321723487141 -1.1924010197768482 -0.55674584749662914 -0.054421222580893318 0.67611713955171771 -0.61789216157595173 0.1781083834738075 -0.40534014879159258 -0.86246222076366308 0.16521718221353446 -0.59473157317496506 -0.77196501065467815 1.0000000180025095e-35 -0.32737197525851586 0.53424465914920904 -0.81239773571208784 1.6249552090526114 -0.57480229150129891 -1.3478789313683011
decision_type=2 2 2 2 2 2 2 2 2 2 2 2 2 2 2 2 2 2 2 2 2 2 2 2 2 2 2 2 2 2
left_child=1 5 3 11 12 6 7 -1 9 10 -5 18 25 -11 -15 26 28 -4 -2 -20 23 -22 -23 24 -21 -3 -6 29 -14 -9
right_child=2 4 17 8 15 -7 -8 27 -10 13 -12 -13 16 14 -16 -17 -18 -19 19 20 21 22 -24 -25 -26 -27 -28 -29 -30 -31
