tree
version=v4
num_class=1
num_tree_per_iteration=1
label_index=0
max_feature_idx=39
objective=regression
feature_names=Column_0 Column_1 Column_2 Column_3 Column_4 Column_5 Column_6 Column_7 Column_8 Column_9 Column_10 Column_11 Column_12 Column_13 Column_14 Column_15 Column_16 Column_17 Column_18 Column_19 Column_20 Column_21 Column_22 Column_23 Column_24 Column_25 Column_26 Column_27 Column_28 Column_29 Column_30 Column_31 Column_32 Column_33 Column_34 Column_35 Column_36 Column_37 Column_38 Column_39
feature_infos=[-7.3296593254597449:1038.2207048112584] [0:118384.37954712943] [0:89.30157764968321] [0:118151.10074665053] [93328.300000000003:118882.8] [0:501.55828310848199] [0:118341.85232480988] [-0.0073856946934968302:0.0073467109945237908] [0:118078.89999999999] [0:118788.2] [0:117767.78350000008] [0:118406.47631712795] [-0.0838623046875:0.72802734375] [0:118882.8] [0:0.53350337157092032] [0:0.0053350337157092032] [-0.38720703125:0.211669921875] [-0.30322265625:0.8369140625] [0:0.00024618237261052865] [0:3322722.2776778536] [0:0.00024587838789456276] [-67.382937186240909:79.20758105602421] [0:3.2705089399713246e-06] [-0.374755859375:0.369384765625] [-0.174560546875:0.55078125] [0:5943850.7718490129] [-0.59033203125:0.1597900390625] [0:14555510.317420306] [-1.525390625:0.84326171875] [0:117921.40000000002] [93412:118788.2] [-0.67431640625:0.7412109375] [-2218.6000000000058:2975.5999999999913] [0:1.1885205235341231e-05] [0:3.2725438253228085e-06] [-1.06640625:-0.55712890625] [0:1.8395306033519793e-06] [-0.9052734375:1.3486328125] [-0.84716796875:1.6025390625] [-0.287353515625:0.44580078125]
tree_sizes=3132 2623 2586 2626 2560 2558 2633 2581 2605 2611 2554 2597 2570 2581 2551 2574 2589 2615 2525 2612 2518 2584 2604 2568 2544 2603 2606 2538 2552 2526 2574 2561 2567 2566 2536 2574 2529 2574 2575 2547 2559 2578 2594 2585 2538 2570 2554 2553 2579 2568 2555 2591 2536 2566 2558 2563

Tree=0
num_leaves=31
num_cat=0
split_feature=17 6 18 23 7 12 34 38 7 14 16 38 4 2 24 25 16 3 22 14 24 14 14 37 19 22 34 39 29 2
split_gain=2.68518e-05 1.15207e-05 9.45914e-06 1.29067e-05 9.31082e-06 6.96333e-06 6.47592e-06 5.97533e-06 5.12274e-06 3.5179e-06 3.7149e-06 3.35179e-06 8.11825e-06 3.73857e-06 3.10556e-06 2.72554e-06 2.02538e-06 2.00349e-06 1.99346e-06 3.73272e-06 1.96836e-06 1.87724e-06 1.87334e-06 1.6871e-06 1.50059e-06 2.72693e-06 2.38258e-06 1.4846e-06 1.35077e-06 3.65508e-06
threshold=0.47790527343750006 106185.87808483282 6.5659380538308309e-06 0.0068569183349609384 -0.00083198635415623293 0.67993164062500011 1.646869245151727e-08 0.49743652343750006 -0.00086259922158787839 0.36051035738019538 0.0036029815673828129 0.059951782226562507 97422.595005299736 73.363184391589428 0.28381347656250006 332731.48163820256 1.0000000180025095e-35 106182.48517837822 2.0887756229363677e-08 0.09531352887565453 0.32751464843750006 0.10892152088363187 0.066683324078197062 0.44873046875000006 135905.51959367192 1.9602058698770293e-08 9.7084664218248823e-09 0.22650146484375003 104703.76349999993 47.552713293333674
decision_type=2 2 2 2 2 2 2 2 2 2 2 2 2 2 2 2 2 2 2 2 2 2 2 2 2 2 2 2 2 2
left_child=4 2 -2 6 5 21 -4 24 -9 10 17 12 -6 20 15 16 22 18 -8 -20 -14 -1 -10 -22 25 -3 -27 -28 29 -13
right_child=1 7 3 -5 11 -7 9 8 14 -11 -12 28 13 -15 -16 -17 -18 -19 19 -21 23 -23 -24 -25 -26 26 27 -29 -30 -31
leaf_value=1.1119287236312572e-05 1.1119287236312572e-05 1.1119287236312572e-05 1.1119287236312572e-05 1.1119287236312572e-05 1.1119287236312572e-05 1.1119287236312572e-05 1.1119287236312572e-05 1.1119287236312572e-05 1.1119287236312572e-05 1.1119287236312572e-05 1.1119287236312572e-05 1.1119287236312572e-05 1.1119287236312572e-05 1.1119287236312572e-05 1.1119287236312572e-05 1.1119287236312572e-05 1.1119287236312572e-05 1.1119287236312572e-05 1.1119287236312572e-05 -4.3438457806389003e-06 1.1119287236312572e-05 2.0178373444587905e-05 7.4286012600801262e-06 1.5593194718391071e-05 1.1119287236312572e-05 1.1119287236312572e-05 1.1119287236312572e-05 1.6274732503990786e-05 1.1596010060460954e-05 8.568535292380139e-06
leaf_weight=197 830 1089 91 241 1613 72 94 1057 334 33 41 695 204 105 256 74 480 36 76 720 27 907 3735 2538 71 83 46 827 2558 1834
leaf_count=197 830 1089 91 241 1613 72 94 1057 334 33 41 695 204 105 256 74 480 36 76 720 27 907 3735 2538 71 83 46 827 2558 1834
internal_value=1.11193e-05 9.28349e-06 5.73539e-06 3.06948e-06 1.28635e-05 1.77904e-05 6.94084e-07 1.08572e-05 9.59761e-06 -4.89432e-07 -1.06491e-06 1.17361e-05 1.27561e-05 1.44725e-05 8.78649e-06 8.39483e-06 8.11242e-06 -1.7281e-06 -2.1983e-06 -3.18316e-06 1.49982e-05 1.90675e-05 7.74999e-06 1.53808e-05 1.20277e-05 1.27589e-05 1.47083e-05 1.56939e-05 1.11193e-05 1.00679e-05
internal_weight=20964 10214 2162 1332 10750 1176 1091 8052 5936 1000 967 9574 4487 2874 4879 4623 4549 926 890 796 2769 1104 4069 2565 2116 2045 956 873 5087 2529
internal_count=20964 10214 2162 1332 10750 1176 1091 8052 5936 1000 967 9574 4487 2874 4879 4623 4549 926 890 796 2769 1104 4069 2565 2116 2045 956 873 5087 2529
is_linear=0
shrinkage=1


Tree=1
num_leaves=31
num_cat=0
split_feature=28 6 22 7 26 2 38 31 27 7 12 33 7 27 27 0 14 22 12 23 28 14 33 5 39 22 0 27 39 28
split_gain=2.23244e-05 8.13524e-06 1.00402e-05 6.71323e-06 6.46643e-06 5.57891e-06 5.50526e-06 5.15419e-06 4.72935e-06 4.55323e-06 4.54849e-06 3.69871e-06 6.07088e-06 2.95607e-06 2.76552e-06 2.85773e-06 2.59107e-06 3.24878e-06 2.45997e-06 1.96416e-06 1.90596e-06 1.7656e-06 1.66232e-06 3.18911e-06 2.17909e-06 1.85563e-06 2.11788e-06 1.49174e-06 1.42122e-06 1.43755e-06
threshold=-0.35021972656249994 106185.87808483282 1.9602058698770293e-08 -0.00083198635415623293 -0.36511230468749994 32.011394891476435 0.49743652343750006 -0.24383544921874997 27362.921358983149 -0.00086259922158787839 0.67993164062500011 6.5643171268171851e-07 0.0021098559090842344 58413.632619820783 246786.22548562949 -1.9681429240860904 0.098786924279595442 2.7579512715959813e-08 0.52416992187500011 -0.075531005859374986 -0.35388183593749994 0.066683324078197062 1.2874885251467384e-06 104.81271013981362 0.21002197265625003 2.0585736342779518e-08 -1.6176247556591856 17882.248892186781 0.24713134765625003 0.68041992187500011
decision_type=2 2 2 2 2 2 2 2 2 2 2 2 2 2 2 2 2 2 2 2 2 2 2 2 2 2 2 2 2 2
left_child=1 2 -1 4 -2 -4 22 -7 -9 -8 13 19 28 -6 15 -11 -10 -18 21 -5 -19 -17 23 -3 -25 -26 -27 -28 29 -13
right_child=3 6 5 11 10 7 9 8 16 14 -12 12 -14 -15 -16 18 17 20 -20 -21 -22 -23 -24 24 25 26 27 -29 -30 -31
leaf_value=0 0 0 0 1.62852347953014e-06 0 0 0 0 0 0 0 4.853252994668044e-06 0 1.095787783090211e-05 0 0 0 -1.2774045031457103e-05 0 -3.6200599388567456e-07 0 -3.5433951764341668e-06 0 0 0 0 0 7.280214467977611e-06 0 0
leaf_weight=984 192 1389 152 1571 243 22 1055 300 236 277 39 1471 308 646 213 340 115 798 199 5675 21 3778 23 28 101 41 28 635 41 43
leaf_count=984 192 1389 152 1571 243 22 1055 300 236 277 39 1471 308 646 213 340 115 798 199 5675 21 3778 23 28 101 41 28 635 41 43
internal_value=0 -1.58184e-06 -4.23384e-06 1.68229e-06 6.17087e-06 -6.62728e-06 -1.05375e-07 -7.59885e-06 -8.20802e-06 -1.39644e-06 7.9609e-06 5.81434e-07 2.57216e-06 8.88512e-06 -2.17853e-06 -2.54381e-06 -9.73394e-06 -1.12082e-05 -2.92251e-06 0 -1.23764e-05 -3.23221e-06 1.03861e-06 1.72049e-06 4.17916e-06 4.9839e-06 5.91532e-06 6.71858e-06 4.20547e-06 4.52897e-06
internal_weight=20964 10735 2628 10229 1120 1644 8107 1492 1470 5862 928 9109 1863 889 4807 4594 1170 934 4317 7246 819 4118 2245 2222 833 805 704 663 1555 1514
internal_count=20964 10735 2628 10229 1120 1644 8107 1492 1470 5862 928 9109 1863 889 4807 4594 1170 934 4317 7246 819 4118 2245 2222 833 805 704 663 1555 1514
is_linear=0
shrinkage=0.05


Tree=2
num_leaves=31
num_cat=0
split_feature=17 6 18 23 15 2 27 37 5 16 22 32 27 12 15 15 16 24 35 34 28 12 3 39 34 2 1 12 23 12
split_gain=2.22002e-05 9.96696e-06 7.52557e-06 1.14448e-05 6.86266e-06 1.69045e-05 6.12199e-06 4.24988e-06 3.83643e-06 3.78458e-06 3.62816e-06 3.24904e-06 3.04211e-06 2.92437e-06 2.69094e-06 2.3705e-06 2.04623e-06 1.89743e-06 6.02984e-06 3.1633e-06 3.98968e-06 4.45167e-06 1.18122e-06 1.04915e-06 1.04362e-06 9.93422e-07 7.6013e-07 1.60917e-06 2.94312e-06 3.39151e-06
threshold=0.47790527343750006 106185.87808483282 6.5659380538308309e-06 0.0068569183349609384 0.0013223799534438287 47.344623660429853 27362.921358983149 0.0061912536621093759 253.33067647557121 0.0036029815673828129 2.0299165076230953e-07 252.50000000000003 125026.13834871615 0.64916992187500011 0.00096867470998237854 0.00069029001740339977 -0.13446044921874997 0.32751464843750006 -0.97973632812499989 3.028538138397492e-08 0.71557617187500011 0.61840820312500011 106182.48517837822 0.42785644531250006 1.0000974115906688e-08 29.376261800313628 106984.18443217428 0.37878417968750006 1.0000000180025095e-35 0.51684570312500011
decision_type=2 2 2 2 2 2 2 2 2 2 2 2 2 2 2 2 2 2 2 2 2 2 2 2 2 2 2 2 2 2
left_child=4 2 -2 6 -1 11 -4 8 12 10 14 13 15 -6 -8 -3 -16 26 -19 -20 21 -21 -18 24 -17 -26 27 -7 -29 -30
right_child=1 7 3 -5 5 17 9 -9 -10 -11 -12 -13 -14 -15 16 23 22 18 19 20 -22 -23 -24 -25 25 -27 -28 28 29 -31
leaf_value=0 0 0 0 0 9.9275107605062041e-06 0 0 1.0866359093893972e-07 0 0 0 0 0 0 0 0 -1.4167366037180551e-05 0 0 9.0129940092300979e-06 0 0 0 0 0 -4.0785976355003214e-06 0 0 -4.8368521088905295e-06 0
leaf_weight=5972 830 399 137 241 1041 382 89 3983 224 40 30 60 702 126 21 96 740 757 42 601 75 53 34 108 40 2500 371 240 930 100
leaf_count=5972 830 399 137 241 1041 382 89 3983 224 40 30 60 702 126 21 96 740 757 42 601 75 53 34 108 40 2500 371 240 930 100
internal_value=0 -1.64815e-06 -4.92719e-06 -7.31623e-06 1.6068e-06 3.06585e-06 -9.5694e-06 -1.4671e-07 -1.62545e-06 -1.09893e-05 -1.1679e-05 8.42849e-06 -2.30008e-06 9.03611e-06 -1.22999e-05 -2.98189e-06 -1.32922e-05 0 1.76188e-06 5.06963e-06 6.16671e-06 7.59193e-06 -1.37144e-05 -3.51342e-06 -3.72087e-06 -3.92368e-06 0 -1.0725e-06 -2.15954e-06 -3.59068e-06
internal_weight=20964 10214 2162 1332 10750 4778 1091 8052 4069 954 914 1227 3845 1167 884 3143 795 3551 1528 771 729 654 774 2744 2636 2540 2023 1652 1270 1030
internal_count=20964 10214 2162 1332 10750 4778 1091 8052 4069 954 914 1227 3845 1167 884 3143 795 3551 1528 771 729 654 774 2744 2636 2540 2023 1652 1270 1030
is_linear=0
shrinkage=0.05


Tree=3
num_leaves=31
num_cat=0
split_feature=17 6 7 36 26 16 18 34 5 37 5 33 7 21 27 31 26 39 14 23 21 14 14 39 34 28 36 16 23 21
split_gain=2.0194e-05 9.20081e-06 6.70117e-06 6.6214e-06 7.97751e-06 5.59138e-06 8.02025e-06 6.24431e-06 4.47461e-06 3.6561e-06 3.56276e-06 3.36028e-06 5.4345e-06 4.66708e-06 2.77007e-06 2.62381e-06 2.92596e-06 2.3767e-06 2.15851e-06 2.10425e-06 1.34141e-06 1.2636e-06 1.11227e-06 9.66095e-07 9.62394e-07 9.22159e-07 9.40098e-07 9.5035e-07 8.79052e-07 8.03588e-07
threshold=0.47790527343750006 106185.87808483282 -0.00086259922158787839 9.2963866542578884e-09 -0.28820800781249994 0.0036029815673828129 6.8229773679229664e-06 1.646869245151727e-08 348.30260545946425 0.0061912536621093759 253.33067647557121 5.8891153855226359e-07 0.0019839906096089442 -5.5354713505054978 125026.13834871615 0.63500976562500011 -0.36511230468749994 0.24713134765625003 0.069029001740339976 0.28234863281250006 34.857260225679902 0.10277410723453358 0.09531352887565453 0.42785644531250006 1.0000974115906688e-08 0.71557617187500011 1.720779852103171e-08 0.13482666015625003 -0.075531005859374986 -36.981859676322664
decision_type=2 2 2 2 2 2 2 2 2 2 2 2 2 2 2 2 2 2 2 2 2 2 2 2 2 2 2 2 2 2
left_child=2 3 15 -2 5 6 -5 -8 22 10 14 28 13 -13 18 16 -1 19 -3 20 25 -18 -9 24 -20 26 -15 -28 -4 -26
right_child=1 9 11 4 -6 -7 7 8 -10 -11 -12 12 -14 17 -16 -17 21 -19 23 -21 -22 -23 -24 -25 29 -27 27 -29 -30 -31
leaf_value=0 0 0 8.8716919929655526e-07 0 0 0 0 0 0 1.0323066713475809e-07 0 0 0 0 0 0 0 0 0 0 0 9.2552985201229331e-06 -1.3252943574288134e-05 0 0 0 6.6607539928783442e-06 0 -3.1931082004789042e-07 -3.8760845561920176e-06
leaf_weight=290 436 399 2099 486 103 111 75 84 27 3983 224 298 364 57 702 44 88 33 96 40 30 666 840 108 63 22 1306 63 5350 2477
leaf_count=290 436 399 2099 486 103 111 75 84 27 3983 224 298 364 57 702 44 88 33 96 40 30 666 840 108 63 22 1306 63 5350 2477
internal_value=0 -1.54904e-06 1.55446e-06 -4.68475e-06 -6.08938e-06 -7.19174e-06 -8.0475e-06 -1.07227e-05 -1.18514e-05 -8.60814e-08 -1.50016e-06 5.29004e-07 2.24001e-06 3.65416e-06 -2.16749e-06 6.06501e-06 6.67959e-06 4.84154e-06 -2.81968e-06 5.27863e-06 5.67248e-06 8.4543e-06 -1.25166e-05 -3.32763e-06 -3.52747e-06 5.92954e-06 6.10888e-06 6.37093e-06 0 -3.72297e-06
internal_weight=20964 10214 10750 2162 1726 1623 1512 1026 951 8052 4069 9662 2213 1849 3845 1088 1044 1551 3143 1518 1478 754 924 2744 2636 1448 1426 1369 7449 2540
internal_count=20964 10214 10750 2162 1726 1623 1512 1026 951 8052 4069 9662 2213 1849 3845 1088 1044 1551 3143 1518 1478 754 924 2744 2636 1448 1426 1369 7449 2540
is_linear=0
shrinkage=0.05


Tree=4
num_leaves=31
num_cat=0
split_feature=39 11 23 22 25 36 37 0 5 21 31 37 2 5 2 24 12 27 39 23 12 2 16 39 39 31 37 12 21 4
split_gain=1.46762e-05 4.45338e-06 4.80087e-06 5.33687e-06 4.19205e-06 4.10762e-06 3.9403e-06 3.73875e-06 4.04272e-06 3.44971e-06 3.67727e-06 4.68831e-06 2.89318e-06 2.83918e-06 2.90974e-06 2.63202e-06 2.5335e-06 2.67689e-06 2.44855e-06 2.38645e-06 1.92281e-06 3.05897e-06 1.42177e-06 1.26475e-06 1.22448e-06 2.66944e-06 1.9206e-06 2.27626e-06 1.11962e-06 8.97492e-07
threshold=0.19390869140625003 106452.0655423704 0.060760498046875007 2.7273906783416074e-08 39109.15368097039 1.4501936497718116e-08 0.15020751953125003 3.2215720318896062 97.20859221123429 -38.412269263644149 -0.24383544921874997 0.41931152343750006 43.817154384349131 116.59870055364227 59.901386842573494 0.28381347656250006 0.67993164062500011 22410.011081194807 0.21331787109375003 0.24621582031250003 0.43444824218750006 49.651636679048316 1.0000000180025095e-35 0.29064941406250006 0.18438720703125003 0.14996337890625003 0.51782226562500011 0.66821289062500011 -14.832177761731531 113454.85000000002
decision_type=2 2 2 2 2 2 2 2 2 2 2 2 2 2 2 2 2 2 2 2 2 2 2 2 2 2 2 2 2 2
left_child=4 2 3 -2 -1 -5 12 8 -6 -7 -11 13 -3 -12 -15 22 17 -10 -8 24 -20 -22 28 -23 25 -19 -27 -28 -14 -30
right_child=1 6 -4 5 7 9 18 -9 16 10 11 -13 15 14 -16 -17 -18 19 20 -21 21 23 -24 -25 -26 26 27 -29 29 -31
leaf_value=0 0 0 0 0 0 0 0 0 0 0 0 0 0 -9.9462667371307547e-06 0 0 0 0 0 0 0 6.0124931197566026e-06 0 0 0 0 6.6640456812848445e-06 0 -3.0517462009821578e-06 0
leaf_weight=2302 1623 1753 550 350 647 80 224 172 126 43 326 520 233 1043 37 1096 104 1263 360 340 238 755 300 77 451 417 2101 77 2867 489
leaf_count=2302 1623 1753 550 350 647 80 224 172 126 43 326 520 233 1043 37 1096 104 1263 360 340 238 755 300 77 451 417 2101 77 2867 489
internal_value=0 -9.83297e-07 -2.27522e-06 -2.97801e-06 1.73766e-06 -4.5199e-06 0 2.46547e-06 2.82119e-06 -5.37871e-06 -5.87245e-06 -6.32681e-06 -7.98063e-07 -7.94779e-06 -9.42361e-06 -1.52046e-06 3.32957e-06 3.55723e-06 1.83327e-06 3.79951e-06 2.85791e-06 3.92525e-06 -2.15759e-06 5.38563e-06 4.11824e-06 4.44251e-06 5.64913e-06 6.34247e-06 -2.45655e-06 -2.69956e-06
internal_weight=20964 12964 4572 4022 8000 2399 8392 5698 5526 2049 1969 1926 6738 1406 1080 4985 4879 4775 1654 4649 1430 1070 3889 832 4309 3858 2595 2178 3589 3356
internal_count=20964 12964 4572 4022 8000 2399 8392 5698 5526 2049 1969 1926 6738 1406 1080 4985 4879 4775 1654 4649 1430 1070 3889 832 4309 3858 2595 2178 3589 3356
is_linear=0
shrinkage=0.05


Tree=5
num_leaves=31
num_cat=0
split_feature=17 6 2 36 26 15 2 18 16 34 0 32 38 2 38 32 33 15 38 15 35 38 16 2 16 2 28 16 33 34
split_gain=1.66587e-05 7.90481e-06 5.92138e-06 6.85485e-06 6.99984e-06 5.75323e-06 1.52061e-05 4.84544e-06 5.35906e-06 6.42886e-06 4.33177e-06 3.01271e-06 2.97243e-06 3.24089e-06 2.90733e-06 2.47699e-06 2.25252e-06 1.53407e-06 1.44707e-06 1.62177e-06 1.402e-06 1.28798e-06 1.95051e-06 2.44719e-06 2.67864e-06 3.36927e-06 3.07218e-06 1.283e-06 1.23852e-06 1.92995e-06
threshold=0.47790527343750006 106185.87808483282 32.011394891476435 9.2963866542578884e-09 -0.28820800781249994 0.0013223799534438287 47.344623660429853 6.8229773679229664e-06 0.0036029815673828129 1.646869245151727e-08 -3.1429633129294436 252.50000000000003 0.49743652343750006 43.817154384349131 -0.56274414062499989 -237.45000000000434 2.2168405456103585e-06 0.000642537452559798 0.16180419921875003 0.00095313528875654529 -1.0024414062499998 -0.046646118164062493 -0.027900695800781247 51.017701929613771 0.10250854492187501 74.90562810378951 0.73852539062500011 0.014053344726562502 1.2874885251467384e-06 1.0000974115906688e-08
decision_type=2 2 2 2 2 2 2 2 2 2 2 2 2 2 2 2 2 2 2 2 2 2 2 2 2 2 2 2 2 2
left_child=5 2 -2 -4 7 -1 11 -5 9 -9 -11 14 28 -14 -7 -15 17 -17 -12 -20 -19 22 -8 -24 25 26 -25 -22 29 -3
right_child=1 12 3 4 -6 6 21 8 -10 10 18 -13 13 15 -16 16 -18 20 19 -21 27 -23 23 24 -26 -27 -28 -29 -30 -31
leaf_value=0 0 0 0 0 0 0 0 0 0 0 0 0 0 0 9.1837137614460163e-06 0 0 0 0 -1.4844040764455954e-05 -3.272327699395839e-06 0 0 8.2028492135282387e-06 0 0 0 0 0 2.5812925518317638e-06
leaf_weight=5972 195 782 408 468 99 110 243 65 107 37 25 60 1626 260 1057 259 40 46 82 676 3463 2568 91 550 37 23 39 242 22 1312
leaf_count=5972 195 782 408 468 99 110 243 65 107 37 25 60 1626 260 1057 259 40 46 82 676 3463 2568 91 550 37 23 39 242 22 1312
internal_value=0 -1.38837e-06 -4.27158e-06 -5.25173e-06 -6.76683e-06 1.4292e-06 2.75786e-06 -7.80256e-06 -1.009e-05 -1.1369e-05 -1.26133e-05 7.78429e-06 0 -1.05521e-06 8.37638e-06 -1.84752e-06 -2.27188e-06 -2.57239e-06 -1.34328e-05 -1.38262e-05 -2.84544e-06 0 1.80978e-06 3.30747e-06 4.67957e-06 5.84486e-06 7.05653e-06 -3.02374e-06 6.23046e-07 1.36779e-06
internal_weight=20964 10214 2162 1967 1559 10750 4778 1460 992 885 820 1227 8052 5936 1167 4310 4050 4010 783 758 3751 3551 983 740 649 612 589 3705 2116 2094
internal_count=20964 10214 2162 1967 1559 10750 4778 1460 992 885 820 1227 8052 5936 1167 4310 4050 4010 783 758 3751 3551 983 740 649 612 589 3705 2116 2094
is_linear=0
shrinkage=0.05


Tree=6
num_leaves=31
num_cat=0
split_feature=17 11 7 12 12 36 34 16 27 23 33 7 21 38 7 24 27 39 23 23 16 15 32 27 19 23 21 19 33 34
split_gain=1.48977e-05 7.2355e-06 5.91628e-06 5.41951e-06 5.38379e-06 6.82406e-06 4.52968e-06 5.4508e-06 3.38743e-06 2.7312e-06 2.69927e-06 4.85655e-06 4.09864e-06 2.27485e-06 3.58071e-06 2.25142e-06 2.59538e-06 2.15534e-06 1.9684e-06 1.9059e-06 1.68956e-06 1.41379e-06 1.40322e-06 1.38774e-06 1.37363e-06 1.24281e-06 1.23207e-06 1.22465e-06 1.18519e-06 1.89072e-06
threshold=0.47790527343750006 106452.0655423704 -0.00083198635415623293 0.67993164062500011 0.28259277343750006 9.8051644329594369e-09 1.646869245151727e-08 0.0036029815673828129 27678.379431234953 -0.24212646484374997 5.8891153855226359e-07 0.0019839906096089442 -5.5354713505054978 0.49743652343750006 -0.00086259922158787839 0.28381347656250006 275958.10150968714 0.24713134765625003 0.021545410156250003 0.28234863281250006 0.014053344726562502 0.00066683324078197056 -374.34999999999849 24171.398081733067 14058.358994802227 -0.075531005859374986 34.857260225679902 557827.22800381307 1.2874885251467384e-06 1.0000974115906688e-08
decision_type=2 2 2 2 2 2 2 2 2 2 2 2 2 2 2 2 2 2 2 2 2 2 2 2 2 2 2 2 2 2
left_child=2 4 3 24 -2 -6 -7 8 -8 -10 25 12 -12 28 -15 16 20 19 -11 26 21 -16 -23 -24 -1 -4 27 -14 29 -3
right_child=1 13 10 -5 5 6 7 -9 9 18 11 -13 17 14 15 -17 -18 -19 -20 -21 -22 22 23 -25 -26 -27 -28 -29 -30 -31
leaf_value=0 0 0 9.0888702830779827e-07 0 0 0 0 0 0 -1.0649832201895897e-05 0 0 5.7193520607168702e-06 0 0 0 0 0 0 0 0 0 0 -3.5893304328997209e-06 6.89638635694589e-06 -5.1153956782403691e-07 0 0 0 2.5735769525636674e-06
leaf_weight=41 95 782 2086 72 491 294 223 181 33 979 285 364 1425 978 343 256 168 33 26 40 284 114 514 3168 1063 5288 30 23 22 1263
leaf_count=41 95 782 2086 72 491 294 223 181 33 979 285 364 1425 978 343 256 168 33 26 40 284 114 514 3168 1063 5288 30 23 22 1263
internal_value=0 -1.30036e-06 1.36306e-06 5.34328e-06 -3.90226e-06 -4.68195e-06 -6.16011e-06 -7.31681e-06 -8.48676e-06 -9.78034e-06 3.5187e-07 1.89895e-06 3.30658e-06 0 -9.27493e-07 -1.69725e-06 -2.06573e-06 4.42136e-06 -1.02756e-05 4.85003e-06 -2.42822e-06 -2.70579e-06 -2.98562e-06 -3.18475e-06 6.53328e-06 0 5.23287e-06 5.48427e-06 5.71912e-07 1.33395e-06
internal_weight=20964 10214 10750 1176 2322 2227 1736 1442 1261 1038 9574 2200 1836 7892 5825 4847 4591 1551 1005 1518 4423 4139 3796 3682 1104 7374 1478 1448 2067 2045
internal_count=20964 10214 10750 1176 2322 2227 1736 1442 1261 1038 9574 2200 1836 7892 5825 4847 4591 1551 1005 1518 4423 4139 3796 3682 1104 7374 1478 1448 2067 2045
is_linear=0
shrinkage=0.05


Tree=7
num_leaves=31
num_cat=0
split_feature=17 6 2 36 7 12 31 5 16 0 38 28 38 4 2 27 21 27 28 3 32 14 25 2 16 16 14 22 32 37
split_gain=1.31868e-05 6.62362e-06 5.39405e-06 5.78092e-06 5.11908e-06 5.03189e-06 4.88811e-06 3.43175e-06 4.31676e-06 4.43191e-06 3.5924e-06 2.4304e-06 2.17915e-06 6.26401e-06 3.12793e-06 3.13765e-06 2.02795e-06 3.26658e-06 2.02094e-06 1.89186e-06 2.40295e-06 2.2542e-06 3.12212e-06 1.7116e-06 1.59283e-06 1.06382e-06 1.13124e-06 1.87877e-06 1.15469e-06 9.8383e-07
threshold=0.47790527343750006 106185.87808483282 32.011394891476435 9.2963866542578884e-09 -0.00086259922158787839 0.67993164062500011 -0.24383544921874997 78.201893553026551 0.0045089721679687509 -3.1429633129294436 0.15093994140625003 -0.34069824218749994 0.059951782226562507 97422.595005299736 73.363184391589428 482138.91430499783 -9.4166858175554289 27992.98837880501 -0.66674804687499989 110726.86274371432 -407.15000000000867 0.10932911017221646 161445.90804542039 33.335046642802773 -0.14959716796874997 -0.036087036132812493 0.10892152088363187 1.4359056231078187e-07 -613.3000000000028 -0.088928222656249986
decision_type=2 2 2 2 2 2 2 2 2 2 2 2 2 2 2 2 2 2 2 2 2 2 2 2 2 2 2 2 2 2
left_child=4 2 -2 -4 5 -1 -5 -8 9 -9 -11 24 13 -6 15 16 -15 -18 19 20 -3 -22 23 -23 -12 26 -20 28 -28 -30
right_child=1 18 3 6 12 -7 7 8 -10 10 11 -13 -14 14 -16 -17 17 -19 25 -21 21 22 -24 -25 -26 -27 27 -29 29 -31
leaf_value=6.4409997529428025e-06 0 0 0 0 0 0 0 0 0 0 0 0 0 0 0 0 0 5.3422341589935162e-06 0 0 0 0 0 -5.5942782862932472e-06 -1.1112357242279002e-05 0 0 0 0 3.675971106218352e-06
leaf_weight=1020 195 124 408 28 1636 68 251 47 161 39 27 25 5145 244 105 22 720 1790 1152 973 1764 42 162 1069 981 1445 20 84 64 1153
leaf_count=1020 195 124 408 28 1636 68 251 47 161 39 27 25 5145 244 105 22 720 1790 1152 973 1764 42 162 1069 981 1445 20 84 64 1153
internal_value=0 -1.20957e-06 -3.81713e-06 -4.78228e-06 1.29482e-06 5.22806e-06 -6.17452e-06 -6.84129e-06 -7.91723e-06 -9.01908e-06 -9.75933e-06 -1.03698e-05 3.3438e-07 1.20217e-06 2.77512e-06 3.28777e-06 3.70728e-06 4.13518e-06 0 -1.09993e-06 -1.75455e-06 -2.27643e-06 -4.09745e-06 -5.12463e-06 -1.07809e-05 1.13731e-07 1.04685e-06 2.04749e-06 2.87639e-06 3.2835e-06
internal_weight=20964 10214 2162 1967 10750 1088 1559 1531 1280 1119 1072 1033 9662 4517 2881 2776 2754 2510 8052 4134 3161 3037 1273 1111 1008 3918 2473 1321 1237 1217
internal_count=20964 10214 2162 1967 10750 1088 1559 1531 1280 1119 1072 1033 9662 4517 2881 2776 2754 2510 8052 4134 3161 3037 1273 1111 1008 3918 2473 1321 1237 1217
is_linear=0
shrinkage=0.05


Tree=8
num_leaves=31
num_cat=0
split_feature=17 10 27 35 0 2 2 2 14 22 20 21 16 24 31 18 25 26 37 21 0 10 10 33 35 33 18 16 17 24
split_gain=1.17794e-05 5.77301e-06 6.28375e-06 7.10172e-06 7.35496e-06 1.00836e-05 9.02032e-06 4.77349e-06 9.32972e-06 4.65868e-06 4.00143e-06 4.64594e-06 3.43459e-06 3.20801e-06 2.83156e-06 1.90782e-06 1.83225e-06 1.82301e-06 1.54771e-06 1.33953e-06 1.17771e-06 1.1274e-06 1.43449e-06 1.05612e-06 9.70219e-07 7.58039e-07 6.2022e-07 6.14176e-07 6.84038e-07 5.72222e-07
threshold=0.47790527343750006 107616.52150000009 47268.316219577093 -0.87670898437499989 -3.1429633129294436 46.892492765121339 32.011394891476435 42.631819450977751 0.13223799534438288 2.4128312646493344e-08 2.8481649812792005e-05 37.525252889879205 0.0036029815673828129 0.15484619140625003 -0.27258300781249994 2.3949290363627077e-05 35740.185546718996 -0.39587402343749994 -0.012550354003906248 -16.410042599357066 3.5461353548139516 105792.1445000001 94317.839000000109 1.4013939547748386e-06 -0.90649414062499989 5.0902173362421445e-07 6.4308569727744658e-05 -0.036727905273437493 0.64282226562500011 0.12225341796875001
decision_type=2 2 2 2 2 2 2 2 2 2 2 2 2 2 2 2 2 2 2 2 2 2 2 2 2 2 2 2 2 2
left_child=7 2 -2 4 -4 6 -6 8 -1 -8 17 14 13 -11 -12 -16 -10 -9 29 -17 25 22 -19 -18 -24 -21 -27 28 -20 -3
right_child=1 18 3 -5 5 -7 9 10 16 12 11 -13 -14 -15 15 19 23 21 27 20 -22 -23 24 -25 -26 26 -28 -29 -30 -31
leaf_value=0 0 0 0 0 0 0 0 1.1369263216890867e-06 0 0 0 0 0 -1.6750530737150138e-05 0 0 1.2359449130735297e-05 0 1.7710004939827198e-06 0 0 0 -1.4513099573627846e-06 0 0 6.9152216916180557e-06 0 0 0 -1.2974012810206781e-06
leaf_weight=897 2326 1426 113 167 62 788 73 1864 41 25 56 55 94 555 21 32 380 229 1548 26 21 331 5212 56 545 912 72 625 220 2192
leaf_count=897 2326 1426 113 167 62 788 73 1864 41 25 56 55 94 555 21 32 380 229 1548 26 21 331 5212 56 545 912 72 625 220 2192
internal_value=0 -1.14768e-06 -2.57578e-06 -4.81923e-06 -5.98957e-06 -7.06585e-06 -1.13889e-05 1.21979e-06 4.47501e-06 -1.30635e-05 2.09441e-07 2.95206e-06 -1.43671e-05 -1.59582e-05 4.39575e-06 5.18174e-06 1.0323e-05 0 0 5.64511e-06 6.00867e-06 -5.83117e-07 -9.10862e-07 1.12732e-05 -1.21885e-06 6.30631e-06 6.53804e-06 8.20222e-07 1.33379e-06 -7.90217e-07
internal_weight=20964 10214 4203 1877 1710 1597 809 10750 1374 747 9376 1195 674 580 1140 1084 477 8181 6011 1063 1031 6317 5986 436 5757 1010 984 2393 1768 3618
internal_count=20964 10214 4203 1877 1710 1597 809 10750 1374 747 9376 1195 674 580 1140 1084 477 8181 6011 1063 1031 6317 5986 436 5757 1010 984 2393 1768 3618
is_linear=0
shrinkage=0.05


Tree=9
num_leaves=31
num_cat=0
split_feature=17 10 27 12 2 2 33 7 26 22 28 35 14 23 23 2 10 10 25 36 14 32 36 39 17 7 7 24 23 36
split_gain=1.10883e-05 5.25856e-06 5.47498e-06 7.5946e-06 4.48604e-06 6.17766e-06 4.21835e-06 8.44336e-06 2.70463e-06 2.44699e-06 2.91616e-06 2.24415e-06 1.86717e-06 2.61031e-06 1.53493e-06 1.59998e-06 1.30474e-06 1.32019e-06 1.2097e-06 1.12161e-06 1.10252e-06 1.49915e-06 1.06702e-06 1.17698e-06 1.05483e-06 9.01424e-07 7.73396e-07 7.08714e-07 5.56037e-07 6.41691e-07
threshold=0.47790527343750006 107616.52150000009 47268.316219577093 0.29357910156250006 32.011394891476435 47.070074037079614 5.8891153855226359e-07 0.0019839906096089442 -0.36828613281249994 2.4128312646493344e-08 -0.35388183593749994 -0.88403320312499989 0.1244826989991802 0.22259521484375003 -0.077056884765624986 45.078025851780005 105824.26100000007 94317.839000000109 217279.97278784873 8.1296226489198861e-09 0.077492026515219317 46.200000000004373 4.0534645958224552e-08 0.24713134765625003 0.64428710937500011 -0.0008164830694005476 -0.0021218609337261404 0.15765380859375003 -0.19964599609374997 6.7011095466353435e-08
decision_type=2 2 2 2 2 2 2 2 2 2 2 2 2 2 2 2 2 2 2 2 2 2 2 2 2 2 2 2 2 2
left_child=6 2 -2 -4 -5 9 14 8 -8 -6 11 19 -10 22 28 20 17 -17 25 -11 -16 26 -14 -24 27 -19 -22 -3 -1 -30
right_child=1 24 3 4 5 -7 7 -9 12 10 -12 -13 13 -15 15 16 -18 18 -20 -21 21 -23 23 -25 -26 -27 -28 -29 29 -31
leaf_value=0 0 0 0 0 0 0 0 0 0 0 0 0 0 0 0 0 0 0 0 -1.3106847001440625e-05 0 0 8.0444381548798891e-06 0 -7.9517329370993074e-07 -1.9867073479198969e-06 2.9397890162840569e-06 1.108132197608943e-06 1.7706132260537476e-06 0
leaf_weight=36 2326 966 120 132 82 796 135 364 334 21 61 44 297 253 130 173 243 94 250 621 20 152 1090 45 2999 3880 1037 2046 2179 38
leaf_count=36 2326 966 120 132 82 796 135 364 334 21 61 44 297 253 130 173 243 94 250 621 20 152 1090 45 2999 3880 1037 2046 2179 38
internal_value=0 -1.10167e-06 -2.46519e-06 -4.5716e-06 -5.75607e-06 -6.53642e-06 1.19394e-06 3.20525e-06 4.66999e-06 -1.01179e-05 -1.10361e-05 -1.19687e-05 5.15905e-06 5.88739e-06 0 0 -8.65348e-07 -1.23775e-06 -1.54147e-06 -1.27202e-05 6.26333e-07 1.64745e-06 6.73361e-06 7.71721e-06 0 -1.81289e-06 2.57872e-06 4.95904e-07 1.30504e-06 1.5355e-06
internal_weight=20964 10214 4203 1877 1757 1625 10750 2518 2154 829 747 686 2019 1685 8232 5979 4640 4397 4224 642 1339 1209 1432 1135 6011 3974 1057 3012 2253 2217
internal_count=20964 10214 4203 1877 1757 1625 10750 2518 2154 829 747 686 2019 1685 8232 5979 4640 4397 4224 642 1339 1209 1432 1135 6011 3974 1057 3012 2253 2217
is_linear=0
shrinkage=0.05


Tree=10
num_leaves=31
num_cat=0
split_feature=17 10 27 12 0 0 2 25 16 32 15 12 37 15 21 26 26 16 17 24 12 12 37 17 38 39 23 27 16 39
split_gain=1.03565e-05 4.8289e-06 4.80872e-06 7.21137e-06 7.44279e-06 6.768e-06 9.77218e-06 3.99391e-06 3.56293e-06 3.02171e-06 3.40329e-06 2.44374e-06 1.25659e-06 1.06785e-06 1.14766e-06 1.27421e-06 1.02232e-06 5.36746e-07 6.02285e-07 5.15329e-07 7.20412e-07 4.43412e-07 6.00821e-07 3.04988e-07 2.27262e-07 3.04284e-07 1.94248e-07 1.95468e-07 1.33736e-07 4.60982e-08
threshold=0.47790527343750006 107616.52150000009 47268.316219577093 0.29357910156250006 -3.1429633129294436 -0.99234172226238193 32.011394891476435 37792.24248183993 0.023963928222656253 154.8499999999913 0.0012861113626261827 0.66821289062500011 -0.012550354003906248 0.0010134618501303489 -38.412269263644149 -0.28991699218749994 0.014965057373046877 -0.036727905273437493 0.64282226562500011 0.12225341796875001 0.52416992187500011 0.31384277343750006 0.23138427734375003 0.63940429687500011 0.97290039062500011 0.38439941406250006 0.28234863281250006 24494.886556762936 -0.14959716796874997 0.25988769531250006
decision_type=2 2 2 2 2 2 2 2 2 2 2 2 2 2 2 2 2 2 2 2 2 2 2 2 2 2 2 2 2 2
left_child=7 2 -2 -4 -5 6 -6 -1 13 10 -9 16 19 -8 -15 -16 21 18 28 -3 23 -12 -23 -21 25 -25 27 -24 -14 -30
right_child=1 12 3 4 5 -7 8 9 -10 -11 11 -13 17 14 15 -17 -18 -19 -20 20 -22 22 26 24 -26 -27 -28 -29 29 -31
leaf_value=0 0 0 0 0 0 0 0 0 0 0 0 0 0 0 -1.7997443687053844e-05 0 0 0 0 0 0 0 0 -2.0570609752991476e-06 0 0 0 4.4148139976872998e-06 0 1.7493989205293533e-06
leaf_weight=2797 2326 1426 120 116 61 1055 47 2788 22 2024 132 87 32 22 405 29 124 625 220 310 68 40 32 1671 37 106 23 2703 30 1486
leaf_count=2797 2326 1426 120 116 61 1055 47 2788 22 2024 132 87 32 22 405 29 124 625 220 310 68 40 32 1671 37 106 23 2703 30 1486
internal_value=0 -1.06125e-06 -2.36837e-06 -4.35479e-06 -5.52446e-06 -6.63438e-06 -1.23334e-05 1.15688e-06 -1.47074e-05 1.75058e-06 2.32051e-06 3.58788e-06 0 -1.56036e-05 -1.65655e-05 -1.71736e-05 3.90384e-06 7.22985e-07 1.21095e-06 -7.22864e-07 -1.20423e-06 4.09355e-06 4.23602e-06 -1.53117e-06 -1.77916e-06 -1.88442e-06 4.32997e-06 4.36851e-06 1.62709e-06 1.70992e-06
internal_weight=20964 10214 4203 1877 1757 1641 586 10750 525 7953 5929 3141 6011 503 456 434 3054 2393 1768 3618 2192 2930 2798 2124 1814 1777 2758 2735 1548 1516
internal_count=20964 10214 4203 1877 1757 1641 586 10750 525 7953 5929 3141 6011 503 456 434 3054 2393 1768 3618 2192 2930 2798 2124 1814 1777 2758 2735 1548 1516
is_linear=0
shrinkage=0.05


Tree=11
num_leaves=31
num_cat=0
split_feature=17 6 2 2 14 26 18 16 34 12 25 17 29 0 20 7 2 31 16 23 33 16 24 25 29 10 35 17 2 38
split_gain=9.47904e-06 4.69233e-06 4.42447e-06 4.16679e-06 7.91512e-06 3.59311e-06 5.5984e-06 4.25681e-06 4.62882e-06 3.06328e-06 3.61828e-06 3.04705e-06 2.95441e-06 2.73108e-06 2.69391e-06 3.74476e-06 2.3338e-06 2.04748e-06 1.92234e-06 1.65937e-06 1.60137e-06 1.31674e-06 1.30361e-06 1.60819e-06 1.16314e-06 1.43316e-06 1.44123e-06 9.29781e-07 6.45194e-07 6.03117e-07
threshold=0.47790527343750006 106185.87808483282 32.011394891476435 42.631819450977751 0.13223799534438288 -0.28820800781249994 6.5659380538308309e-06 0.0036029815673828129 1.646869245151727e-08 0.65795898437500011 35740.185546718996 0.61547851562500011 110858.23799999997 -3.1429633129294436 2.8481649812792005e-05 0.0019839906096089442 33.335046642802773 -0.27258300781249994 -0.034042358398437493 -0.075531005859374986 5.8891153855226359e-07 0.13482666015625003 0.28381347656250006 165679.4806986331 106514.11149999996 94317.839000000109 -0.90649414062499989 0.45520019531250006 77.250420472886361 0.15728759765625003
decision_type=2 2 2 2 2 2 2 2 2 2 2 2 2 2 2 2 2 2 2 2 2 2 2 2 2 2 2 2 2 2
left_child=3 2 -2 4 -1 6 -4 8 -8 10 -6 18 16 -10 19 17 -13 -16 28 -5 -19 27 23 -18 25 -21 -27 -22 -3 -15
right_child=1 11 5 14 9 -7 7 -9 13 -11 -12 12 -14 29 15 -17 22 20 -20 24 21 -23 -24 -25 -26 26 -28 -29 -30 -31
leaf_value=0 0 1.8076915208674666e-06 0 1.0046874719792625e-06 0 0 0 0 0 0 1.2287093758138148e-05 0 0 0 0 0 -3.4340470764261767e-06 0 0 0 6.3972054884056601e-06 0 0 0 0 -1.5435231944497783e-06 0 0 0 -1.0273395300931113e-05
leaf_weight=897 195 2279 785 1968 23 101 80 112 40 58 396 175 962 25 49 268 2297 44 1309 229 757 55 745 255 286 5144 554 22 30 824
leaf_count=897 195 2279 785 1968 23 101 80 112 40 58 396 175 962 25 49 268 2297 44 1309 229 757 55 745 255 286 5144 554 22 30 824
internal_value=0 -1.02147e-06 -3.21789e-06 1.10138e-06 4.11859e-06 -4.12364e-06 -4.76848e-06 -7.22462e-06 -8.31918e-06 9.5042e-06 1.10047e-05 0 -1.219e-06 -9.40486e-06 1.25914e-07 2.39994e-06 -2.00622e-06 4.18602e-06 5.33215e-07 0 4.93253e-06 5.51479e-06 -2.45115e-06 -3.0065e-06 -5.89869e-07 -9.24845e-07 -1.23227e-06 6.06507e-06 1.58958e-06 -1.00329e-05
internal_weight=20964 10214 2162 10750 1374 1967 1866 1081 969 477 419 8052 4434 889 9376 1195 3472 927 3618 8181 878 834 3297 2552 6213 5927 5698 779 2309 849
internal_count=20964 10214 2162 10750 1374 1967 1866 1081 969 477 419 8052 4434 889 9376 1195 3472 927 3618 8181 878 834 3297 2552 6213 5927 5698 779 2309 849
is_linear=0
shrinkage=0.05


Tree=12
num_leaves=31
num_cat=0
split_feature=28 10 27 12 25 12 5 15 12 31 27 16 37 24 32 11 37 26 16 27 39 24 12 39 28 38 39 24 32 39
split_gain=8.46337e-06 4.80298e-06 4.208e-06 4.3937e-06 3.99759e-06 4.23214e-06 3.21861e-06 3.18936e-06 4.36993e-06 3.45609e-06 2.23143e-06 2.13496e-06 2.42914e-06 1.31333e-06 1.28411e-06 9.14982e-07 8.54112e-07 6.87599e-07 5.14532e-07 1.11451e-06 4.24359e-07 3.81461e-07 6.04549e-07 1.8999e-07 1.76068e-07 1.72905e-07 2.20809e-07 1.58926e-07 5.05299e-08 1.76029e-08
threshold=-0.39685058593749994 107616.52150000009 19605.940703866669 0.29357910156250006 39109.15368097039 0.49499511718750006 78.814591451083245 0.0013223799534438287 0.66674804687500011 0.16473388671875003 482138.91430499783 0.00086760520935058605 0.28381347656250006 0.14300537109375003 971.64999999999429 94010.18986759054 -0.012550354003906248 0.014965057373046877 -0.14959716796874997 41901.502952495925 0.25988769531250006 0.12225341796875001 0.52416992187500011 0.30163574218750006 -0.76831054687499989 0.97290039062500011 0.38439941406250006 0.16510009765625003 65.849999999998559 0.23297119140625003
decision_type=2 2 2 2 2 2 2 2 2 2 2 2 2 2 2 2 2 2 2 2 2 2 2 2 2 2 2 2 2 2
left_child=1 2 -1 -4 -2 28 -5 -7 9 -9 14 12 13 -8 15 -11 21 29 -15 -20 -18 -3 23 -23 -22 26 -25 -26 -6 -17
right_child=4 16 3 6 5 7 11 8 -10 10 -12 -13 -14 18 -16 17 20 -19 19 -21 24 22 -24 25 27 -27 -28 -29 -30 -31
leaf_value=0 0 0 0 0 2.4560979983161425e-07 0 0 0 0 0 0 0 0 0 0 6.4625907794185989e-06 0 0 0 -7.7514486843908185e-06 0 0 0 -1.6311284109211493e-06 0 0 0 1.2166156806852607e-06 0 0
leaf_weight=1022 2945 1426 90 287 2094 2522 30 346 119 34 34 75 500 31 20 1737 105 54 514 1163 44 41 68 1940 301 37 106 1889 1370 20
leaf_count=1022 2945 1426 90 287 2094 2522 30 346 119 34 34 75 500 31 20 1737 105 54 514 1163 44 41 68 1940 301 37 106 1889 1370 20
internal_value=0 -9.94363e-07 -2.41043e-06 -3.45371e-06 1.01332e-06 1.60805e-06 -4.07008e-06 2.56602e-06 4.12085e-06 4.76944e-06 5.60728e-06 -4.70102e-06 -5.02245e-06 -5.99795e-06 5.91657e-06 6.09304e-06 0 6.25181e-06 -6.20721e-06 -6.32524e-06 6.19526e-07 -5.84835e-07 -9.99785e-07 -1.32027e-06 9.36331e-07 -1.41613e-06 -1.50098e-06 1.04657e-06 0 6.42376e-06
internal_weight=20964 9669 3712 2690 11295 8350 2600 4886 2364 2245 1899 2313 2238 1738 1865 1845 5957 1811 1708 1677 2339 3618 2192 2124 2234 2083 2046 2190 3464 1757
internal_count=20964 9669 3712 2690 11295 8350 2600 4886 2364 2245 1899 2313 2238 1738 1865 1845 5957 1811 1708 1677 2339 3618 2192 2124 2234 2083 2046 2190 3464 1757
is_linear=0
shrinkage=0.05


Tree=13
num_leaves=31
num_cat=0
split_feature=17 10 12 27 0 0 21 7 12 16 38 4 7 29 0 9 38 27 26 36 27 21 21 37 7 7 36 37 20 20
split_gain=7.98729e-06 3.99484e-06 3.65076e-06 6.07736e-06 6.70646e-06 5.88237e-06 6.07069e-06 3.46921e-06 4.14345e-06 2.9458e-06 1.7549e-06 5.12975e-06 2.64925e-06 2.23641e-06 4.26684e-06 2.18137e-06 2.11071e-06 2.0118e-06 1.52031e-06 1.47892e-06 1.47135e-06 2.53601e-06 2.25634e-06 1.40795e-06 1.77107e-06 1.2089e-06 1.44826e-06 1.07193e-06 1.08533e-06 7.71539e-07
threshold=0.47790527343750006 107616.52150000009 0.29357910156250006 47268.316219577093 -3.1429633129294436 -0.99234172226238193 -38.412269263644149 -0.00083198635415623293 0.67993164062500011 0.023963928222656253 0.059951782226562507 97422.595005299736 0.0042707182660695871 104703.76349999993 -1.4167373198169833 102618.10000000002 -0.046646118164062493 26378.285720091786 -0.36511230468749994 1.2430558134034954e-08 24494.886556762936 47.324797173113673 -9.4166858175554289 0.73071289062500011 -0.00059963765287075451 0.0021098559090842344 3.9201343862628586e-08 0.19537353515625003 9.5293661548910071e-06 6.0360826758540121e-06
decision_type=2 2 2 2 2 2 2 2 2 2 2 2 2 2 2 2 2 2 2 2 2 2 2 2 2 2 2 2 2 2
left_child=7 2 -2 -4 -5 6 -6 8 18 -8 11 -9 16 14 -12 -16 20 -17 -1 -20 -13 22 -22 24 -19 26 -15 -28 -29 -21
right_child=1 -3 3 4 5 -7 9 10 -10 -11 13 12 -14 25 15 17 -18 23 19 29 21 -23 -24 -25 -26 -27 27 28 -30 -31
leaf_value=0 0 0 0 0 0 0 -1.3821040589865133e-05 0 0 0 0 0 0 0 0 0 0 0 0 0 0 0 6.8409362213874854e-06 0 -4.5144518048155096e-06 0 0 0 4.4240019800503496e-06 7.1447785409791704e-06
leaf_weight=273 126 6011 2320 116 57 1055 507 1613 72 22 230 434 21 1649 150 166 1347 174 30 23 65 47 960 111 1698 187 24 79 619 778
leaf_count=273 126 6011 2320 116 57 1055 507 1613 72 22 230 434 21 1649 150 166 1347 174 30 23 65 47 960 111 1698 187 24 79 619 778
internal_value=0 -9.14713e-07 -2.09986e-06 -2.60466e-06 -4.9385e-06 -6.02736e-06 -1.12612e-05 1.03078e-06 4.11703e-06 -1.30061e-05 1.29408e-07 1.00672e-06 2.45852e-06 0 -1.47605e-06 -2.65261e-06 2.90003e-06 -3.17254e-06 5.23805e-06 6.40492e-06 4.40858e-06 5.54385e-06 6.19098e-06 -3.66656e-06 -4.01509e-06 1.77787e-07 1.14399e-06 3.05145e-06 3.67018e-06 6.86837e-06
internal_weight=20964 10214 4203 4077 1757 1641 586 10750 1176 529 9574 4487 2874 5087 2529 2299 2853 2149 1104 831 1506 1072 1025 1983 1872 2558 2371 722 698 801
internal_count=20964 10214 4203 4077 1757 1641 586 10750 1176 529 9574 4487 2874 5087 2529 2299 2853 2149 1104 831 1506 1072 1025 1983 1872 2558 2371 722 698 801
is_linear=0
shrinkage=0.05


Tree=14
num_leaves=31
num_cat=0
split_feature=28 6 25 12 34 24 27 16 5 14 16 0 12 27 28 8 7 35 16 0 27 26 16 23 14 18 37 37 24 28
split_gain=7.16964e-06 4.16985e-06 3.65519e-06 3.69737e-06 3.49999e-06 4.80064e-06 3.24855e-06 4.28246e-06 2.50081e-06 2.37734e-06 2.37189e-06 1.98274e-06 1.72123e-06 1.58242e-06 1.05025e-06 1.59475e-06 1.4788e-06 1.08143e-06 8.65801e-07 8.27098e-07 7.6044e-07 7.67044e-07 8.63348e-07 9.0005e-07 5.52992e-07 4.84612e-07 3.01615e-07 2.36065e-07 1.77223e-07 7.62774e-08
threshold=-0.39685058593749994 106185.87808483282 39109.15368097039 0.49499511718750006 1.3663675969947996e-08 0.13323974609375003 27362.921358983149 -0.0044727325439453116 94.639687671051959 0.089014096304946264 -0.14959716796874997 3.3763750773284671 0.67993164062500011 19302.135009172413 -0.66674804687499989 110399.20000000001 -0.0018135489508099769 -1.0024414062499998 -0.036087036132812493 -3.8746587480625725 482138.91430499783 -0.020729064941406247 0.067169189453125014 0.21600341796875003 0.087050441098957917 6.2100342626123589e-06 -0.088928222656249986 1.2670898437500002 0.039688110351562507 -0.43249511718749994
decision_type=2 2 2 2 2 2 2 2 2 2 2 2 2 2 2 2 2 2 2 2 2 2 2 2 2 2 2 2 2 2
left_child=1 4 -2 -4 -1 -6 -7 9 -5 -8 -11 12 13 -10 15 16 -3 -18 26 -12 21 22 23 24 -15 -21 -16 -26 -19 -28
right_child=2 14 3 8 5 6 7 -9 11 10 19 -13 -14 20 18 -17 17 28 -20 25 -22 -23 -24 -25 27 -27 29 -29 -30 -31
leaf_value=0 0 0 0 0 0 0 0 0 0 0 0 0 0 0 0 0 0 0 0 0 0 0 0 0 4.0723921573857164e-06 -1.0507778240565242e-05 1.1754950521166729e-06 0 -2.4400717987392193e-06 0
leaf_weight=520 2945 227 3464 701 31 345 108 63 104 28 37 127 100 34 83 955 658 38 1247 51 33 160 75 21 3492 663 2267 39 2256 92
leaf_count=520 2945 227 3464 701 31 345 108 63 104 28 37 127 100 34 83 955 658 38 1247 51 33 160 75 21 3492 663 2267 39 2256 92
internal_value=0 -9.12954e-07 9.34555e-07 1.50857e-06 -3.16422e-06 -4.53174e-06 -5.5041e-06 -7.06002e-06 2.40437e-06 -8.09026e-06 -9.06388e-06 2.87109e-06 3.11811e-06 3.32497e-06 0 -7.93379e-07 -1.43966e-06 -1.86663e-06 7.96751e-08 -9.64942e-06 3.51855e-06 3.60342e-06 3.75178e-06 3.86938e-06 3.96125e-06 -1.00415e-05 9.46529e-07 4.02915e-06 -2.37954e-06 1.11672e-06
internal_weight=20964 9669 11295 8350 1846 1326 1295 950 4886 887 779 4185 4058 3958 7823 4134 3179 2952 3689 751 3854 3821 3661 3586 3565 714 2442 3531 2294 2359
internal_count=20964 9669 11295 8350 1846 1326 1295 950 4886 887 779 4185 4058 3958 7823 4134 3179 2952 3689 751 3854 3821 3661 3586 3565 714 2442 3531 2294 2359
is_linear=0
shrinkage=0.05


Tree=15
num_leaves=31
num_cat=0
split_feature=17 2 14 6 2 36 26 34 17 29 2 22 29 7 14 37 0 21 37 17 25 36 36 33 6 22 37 23 30 4
split_gain=6.58179e-06 3.88875e-06 6.41115e-06 3.33885e-06 3.88633e-06 3.41616e-06 3.69395e-06 2.28512e-06 2.21593e-06 2.4364e-06 2.08415e-06 1.76543e-06 1.65303e-06 3.36204e-06 3.10178e-06 3.04605e-06 2.89703e-06 1.85864e-06 1.87256e-06 1.418e-06 1.31463e-06 1.4363e-06 1.49294e-06 1.92108e-06 1.1081e-06 9.27851e-07 9.02981e-07 9.54149e-07 8.9781e-07 8.51466e-07
threshold=0.47790527343750006 42.631819450977751 0.13223799534438288 106185.87808483282 33.335046642802773 9.2963866542578884e-09 -0.28820800781249994 1.646869245151727e-08 0.61547851562500011 110858.23799999997 33.335046642802773 1.0559521579531996e-08 104703.76349999993 0.0021098559090842344 0.14790108797048521 0.52075195312500011 -1.0546348435986448 -14.579929587583704 0.24957275390625003 0.36462402343750006 35740.185546718996 1.5416778713788739e-08 1.3771784039195488e-07 1.4013939547748386e-06 106445.31690098975 1.5357304472281021e-07 0.26965332031250006 0.19195556640625003 105350.20000000003 97422.595005299736
decision_type=2 2 2 2 2 2 2 2 2 2 2 2 2 2 2 2 2 2 2 2 2 2 2 2 2 2 2 2 2 2
left_child=1 2 -1 4 -2 -6 7 -7 25 10 -10 -12 15 14 -14 19 -16 -18 -19 -3 -4 -22 23 -23 -13 -5 -21 28 -28 -17
right_child=3 12 20 8 5 6 -8 -9 9 -11 11 24 13 -15 16 29 17 18 -20 26 21 22 -24 -25 -26 -27 27 -29 -30 -31
leaf_value=0 0 0 0 9.572965140674543e-07 0 0 0 -6.5907512699817423e-06 0 0 0 0 0 0 0 0 0 0 7.8770520903661283e-06 0 0 1.2351526430934827e-05 0 0 -2.8854375515914428e-06 0 -4.4049750546639524e-06 0 0 7.3963520307949869e-07
leaf_weight=897 260 235 41 3508 399 286 97 1120 175 962 466 53 1731 227 101 1494 20 74 594 36 22 331 46 37 2778 110 930 20 23 3891
leaf_count=897 260 235 41 3508 399 286 97 1120 175 962 466 53 1731 227 101 1494 20 74 594 36 22 331 46 37 2778 110 930 20 23 3891
internal_value=0 9.32638e-07 3.72558e-06 -8.33966e-07 -2.67326e-06 -3.63746e-06 -4.73552e-06 -5.52629e-06 0 -1.02346e-06 -1.75839e-06 -2.19917e-06 0 1.22651e-06 2.23049e-06 0 5.07105e-06 6.32578e-06 6.94034e-06 -2.47406e-06 8.5773e-06 9.38206e-06 1.00683e-05 1.11435e-05 -2.68167e-06 4.97431e-07 -3.32558e-06 -3.71329e-06 -4.07193e-06 0
internal_weight=20964 10750 1374 10214 2162 1902 1503 1406 8052 4434 3472 3297 9376 2747 2520 6629 789 688 668 1244 477 436 414 368 2831 3618 1009 973 953 5385
internal_count=20964 10750 1374 10214 2162 1902 1503 1406 8052 4434 3472 3297 9376 2747 2520 6629 789 688 668 1244 477 436 414 368 2831 3618 1009 973 953 5385
is_linear=0
shrinkage=0.05


Tree=16
num_leaves=31
num_cat=0
split_feature=17 2 14 6 2 18 26 12 25 14 16 27 16 17 29 2 16 29 7 38 29 9 2 26 14 0 2 21 17 31
split_gain=5.91806e-06 3.56796e-06 5.64059e-06 2.96215e-06 3.60508e-06 2.65847e-06 2.98093e-06 2.5775e-06 3.02998e-06 1.9076e-06 2.54449e-06 2.38614e-06 1.93565e-06 1.83857e-06 2.20477e-06 1.94381e-06 1.67467e-06 1.43144e-06 3.17486e-06 2.84342e-06 4.9103e-06 3.03403e-06 4.59882e-06 3.24487e-06 2.5892e-06 2.66626e-06 2.06108e-06 1.74457e-06 1.11261e-06 1.0113e-06
threshold=0.47790527343750006 42.631819450977751 0.13223799534438288 106185.87808483282 33.335046642802773 3.9216483860508921e-06 -0.28820800781249994 0.65795898437500011 35740.185546718996 0.080884973160350107 0.0036029815673828129 27362.921358983149 -0.13299560546874997 0.61547851562500011 110858.23799999997 33.335046642802773 -0.034042358398437493 104703.76349999993 0.0021098559090842344 -0.046646118164062493 99315.151499999993 102618.10000000002 47.922742633950577 -0.41662597656249994 0.14790108797048521 -1.0546348435986448 74.90562810378951 -14.579929587583704 -0.053497314453124993 0.39392089843750006
decision_type=2 2 2 2 2 2 2 2 2 2 2 2 2 2 2 2 2 2 2 2 2 2 2 2 2 2 2 2 2 2
left_child=1 2 -1 4 -2 -6 9 8 -4 -7 11 -11 -13 16 15 -15 -5 19 24 20 -3 -21 -23 -24 -19 -26 28 -27 -22 -25
right_child=3 17 7 13 5 6 -8 -9 -10 10 -12 12 -14 14 -16 -17 -18 18 -20 21 26 22 23 29 25 27 -28 -29 -30 -31
leaf_value=0 0 0 0 1.4600865601139816e-06 0 0 0 0 1.074125778992344e-05 0 0 0 -8.3065316251590862e-06 0 0 -2.077613505082844e-06 0 0 0 0 0 0 0 -4.0460836065749568e-06 0 0 0 6.5901745777251487e-06 4.0832087074449122e-06 0
leaf_weight=897 260 1664 23 2309 296 336 99 58 396 187 106 29 849 175 962 3297 1309 1731 227 267 29 928 203 2207 101 20 23 668 1254 54
leaf_count=897 260 1664 23 2309 296 336 99 58 396 187 106 29 849 175 962 3297 1309 1731 227 267 29 928 203 2207 101 20 23 668 1254 54
internal_value=0 8.97528e-07 3.57682e-06 -7.75031e-07 -2.50255e-06 -3.44342e-06 -4.26385e-06 8.14884e-06 9.53775e-06 -4.93148e-06 -5.9472e-06 -6.69788e-06 -7.82361e-06 0 -9.3307e-07 -1.64296e-06 4.51022e-07 0 1.14135e-06 0 4.8517e-07 -1.32349e-06 -2.03116e-06 -3.21639e-06 2.13765e-06 4.77457e-06 3.15184e-06 5.98579e-06 3.75872e-06 -3.85508e-06
internal_weight=20964 10750 1374 10214 2162 1902 1606 477 419 1507 1171 1065 878 8052 4434 3472 3618 9376 2747 6629 2970 3659 3392 2464 2520 789 1306 688 1283 2261
internal_count=20964 10750 1374 10214 2162 1902 1606 477 419 1507 1171 1065 878 8052 4434 3472 3618 9376 2747 6629 2970 3659 3392 2464 2520 789 1306 688 1283 2261
is_linear=0
shrinkage=0.05


Tree=17
num_leaves=31
num_cat=0
split_feature=17 33 7 16 6 2 36 26 16 34 18 16 22 2 14 17 16 36 35 3 2 33 5 16 37 6 16 26 32 35
split_gain=5.43064e-06 3.23567e-06 7.02912e-06 3.59793e-06 2.59482e-06 3.34282e-06 2.8991e-06 3.26257e-06 2.04893e-06 1.87477e-06 1.97705e-06 2.02917e-06 2.12921e-06 1.8431e-06 1.54108e-06 1.53581e-06 1.54037e-06 1.44708e-06 1.72295e-06 1.40418e-06 1.78498e-06 8.93797e-07 1.12443e-06 1.22603e-06 7.84124e-07 8.18844e-07 6.94624e-07 6.42939e-07 1.31331e-06 6.79397e-07
threshold=0.47790527343750006 5.8891153855226359e-07 0.0019839906096089442 -0.020500183105468747 106185.87808483282 33.335046642802773 9.2963866542578884e-09 -0.28820800781249994 0.13482666015625003 1.646869245151727e-08 6.8229773679229664e-06 0.0036029815673828129 2.7579512715959813e-08 67.638128534200192 0.1244826989991802 0.61547851562500011 -0.034042358398437493 4.1471183261739378e-08 -0.86059570312499989 110726.86274371432 33.335046642802773 3.3247419514360388e-07 79.836991012514957 0.034378051757812507 -0.30139160156249994 106445.31690098975 -0.10446166992187499 -0.38830566406249994 -407.15000000000867 -0.90747070312499989
decision_type=2 2 2 2 2 2 2 2 2 2 2 2 2 2 2 2 2 2 2 2 2 2 2 2 2 2 2 2 2 2
left_child=1 21 3 -3 5 -2 -7 9 13 -8 -11 12 -12 14 -5 16 -6 -16 -19 20 -17 22 -1 26 -22 -26 -24 -23 -29 -30
right_child=4 2 -4 8 15 6 7 -9 -10 10 11 -13 -14 -15 17 19 -18 18 -20 -21 24 27 23 -25 25 -27 -28 28 29 -31
leaf_value=0 0 0 0 0 1.3870853706467146e-06 0 0 0 0 0 0 0 -9.2072668740947379e-06 0 0 0 0 7.657814995685813e-06 0 0 0 0 0 0 0 -2.1941457667760945e-06 1.5830599154083397e-06 0 -1.88513362684805e-06 0
leaf_weight=1205 260 210 364 303 2309 399 286 97 84 240 121 103 656 23 312 174 1309 1098 124 992 52 255 42 554 53 3163 3891 75 1881 329
leaf_count=1205 260 210 364 303 2309 399 286 97 84 240 121 103 656 23 312 174 1309 1098 124 992 52 255 42 554 53 3163 3891 75 1881 329
internal_value=0 8.74987e-07 2.54575e-06 3.96659e-06 -7.23481e-07 -2.33946e-06 -3.25804e-06 -4.27251e-06 4.69682e-06 -5.03134e-06 -5.99687e-06 -7.16835e-06 -8.04512e-06 5.08037e-06 5.35177e-06 0 4.04432e-07 6.0671e-06 7.01195e-06 -8.55829e-07 -1.40121e-06 0 6.12966e-07 1.05029e-06 -1.85294e-06 -2.02446e-06 1.42751e-06 -1.94218e-07 -8.63327e-07 -1.50207e-06
internal_weight=20964 10750 2518 2154 10214 2162 1902 1503 1944 1406 1120 880 777 1860 1837 8052 3618 1534 1222 4434 3442 8232 5692 4487 3268 3216 3933 2540 2285 2210
internal_count=20964 10750 2518 2154 10214 2162 1902 1503 1944 1406 1120 880 777 1860 1837 8052 3618 1534 1222 4434 3442 8232 5692 4487 3268 3216 3933 2540 2285 2210
is_linear=0
shrinkage=0.05


Tree=18
num_leaves=31
num_cat=0
split_feature=28 2 35 5 6 36 24 22 16 36 12 37 0 34 27 38 25 7 0 27 39 12 33 23 3 8 2 9 36 9
split_gain=4.75938e-06 3.31972e-06 3.39768e-06 3.31845e-06 2.76312e-06 2.73331e-06 2.69999e-06 3.83479e-06 3.16159e-06 2.56524e-06 2.49576e-06 1.75285e-06 1.67256e-06 1.64759e-06 1.10351e-06 8.20831e-07 4.06838e-06 2.87963e-06 3.76608e-06 3.53204e-06 2.12194e-06 2.39348e-06 2.63204e-06 2.15011e-06 2.07682e-06 1.20827e-06 1.01321e-06 3.82195e-06 1.45234e-06 1.28719e-06
threshold=-0.39685058593749994 42.367634857270481 -1.0180664062499998 78.814591451083245 106185.87808483282 1.2950467803424977e-07 0.13323974609375003 2.0887756229363677e-08 -0.0044727325439453116 1.6503823569294235e-08 0.68774414062500011 1.2534179687500002 -0.30216027405389895 1.7782759838469842e-08 11567.734163269704 0.083801269531250014 69050.221006314227 0.0042707182660695871 -1.1388441940459793 36296.079060686905 -0.19464111328124997 0.65405273437500011 1.4169960776386131e-07 0.25500488281250006 104254.01548948257 93725.60000000002 53.900781025015526 108028.90000000001 1.3420283355578214e-08 102618.10000000002
decision_type=2 2 2 2 2 2 2 2 2 2 2 2 2 2 2 2 2 2 2 2 2 2 2 2 2 2 2 2 2 2
left_child=4 2 -2 -4 6 10 -1 -8 9 -9 11 12 14 -11 -5 16 -3 18 -18 -20 -21 22 -22 24 25 -24 -17 28 -28 -30
right_child=1 15 3 5 -6 -7 7 8 -10 13 -12 -13 -14 -15 -16 26 17 -19 19 20 21 -23 23 -25 -26 -27 27 -29 29 -31
leaf_value=0 0 0 0 0 0 0 0 0 0 0 0 0 0 -8.9570332632910329e-06 7.927623785862589e-06 0 0 0 0 0 0 0 0 0 0 8.2601571907609118e-06 0 0 0 -3.5482505535947451e-06
leaf_weight=31 231 2841 125 23 7823 80 809 303 63 59 26 26 24 581 898 2977 170 29 181 41 47 93 27 134 177 1013 278 313 37 1504
leaf_count=31 231 2841 125 23 7823 80 809 303 63 59 26 26 24 581 898 2977 170 29 181 41 47 93 27 134 177 1013 278 313 37 1504
internal_value=0 7.84896e-07 3.26293e-06 4.44508e-06 -7.14775e-07 5.45473e-06 -2.53332e-06 -3.20096e-06 -5.29281e-06 -6.18595e-06 6.24456e-06 6.81642e-06 7.2373e-06 -8.14854e-06 7.63432e-06 0 6.57065e-07 2.52833e-06 3.21153e-06 4.10285e-06 4.95837e-06 5.36835e-06 5.91744e-06 6.41126e-06 7.07434e-06 7.97213e-06 0 -1.08998e-06 -2.57779e-06 -3.1937e-06
internal_weight=20964 11295 1433 1202 9669 1077 1846 1815 1006 943 997 971 945 640 921 9862 4753 1912 1883 1713 1532 1491 1398 1351 1217 1040 5109 2132 1819 1541
internal_count=20964 11295 1433 1202 9669 1077 1846 1815 1006 943 997 971 945 640 921 9862 4753 1912 1883 1713 1532 1491 1398 1351 1217 1040 5109 2132 1819 1541
is_linear=0
shrinkage=0.05


Tree=19
num_leaves=31
num_cat=0
split_feature=17 2 14 12 25 26 35 11 22 2 36 21 22 20 21 23 12 36 2 4 34 36 6 35 21 34 11 23 2 20
split_gain=4.3538e-06 2.85233e-06 7.48478e-06 3.77504e-06 2.71183e-06 2.11007e-06 3.3466e-06 2.37128e-06 2.76833e-06 1.69431e-06 8.3698e-07 7.03214e-07 7.22122e-07 6.70204e-07 2.34534e-06 1.85524e-06 1.55364e-06 1.93183e-06 2.07204e-06 1.09966e-06 1.32119e-06 1.15654e-06 9.10636e-07 8.05318e-07 1.07471e-06 1.08668e-06 7.06048e-07 5.98516e-07 9.39786e-07 1.50556e-06
threshold=0.47790527343750006 43.35896117323157 0.13223799534438288 0.65795898437500011 35740.185546718996 -0.41955566406249994 -0.98706054687499989 108504.99824625338 1.7256628654916628e-08 26.611858273344481 1.3771784039195488e-07 -38.412269263644149 1.2929394528110938e-07 2.8481649812792005e-05 37.525252889879205 -0.075531005859374986 0.31384277343750006 4.1471183261739378e-08 45.900338015490085 107079.87029556898 1.7826803997214776e-07 1.3420283355578214e-08 94410.165402091152 -0.90649414062499989 31.073850735693835 1.8529751087007953e-08 106862.65262840515 -0.066497802734374986 38.985478011854106 1.7394343574951787e-05
decision_type=2 2 2 2 2 2 2 2 2 2 2 2 2 2 2 2 2 2 2 2 2 2 2 2 2 2 2 2 2 2
left_child=1 2 -1 4 -4 6 -2 8 -8 -10 -6 -11 -13 15 16 -3 -15 -18 -19 20 21 -17 -23 24 25 -24 -27 -7 -29 -30
right_child=5 13 3 -5 10 27 7 -9 9 11 -12 12 -14 14 -16 19 17 18 -20 -21 -22 22 23 -25 -26 26 -28 28 29 -31
leaf_value=0 0 8.7836972274656488e-07 0 0 1.0931690313282706e-05 9.6306582888572527e-07 0 0 0 0 0 -6.8688462429697172e-06 0 0 0 0 0 0 4.9125438426786542e-06 0 0 0 0 0 0 -2.6299398673357112e-06 0 0 0 -2.4303342852979769e-06
leaf_weight=1023 3274 1920 28 63 424 1498 136 1616 23 35 53 819 46 106 55 724 53 74 888 268 188 210 389 520 338 3406 20 330 1384 1053
leaf_count=1023 3274 1920 28 63 424 1498 136 1616 23 35 53 819 46 106 55 724 53 74 888 268 188 210 389 520 338 3406 20 330 1384 1053
internal_value=0 7.79282e-07 2.92997e-06 7.5486e-06 9.09797e-06 -6.53059e-07 -1.27238e-06 -2.59382e-06 -4.75299e-06 -5.78071e-06 1.00916e-05 -6.24311e-06 -6.52575e-06 0 1.19358e-06 0 2.59317e-06 3.35455e-06 4.11008e-06 -7.21551e-07 -1.00951e-06 -1.28154e-06 -1.57415e-06 -1.75399e-06 -1.98657e-06 -2.23614e-06 -2.5221e-06 0 -1.96467e-07 -1.00393e-06
internal_weight=20964 10750 1591 568 505 10214 5949 2675 1059 923 477 900 865 9159 1176 7983 1121 1015 962 6063 5795 5607 4883 4673 4153 3815 3426 4265 2767 2437
internal_count=20964 10750 1591 568 505 10214 5949 2675 1059 923 477 900 865 9159 1176 7983 1121 1015 962 6063 5795 5607 4883 4673 4153 3815 3426 4265 2767 2437
is_linear=0
shrinkage=0.05


Tree=20
num_leaves=31
num_cat=0
split_feature=17 10 16 27 2 32 2 5 25 14 16 26 17 17 25 16 24 24 0 27 2 33 31 1 30 0 33 2 27 17
split_gain=4.1286e-06 3.05226e-06 2.93087e-06 4.56734e-06 2.88691e-06 2.68006e-06 4.48925e-06 2.52903e-06 1.62388e-06 2.87282e-06 1.34238e-06 2.581e-06 3.51447e-06 1.03469e-06 7.26484e-07 8.62721e-07 5.66755e-07 2.49293e-06 1.81975e-06 3.47967e-06 1.66869e-06 1.37741e-06 1.37624e-06 9.98278e-07 7.66648e-07 7.44223e-07 5.66102e-07 1.95865e-06 3.19379e-06 8.07288e-07
threshold=0.47790527343750006 107616.52150000009 -0.069793701171874986 19302.135009172413 64.646544321415107 -207.44999999999706 47.742792828499411 79.355810003149955 37024.214345985434 0.13773535728672501 -0.040084838867187493 -0.38244628906249994 0.44812011718750006 -0.14965820312499997 25338.993477866756 -0.14959716796874997 0.34020996093750006 0.46936035156250006 0.70349708598924143 33628.482827753345 73.363184391589428 7.1998030941390217e-08 0.21197509765625003 107442.29424974458 94424.300000000003 3.3763750773284671 1.1457430851345012e-06 47.17004914420545 81973.24069583723 0.46740722656250006
decision_type=2 2 2 2 2 2 2 2 2 2 2 2 2 2 2 2 2 2 2 2 2 2 2 2 2 2 2 2 2 2
left_child=5 2 3 -2 7 6 8 -5 -1 -10 -11 -12 13 -13 -9 -16 26 18 -18 -20 21 -21 -23 24 -24 -26 27 -7 -29 -30
right_child=1 -3 -4 4 -6 16 -8 14 9 10 11 12 -14 -15 15 -17 17 -19 19 20 -22 22 23 -25 25 -27 -28 28 29 -31
leaf_value=0 0 0 0 0 0 0 0 0 0 0 0 0 0 1.3334744086011732e-05 0 -7.7306284117493378e-06 0 0 0 0 0 0 0 0 5.9435850750802254e-06 0 0 0 -3.3918343679663211e-06 0
leaf_weight=147 723 6011 2209 166 52 826 395 222 237 52 24 27 34 319 31 800 2223 1056 776 28 68 55 32 22 1082 66 570 1236 1418 57
leaf_count=147 723 6011 2209 166 52 826 395 222 237 52 24 27 34 319 31 800 2223 1056 776 28 68 55 32 22 1082 66 570 1236 1418 57
internal_value=0 -6.20056e-07 -1.65825e-06 -3.07739e-06 -4.88264e-06 7.71253e-07 3.25609e-06 -5.54772e-06 5.38017e-06 6.39866e-06 8.82974e-06 9.81334e-06 1.09251e-05 1.25088e-05 -6.45232e-06 -7.41204e-06 0 5.11853e-07 1.32574e-06 2.39363e-06 3.92993e-06 4.41676e-06 4.76252e-06 5.15572e-06 5.40295e-06 5.62804e-06 0 -6.32548e-07 -1.52583e-06 -3.11316e-06
internal_weight=20964 10214 4203 1994 1271 10750 1235 1219 840 693 456 404 380 346 1053 831 9515 5408 4352 2129 1353 1285 1257 1202 1180 1148 4107 3537 2711 1475
internal_count=20964 10214 4203 1994 1271 10750 1235 1219 840 693 456 404 380 346 1053 831 9515 5408 4352 2129 1353 1285 1257 1202 1180 1148 4107 3537 2711 1475
is_linear=0
shrinkage=0.05


Tree=21
num_leaves=31
num_cat=0
split_feature=17 33 7 16 6 2 36 26 16 2 14 22 16 34 28 35 17 16 1 2 21 37 23 2 37 26 37 26 2 35
split_gain=3.80092e-06 2.59747e-06 6.37086e-06 3.34795e-06 2.08922e-06 3.02713e-06 2.42837e-06 2.88447e-06 1.87227e-06 1.72173e-06 1.44324e-06 1.91291e-06 2.42592e-06 1.27439e-06 1.21246e-06 1.2314e-06 1.20734e-06 1.55719e-06 1.00738e-06 1.43218e-06 8.65831e-07 8.23037e-07 6.71193e-07 1.47529e-06 9.8938e-07 7.54273e-07 9.31254e-07 6.63288e-07 5.81643e-07 5.55227e-07
threshold=0.47790527343750006 5.8891153855226359e-07 0.0019839906096089442 -0.020500183105468747 106185.87808483282 33.335046642802773 9.2963866542578884e-09 -0.28820800781249994 0.13482666015625003 67.638128534200192 0.11082395314678541 2.8452193685649031e-08 0.0036029815673828129 2.4962977455905891e-08 0.73852539062500011 -0.86059570312499989 0.61547851562500011 -0.034042358398437493 110631.2882616334 33.335046642802773 32.445224568860162 -0.30139160156249994 -0.077056884765624986 45.900338015490085 1.1206054687500002 -0.11703491210937499 0.36828613281250006 -0.35803222656249994 77.250420472886361 -1.0024414062499998
decision_type=2 2 2 2 2 2 2 2 2 2 2 2 2 2 2 2 2 2 2 2 2 2 2 2 2 2 2 2 2 2
left_child=1 22 3 -3 5 -2 -7 10 9 13 -8 -12 -13 -5 15 20 17 28 19 -18 27 -21 -1 -24 25 26 -25 -15 -6 -23
right_child=4 2 -4 8 16 6 7 -9 -10 -11 11 12 -14 14 -16 -17 18 -19 -20 21 -22 29 23 24 -26 -27 -28 -29 -30 -31
leaf_value=8.6298530888427402e-07 0 0 0 0 1.624975201552807e-06 0 0 0 0 0 0 -9.0678251483717661e-06 0 0 0 0 0 0 0 0 0 0 0 0 0 0 -1.833578269237544e-06 6.0756336057219225e-06 0 -2.1381961700305745e-06
leaf_weight=2253 260 210 364 26 2279 399 662 97 84 23 128 536 80 30 36 129 175 1309 986 50 22 622 1524 315 880 174 3086 1594 30 2601
leaf_count=2253 260 210 364 26 2279 399 662 97 84 23 128 536 80 30 36 129 175 1309 986 50 22 622 1524 315 880 174 3086 1594 30 2601
internal_value=0 7.43927e-07 2.22294e-06 3.6291e-06 -5.89781e-07 -2.01469e-06 -2.9313e-06 -3.86165e-06 4.34721e-06 4.7189e-06 -4.59016e-06 -6.68306e-06 -7.85523e-06 4.98897e-06 5.19676e-06 5.4094e-06 0 4.3064e-07 -7.27591e-07 -1.18792e-06 5.78143e-06 -1.6064e-06 0 0 -9.09872e-07 -1.31282e-06 -1.53822e-06 5.93384e-06 1.40588e-06 -1.80525e-06
internal_weight=20964 10750 2518 2154 10214 2162 1902 1503 1944 1860 1406 744 616 1837 1811 1775 8052 3618 4434 3448 1646 3273 8232 5979 4455 3575 3401 1624 2309 3223
internal_count=20964 10750 2518 2154 10214 2162 1902 1503 1944 1860 1406 744 616 1837 1811 1775 8052 3618 4434 3448 1646 3273 8232 5979 4455 3575 3401 1624 2309 3223
is_linear=0
shrinkage=0.05


Tree=22
num_leaves=31
num_cat=0
split_feature=39 10 23 18 21 10 7 38 32 0 39 37 2 33 33 39 26 37 1 22 24 33 0 16 23 38 27 24 25 16
split_gain=3.38225e-06 3.32613e-06 3.38031e-06 3.89753e-06 2.53175e-06 2.16022e-06 3.37801e-06 2.06926e-06 2.17748e-06 1.8555e-06 1.95902e-06 1.83566e-06 2.45122e-06 2.06321e-06 3.55493e-06 4.18602e-06 2.9589e-06 1.79545e-06 1.76768e-06 1.4694e-06 1.45168e-06 1.6017e-06 1.10941e-06 9.12135e-07 7.97411e-07 7.59359e-07 4.00972e-06 3.42675e-06 2.3509e-06 1.90604e-06
threshold=0.19390869140625003 105255.19475000001 0.060760498046875007 7.8654762172464179e-06 -38.412269263644149 104162.89325000001 0.0021098559090842344 0.15093994140625003 466.25000000000006 3.2215720318896062 0.14373779296875003 0.16546630859375003 43.817154384349131 1.7497635400722628e-07 1.2874885251467384e-06 0.28918457031250006 -0.29919433593749994 0.49768066406250006 103923.5816917233 2.7273906783416074e-08 0.28381347656250006 2.0653364254589782e-06 -1.8087335448906994 -0.094268798828124986 0.084259033203125014 0.018722534179687503 40247.126910744308 0.32751464843750006 45049.956289379836 -0.064727783203124986
decision_type=2 2 2 2 2 2 2 2 2 2 2 2 2 2 2 2 2 2 2 2 2 2 2 2 2 2 2 2 2 2
left_child=5 2 3 -2 -5 25 9 -6 17 10 -7 12 -3 -13 15 16 23 19 -12 -9 21 22 -14 -15 -24 26 -1 -28 -29 -30
right_child=1 11 -4 4 7 6 -8 8 -10 -11 18 13 20 14 -16 -17 -18 -19 -20 -21 -22 -23 24 -25 -26 -27 27 28 29 -31
leaf_value=0 0 0 0 0 0 0 0 0 0 0 0 0 0 0 0 0 0 0 4.7440034041733511e-06 -7.9734414257929808e-06 0 0 -2.2699245555494841e-06 5.2612114106226457e-06 0 -1.0257098914220816e-07 0 0 0 4.4812331919182381e-06
leaf_weight=1816 910 2005 406 47 110 93 156 157 36 60 39 1011 72 20 109 154 443 75 1520 844 1190 76 3858 1352 89 2257 131 353 26 1549
leaf_count=1816 910 2005 406 47 110 93 156 157 36 60 39 1011 72 20 109 154 443 75 1520 844 1190 76 3858 1352 89 2257 131 353 26 1549
internal_value=0 -3.97268e-07 -2.00203e-06 -2.93819e-06 -4.74352e-06 8.95093e-07 2.51436e-06 -5.34279e-06 -6.00171e-06 3.43957e-06 3.88176e-06 0 -4.30414e-07 1.02392e-06 2.01011e-06 2.9627e-06 3.90997e-06 -6.50264e-06 4.37129e-06 -7.06653e-06 -1.18955e-06 -1.64695e-06 -1.93908e-06 5.06112e-06 -2.12869e-06 0 6.95535e-07 2.4039e-06 3.25799e-06 4.08958e-06
internal_weight=20964 12964 2585 2179 1269 8000 1868 1222 1112 1712 1652 10379 7290 3089 2078 1969 1815 1076 1559 1001 5285 4095 4019 1372 3947 6132 3875 2059 1928 1575
internal_count=20964 12964 2585 2179 1269 8000 1868 1222 1112 1712 1652 10379 7290 3089 2078 1969 1815 1076 1559 1001 5285 4095 4019 1372 3947 6132 3875 2059 1928 1575
is_linear=0
shrinkage=0.05


Tree=23
num_leaves=31
num_cat=0
split_feature=28 2 6 24 22 16 12 36 14 26 17 26 0 23 17 16 2 24 37 24 25 37 18 17 12 0 0 12 33 35
split_gain=3.02648e-06 2.83263e-06 2.37385e-06 2.39931e-06 2.93112e-06 2.85227e-06 2.11549e-06 1.98501e-06 2.26578e-06 1.52001e-06 1.62479e-06 8.92596e-07 1.09507e-06 8.72951e-07 8.59761e-07 1.28998e-06 8.15069e-07 9.08423e-07 1.23261e-06 5.7117e-07 3.66651e-06 5.6636e-06 1.42586e-06 1.57351e-06 1.75476e-06 1.83416e-06 1.14544e-06 1.36822e-06 9.30033e-07 7.5593e-07
threshold=-0.39685058593749994 40.384382453584074 106185.87808483282 0.13323974609375003 2.0887756229363677e-08 -0.0044727325439453116 0.66088867187500011 1.6503823569294235e-08 0.1013461850130349 -0.46350097656249994 0.50170898437500011 -0.074401855468749986 -1.3527640266916043 -0.24212646484374997 0.61547851562500011 -0.035476684570312493 33.335046642802773 0.28381347656250006 -0.30139160156249994 0.32751464843750006 68444.187152665632 0.51782226562500011 7.2013488652913866e-06 -0.23535156249999997 0.65307617187500011 -1.4408552127594436 3.5461353548139516 0.45202636718750006 1.2017627124601231e-07 -0.90844726562499989
decision_type=2 2 2 2 2 2 2 2 2 2 2 2 2 2 2 2 2 2 2 2 2 2 2 2 2 2 2 2 2 2
left_child=2 6 3 -1 -5 7 9 -6 -9 -2 11 12 -11 -10 15 -4 -16 18 -18 29 -21 -22 -23 -24 25 -25 27 -27 -29 -3
right_child=1 19 14 4 5 -7 -8 8 13 10 -12 -13 -14 -15 16 -17 17 -19 -20 20 21 22 23 24 -26 26 -28 28 -30 -31
leaf_value=0 0 -7.9091200077157908e-07 1.292151484914129e-06 0 0 0 0 0 0 7.5533685068197079e-06 0 0 0 -9.1536166400682075e-06 0 0 0 0 -1.8184338469125016e-06 0 0 0 0 0 0 0 0 0 6.2638334536771556e-06 0
leaf_weight=31 56 3021 2246 809 303 63 179 116 20 521 37 49 95 504 178 1143 740 790 2726 3915 331 79 48 86 110 22 48 22 1270 1406
leaf_count=31 56 3021 2246 809 303 63 179 116 20 521 37 49 95 504 178 1143 740 790 2726 3915 331 79 48 86 110 22 48 22 1270 1406
internal_value=0 6.33226e-07 -5.60454e-07 -2.20451e-06 -2.87185e-06 -4.70772e-06 3.51994e-06 -5.58606e-06 -7.32991e-06 4.72141e-06 5.42974e-06 6.1016e-06 6.6191e-06 -8.74227e-06 0 3.93683e-07 -6.05214e-07 -9.2756e-07 -1.30831e-06 0 4.90665e-07 2.29233e-06 3.83268e-06 4.19898e-06 4.54965e-06 5.03002e-06 5.50136e-06 5.7922e-06 6.06367e-06 0
internal_weight=20964 11295 9669 1846 1815 1006 937 943 640 758 702 665 616 524 7823 3389 4434 4256 3466 10358 5931 2016 1685 1606 1558 1448 1362 1314 1292 4427
internal_count=20964 11295 9669 1846 1815 1006 937 943 640 758 702 665 616 524 7823 3389 4434 4256 3466 10358 5931 2016 1685 1606 1558 1448 1362 1314 1292 4427
is_linear=0
shrinkage=0.05


Tree=24
num_leaves=31
num_cat=0
split_feature=2 26 35 24 25 2 2 36 35 22 9 32 22 5 39 26 26 25 27 22 27 36 25 26 12 35 12 22 2 32
split_gain=2.87253e-06 1.30563e-05 3.54918e-06 3.3592e-06 4.2963e-06 3.67221e-06 3.22151e-06 3.5648e-06 3.61072e-06 3.55308e-06 3.64316e-06 2.47831e-06 2.47333e-06 2.98e-06 2.12172e-06 2.11018e-06 1.92861e-06 2.13866e-06 1.92329e-06 1.92301e-06 1.90769e-06 1.89856e-06 1.79088e-06 1.28437e-06 1.32077e-06 1.27955e-06 1.27871e-06 1.65608e-06 1.27771e-06 1.06403e-06
threshold=41.021892473465655 -0.42468261718749994 -1.0102539062499998 0.28991699218750006 39109.15368097039 50.30154222461568 52.54847841736602 2.7745613990795825e-07 -0.94702148437499989 1.9304066586660555e-08 102618.10000000002 -82.150000000001441 2.1612270022115668e-07 110.7525968664827 0.37145996093750006 0.028892517089843753 -0.074401855468749986 269688.77676408557 19302.135009172413 1.3653585226749995e-08 12753.389604678863 1.995123373711683e-07 711283.53688166244 0.028892517089843753 0.47253417968750006 -1.0327148437499998 0.66967773437500011 1.6462980882996424e-08 74.90562810378951 285.3499999999986
decision_type=2 2 2 2 2 2 2 2 2 2 2 2 2 2 2 2 2 2 2 2 2 2 2 2 2 2 2 2 2 2
left_child=1 -1 -3 6 25 -6 -2 8 -8 -10 -11 -7 13 -13 16 18 17 19 -15 -4 -21 26 23 24 -12 -5 27 -20 -29 -22
right_child=3 2 14 4 5 11 7 -9 9 10 22 12 -14 15 -16 -17 -18 -19 21 20 29 -23 -24 -25 -26 -27 -28 28 -30 -31
leaf_value=0 0 0 0 0 0 0 0 0 0 0 -5.7790537870146821e-06 0 0 0 0 0 0 0 0 0 8.1863149968554335e-06 0 0 0 0 -1.0567581827264452e-06 0 5.8943686078675769e-06 0 0
leaf_weight=1464 4871 50 95 601 1837 540 1142 90 147 72 1910 941 57 39 57 43 61 89 60 38 1133 27 43 20 46 3528 56 1854 33 20
leaf_count=1464 4871 50 95 601 1837 540 1142 90 147 72 1910 941 57 39 57 43 61 89 60 38 1133 27 43 20 46 3528 56 1854 33 20
internal_value=0 1.49407e-06 5.05003e-06 -1.61563e-07 7.02624e-08 1.35316e-06 -1.02826e-06 -2.20509e-06 -2.76197e-06 -3.94388e-06 -4.57116e-06 2.29515e-06 2.8591e-06 3.21751e-06 5.68326e-06 4.30022e-06 6.10532e-06 6.5142e-06 4.62881e-06 7.03765e-06 7.58387e-06 4.91995e-06 -5.11385e-06 -5.38388e-06 -5.56094e-06 -4.23649e-07 5.18669e-06 5.41454e-06 5.6959e-06 7.97161e-06
internal_weight=20964 3007 1543 17957 9616 5487 8341 3470 3380 2238 2091 3650 3110 3053 1493 2112 1436 1375 2069 1286 1191 2030 2019 1976 1956 4129 2003 1947 1887 1153
internal_count=20964 3007 1543 17957 9616 5487 8341 3470 3380 2238 2091 3650 3110 3053 1493 2112 1436 1375 2069 1286 1191 2030 2019 1976 1956 4129 2003 1947 1887 1153
is_linear=0
shrinkage=0.05


Tree=25
num_leaves=31
num_cat=0
split_feature=28 10 10 35 0 37 21 28 12 22 37 24 24 28 14 28 24 28 0 14 21 38 0 38 26 22 39 38 37 39
split_gain=2.45548e-06 3.38158e-06 2.69401e-06 2.83883e-06 2.78972e-06 2.67394e-06 3.61171e-06 2.40539e-06 2.19698e-06 3.00726e-06 3.97685e-06 1.76964e-06 2.88052e-06 1.76389e-06 1.7327e-06 1.6354e-06 1.59505e-06 1.57085e-06 1.495e-06 1.1779e-06 1.20884e-06 9.9563e-07 1.0585e-06 1.1365e-06 9.83296e-07 7.82071e-07 6.87925e-07 4.47198e-07 3.96275e-07 4.30221e-07
threshold=-0.39685058593749994 107616.52150000009 105233.95450000008 -0.87866210937499989 2.5390042615239001 0.51782226562500011 -26.34916379681329 -0.17968749999999997 0.29357910156250006 1.7256628654916628e-08 0.28381347656250006 0.46936035156250006 0.32751464843750006 -0.022209167480468747 0.068429857908281502 0.73852539062500011 0.18853759765625003 -0.38806152343749994 -3.1429633129294436 0.080884973160350107 -32.695077297711961 0.024253845214843753 3.5461353548139516 -0.68920898437499989 -0.31726074218749994 1.5928489810447621e-08 0.14373779296875003 0.60522460937500011 -0.012550354003906248 0.25988769531250006
decision_type=2 2 2 2 2 2 2 2 2 2 2 2 2 2 2 2 2 2 2 2 2 2 2 2 2 2 2 2 2 2
left_child=1 8 5 4 13 6 -2 16 -1 -10 18 12 -7 14 -4 21 -8 -18 -11 -20 -21 22 23 -14 -22 -16 -27 -28 -3 -30
right_child=2 28 3 -5 -6 11 7 -9 9 10 -12 -13 15 -15 25 -17 17 -19 19 20 24 -23 -24 -25 -26 26 27 -29 29 -31
leaf_value=0 0 -3.4017356025923444e-08 0 0 0 0 0 0 0 0 0 0 0 0 0 0 0 -3.8103747293458288e-06 0 0 -5.8003533545324589e-06 0 0 3.3026816453161046e-06 0 0 5.1344568293636911e-06 0 0 9.607238222306496e-07
leaf_weight=90 233 3618 144 281 214 1614 65 625 1259 119 523 1178 35 20 102 150 34 1813 151 148 1372 708 101 2476 50 30 1437 35 105 2234
leaf_count=90 233 3618 144 281 214 1614 65 625 1259 119 523 1178 35 20 102 150 34 1813 151 148 1372 708 101 2476 50 30 1437 35 105 2234
internal_value=0 -5.17934e-07 5.60219e-07 2.13129e-06 2.96091e-06 0 -1.10245e-06 -2.21041e-06 -1.72515e-06 -2.13693e-06 -3.19074e-06 7.27919e-07 1.23403e-06 3.71114e-06 4.0562e-06 2.07518e-06 -3.10289e-06 -3.48218e-06 -4.29855e-06 -4.68259e-06 -5.09028e-06 2.39423e-06 2.87036e-06 3.10229e-06 -5.5437e-06 4.54204e-06 4.83039e-06 4.99764e-06 0 6.49418e-07
internal_weight=20964 9669 11295 2263 1982 9032 2770 2537 3712 3622 2363 6262 5084 1768 1748 3470 1912 1847 1840 1721 1570 3320 2612 2511 1422 1604 1502 1472 5957 2339
internal_count=20964 9669 11295 2263 1982 9032 2770 2537 3712 3622 2363 6262 5084 1768 1748 3470 1912 1847 1840 1721 1570 3320 2612 2511 1422 1604 1502 1472 5957 2339
is_linear=0
shrinkage=0.05


Tree=26
num_leaves=31
num_cat=0
split_feature=7 16 12 25 34 0 14 0 18 25 12 17 34 22 24 34 14 7 18 31 16 22 24 16 35 31 17 24 14 22
split_gain=2.26017e-06 7.29163e-06 3.38656e-06 4.87462e-06 3.68374e-06 3.55103e-06 2.9421e-06 2.75533e-06 2.52667e-06 2.7983e-06 2.78359e-06 2.97684e-06 2.36477e-06 3.09063e-06 1.63671e-06 1.56041e-06 1.72235e-06 1.64253e-06 1.32912e-06 1.23112e-06 1.17389e-06 1.12464e-06 1.90365e-06 1.111e-06 9.19701e-07 9.134e-07 8.99944e-07 7.24869e-07 1.10493e-06 6.55989e-07
threshold=-0.00086259922158787839 -0.066925048828124986 0.47082519531250006 43710.484294143804 2.3838421060488051e-07 -0.48016940840203592 0.1063328888239654 -1.6699601470069294 5.8923458353982852e-05 269688.77676408557 0.65502929687500011 0.63647460937500011 3.8258026272400706e-08 2.0299165076230953e-07 0.49060058593750006 2.8999022221152914e-07 0.091986567425716023 0.0042707182660695871 5.8923458353982852e-05 0.65112304687500011 0.12811279296875003 2.1612270022115668e-07 0.26062011718750006 -0.26440429687499994 -0.95776367187499989 0.079895019531250014 -0.23535156249999997 0.33825683593750006 0.16756688304730619 1.7256628654916628e-08
decision_type=2 2 2 2 2 2 2 2 2 2 2 2 2 2 2 2 2 2 2 2 2 2 2 2 2 2 2 2 2 2
left_child=1 -1 4 6 7 -5 -4 -2 9 10 11 -3 -9 18 15 16 -7 21 20 29 23 22 -18 -14 -25 -24 -27 28 -26 -8
right_child=2 8 3 5 -6 14 19 12 -10 -11 -12 -13 13 -15 -16 -17 17 -19 -20 -21 -22 -23 25 24 27 26 -28 -29 -30 -31
leaf_value=0 0 5.8855957313208839e-06 0 0 0 0 0 0 0 0 0 0 0 0 0 0 0 0 0 0 0 0 0 0 -3.2240326169587955e-07 0 3.9052258944185364e-06 0 -7.0731360024093033e-06 -3.8498812975042518e-06
leaf_weight=1149 456 1477 4511 1463 356 722 193 1423 38 129 99 96 39 339 168 22 138 35 24 33 125 63 55 157 2410 45 3143 46 1085 925
leaf_count=1149 456 1477 4511 1463 356 722 193 1423 38 129 99 96 39 339 168 22 138 35 24 33 125 63 55 157 2410 45 3143 46 1085 925
internal_value=0 1.32229e-06 -1.53926e-07 0 -1.17324e-06 1.34232e-06 -5.37931e-07 -1.72206e-06 3.5711e-06 4.06558e-06 4.68913e-06 5.27214e-06 -2.10345e-06 -2.70442e-06 2.1033e-06 2.35982e-06 2.5547e-06 3.01969e-06 -3.1528e-06 -2.79519e-06 -3.2958e-06 3.22544e-06 3.38067e-06 -3.46568e-06 -3.59008e-06 3.65824e-06 3.78547e-06 -3.75625e-06 -3.84884e-06 -3.28579e-06
internal_weight=20964 2988 17976 11516 6460 5854 5662 6104 1839 1801 1672 1573 5648 4225 4391 4223 4201 3479 3886 1151 3862 3444 3381 3737 3698 3243 3188 3541 3495 1118
internal_count=20964 2988 17976 11516 6460 5854 5662 6104 1839 1801 1672 1573 5648 4225 4391 4223 4201 3479 3886 1151 3862 3444 3381 3737 3698 3243 3188 3541 3495 1118
is_linear=0
shrinkage=0.05


Tree=27
num_leaves=31
num_cat=0
split_feature=2 26 35 24 27 25 25 10 2 35 16 39 26 25 22 27 28 31 22 32 26 17 2 12 27 14 39 27 35 10
split_gain=2.22766e-06 1.12566e-05 3.25131e-06 2.74261e-06 3.63397e-06 6.6389e-06 3.02128e-06 2.74144e-06 2.11482e-06 1.92796e-06 2.29282e-06 1.90793e-06 1.81048e-06 1.87262e-06 1.6838e-06 1.73373e-06 1.35322e-06 1.56974e-06 1.03349e-06 9.84422e-07 1.09954e-06 8.81942e-07 8.72273e-07 1.41878e-06 1.15229e-06 1.08904e-06 4.37529e-07 3.42565e-07 3.37374e-07 3.62072e-07
threshold=41.021892473465655 -0.42468261718749994 -1.0102539062499998 0.32751464843750006 81199.799526062052 263376.72836565919 39109.15368097039 109740.43100000004 50.391355999179147 -0.99096679687499989 0.085876464843750014 0.37145996093750006 -0.074401855468749986 269688.77676408557 1.3653585226749995e-08 12753.389604678863 0.73852539062500011 0.59106445312500011 1.9602058698770293e-08 285.3499999999986 -0.41809082031249994 0.53735351562500011 73.363184391589428 0.66967773437500011 22068.092899588835 0.086532703281675213 0.38439941406250006 575221.47116004326 -1.0327148437499998 105855.62525000019
decision_type=2 2 2 2 2 2 2 2 2 2 2 2 2 2 2 2 2 2 2 2 2 2 2 2 2 2 2 2 2 2
left_child=1 -1 -3 4 -2 7 28 9 -8 -6 18 12 13 14 -4 -16 17 21 -11 20 -17 22 23 24 -10 -26 27 -20 -5 -30
right_child=3 2 11 6 5 -7 8 -9 16 10 -12 -13 -14 -15 15 19 -18 -19 26 -21 -22 -23 -24 -25 25 -27 -28 -29 29 -31
leaf_value=0 0 0 0 0 0 0 0 0 0 0 0 0 0 0 0 0 0 0 -4.4762421143447455e-06 0 8.00487952351402e-06 0 0 0 0 4.238182925505185e-06 0 0 -8.870851365680201e-07 0
leaf_weight=1464 6095 50 95 601 177 851 1158 464 162 64 457 57 61 89 38 56 71 147 2742 20 1077 24 68 66 150 1880 27 22 2222 509
leaf_count=1464 6095 50 95 601 177 851 1158 464 162 64 457 57 61 89 38 56 71 147 2742 20 1077 24 68 66 150 1880 27 22 2222 509
internal_value=0 1.2917e-06 4.63557e-06 -1.75299e-07 -8.19581e-07 -1.84797e-06 1.11196e-07 -2.88941e-06 1.43197e-06 -3.37983e-06 -3.67273e-06 5.25852e-06 5.66312e-06 6.06508e-06 6.55521e-06 7.06627e-06 2.24363e-06 2.55574e-06 -4.20187e-06 7.43886e-06 7.64757e-06 2.93432e-06 3.10595e-06 3.302e-06 3.58462e-06 3.91074e-06 -4.35732e-06 -4.42351e-06 0 -5.55721e-07
internal_weight=20964 3007 1543 17957 10899 4804 7058 3953 3726 3489 3312 1493 1436 1375 1286 1191 2568 2497 2855 1153 1133 2350 2326 2258 2192 2030 2791 2764 3332 2731
internal_count=20964 3007 1543 17957 10899 4804 7058 3953 3726 3489 3312 1493 1436 1375 1286 1191 2568 2497 2855 1153 1133 2350 2326 2258 2192 2030 2791 2764 3332 2731
is_linear=0
shrinkage=0.05


Tree=28
num_leaves=31
num_cat=0
split_feature=17 10 37 27 28 21 37 5 5 28 14 23 32 10 24 33 33 21 28 22 10 32 14 22 0 0 25 0 27 25
split_gain=1.93662e-06 6.39545e-06 7.47931e-06 3.29723e-06 5.12675e-06 4.26099e-06 2.95728e-06 3.72627e-06 3.06393e-06 3.32582e-06 2.92741e-06 3.25582e-06 2.15055e-06 2.00814e-06 3.52459e-06 1.75428e-06 1.74838e-06 1.69258e-06 1.49901e-06 1.60025e-06 1.43642e-06 1.77376e-06 3.41293e-06 1.35644e-06 2.01757e-06 1.15893e-06 7.46733e-07 4.43539e-07 8.51773e-07 3.76635e-07
threshold=0.61547851562500011 105760.9825 0.51782226562500011 32524.215313799828 -0.17968749999999997 -38.412269263644149 0.16546630859375003 335.61777939571061 115.54650413565339 -0.16613769531249997 0.1013461850130349 0.10110473632812501 683.25000000000011 98412.620000000068 0.32751464843750006 8.4246410429061433e-08 1.4169960776386131e-07 38.820549897196848 -0.55102539062499989 2.9011642228273907e-07 110118.08449999998 -407.15000000000867 0.10932911017221646 1.9602058698770293e-08 -2.8416907498233366 -3.0367531345221725 22772.343400815564 3.5461353548139516 22410.011081194807 19957.211309001777
decision_type=2 2 2 2 2 2 2 2 2 2 2 2 2 2 2 2 2 2 2 2 2 2 2 2 2 2 2 2 2 2
left_child=1 2 3 -1 5 -5 -3 8 -8 16 -7 12 15 -4 -15 -12 -10 27 -18 26 21 -2 -23 -17 -25 -24 -20 28 -16 -27
right_child=20 6 13 4 -6 10 7 -9 9 -11 11 -13 -14 14 17 23 18 -19 19 -21 -22 22 25 24 -26 29 -28 -29 -30 -31
leaf_value=0 0 0 0 0 0 0 0 0 0 0 0 0 0 0 0 0 0 0 0 0 0 0 0 0 -6.8409693699313631e-06 0 7.5869477401925883e-06 0 3.5019030521314785e-06 -3.9921339353500578e-06
leaf_weight=1626 141 2768 2048 76 713 613 736 77 90 37 35 32 25 1659 491 173 57 132 30 23 1032 1802 20 119 1732 25 1111 57 1982 1502
leaf_count=1626 141 2768 2048 76 713 613 736 77 90 37 35 32 25 1659 491 173 57 132 30 23 1032 1802 20 119 1732 25 1111 57 1982 1502
internal_value=0 2.81085e-07 0 -1.7466e-06 -2.60837e-06 -3.61968e-06 1.87277e-06 3.37943e-06 4.03886e-06 5.55878e-06 -4.16776e-06 -5.08533e-06 -5.49211e-06 6.8695e-07 1.36286e-06 -5.75678e-06 6.17363e-06 2.51493e-06 6.67101e-06 7.06404e-06 -8.85081e-07 -1.42966e-06 -1.8585e-06 -5.99001e-06 -6.40824e-06 -3.60447e-06 7.37648e-06 2.8857e-06 2.99459e-06 -3.88068e-06
internal_weight=20964 16442 11513 5144 3518 2805 4929 2161 2084 1348 2729 2116 2084 6369 4321 2059 1311 2662 1221 1164 4522 3490 3349 2024 1851 1547 1141 2530 2473 1527
internal_count=20964 16442 11513 5144 3518 2805 4929 2161 2084 1348 2729 2116 2084 6369 4321 2059 1311 2662 1221 1164 4522 3490 3349 2024 1851 1547 1141 2530 2473 1527
is_linear=0
shrinkage=0.05


Tree=29
num_leaves=31
num_cat=0
split_feature=2 16 38 12 39 14 25 25 27 27 23 12 24 18 0 22 39 25 27 27 37 39 24 12 31 0 33 14 12 0
split_gain=1.92146e-06 8.32369e-06 2.69363e-06 2.34438e-06 2.65526e-06 2.9393e-06 2.6828e-06 1.93708e-06 1.60209e-06 3.25093e-06 2.32504e-06 3.42968e-06 3.50118e-06 2.21126e-06 2.06372e-06 2.05122e-06 1.6597e-06 1.53649e-06 1.77897e-06 2.05613e-06 1.74857e-06 1.92995e-06 1.52604e-06 1.48719e-06 1.22754e-06 1.17321e-06 1.10621e-06 1.0491e-06 5.87863e-07 1.05401e-06
threshold=41.021892473465655 -0.066925048828124986 0.099365234375000014 0.66088867187500011 0.36389160156250006 0.13630054349148882 269688.77676408557 35740.185546718996 289039.89763339359 81199.799526062052 0.14434814453125003 0.47253417968750006 0.12225341796875001 9.3568949411602141e-06 -1.8087335448906994 2.5264998836147876e-07 0.36950683593750006 69050.221006314227 42336.990436352236 482138.91430499783 0.51782226562500011 -0.17907714843749997 0.32751464843750006 0.65405273437500011 0.087554931640625014 -1.4408552127594436 1.2017627124601231e-07 0.094282506803820706 0.45666503906250006 3.5461353548139516
decision_type=2 2 2 2 2 2 2 2 2 2 2 2 2 2 2 2 2 2 2 2 2 2 2 2 2 2 2 2 2 2
left_child=1 -1 17 4 5 -3 7 -7 9 -4 11 12 -11 -14 -15 16 24 -2 -19 20 -20 -22 -23 25 27 -24 -27 -16 -28 -30
right_child=2 3 8 -5 -6 6 -8 -9 -10 10 -12 -13 13 14 15 -17 -18 18 19 -21 21 22 23 -25 -26 26 28 -29 29 -31
leaf_value=0 0 0 0 0 0 0 0 9.9947646670489757e-06 0 0 0 0 0 0 0 0 0 0 0 0 0 0 0 0 0 0 0 -6.9532858878578201e-06 6.3260328929998381e-06 0
leaf_weight=1484 3184 678 7952 127 60 21 71 566 487 719 581 1192 82 66 27 57 79 312 98 32 94 341 55 75 29 20 26 1401 1008 40
leaf_count=1484 3184 678 7952 127 60 21 71 566 487 719 581 1192 82 66 27 57 79 312 98 32 94 341 55 75 29 20 26 1401 1008 40
internal_value=0 1.20197e-06 -1.59909e-07 4.06384e-06 4.7133e-06 5.30859e-06 8.26923e-06 9.38476e-06 -7.33184e-07 -9.422e-07 -2.1155e-06 -2.60363e-06 -3.68087e-06 -4.91641e-06 -5.35703e-06 -5.75545e-06 -6.13944e-06 2.68583e-07 1.41762e-06 2.20135e-06 2.80351e-06 3.3104e-06 3.83402e-06 4.68095e-06 -6.52564e-06 5.15529e-06 5.53116e-06 -6.7526e-06 5.80846e-06 5.99811e-06
internal_weight=20964 3007 17957 1523 1396 1336 658 587 12672 12185 4233 3652 2460 1741 1659 1593 1536 5285 2101 1789 1757 1659 1565 1224 1457 1149 1094 1428 1074 1048
internal_count=20964 3007 17957 1523 1396 1336 658 587 12672 12185 4233 3652 2460 1741 1659 1593 1536 5285 2101 1789 1757 1659 1565 1224 1457 1149 1094 1428 1074 1048
is_linear=0
shrinkage=0.05


Tree=30
num_leaves=31
num_cat=0
split_feature=17 10 10 12 27 2 2 2 22 12 16 35 21 33 26 39 38 2 37 25 33 39 2 37 37 34 39 17 2 34
split_gain=1.69308e-06 3.05626e-06 2.78375e-06 2.74426e-06 3.61996e-06 2.86202e-06 4.01847e-06 2.69965e-06 2.1923e-06 1.50822e-06 1.41767e-06 1.15003e-06 1.08799e-06 1.00689e-06 7.73336e-07 6.77449e-07 5.09209e-07 2.94857e-06 2.64684e-06 1.58171e-06 6.84334e-07 6.55928e-07 6.08605e-07 5.22208e-07 4.45154e-07 3.87648e-07 3.73293e-07 3.61059e-07 3.31203e-07 3.26065e-07
threshold=0.47790527343750006 107616.52150000009 104162.89325000001 0.29357910156250006 47268.316219577093 32.011394891476435 46.892492765121339 57.792413627417886 2.4128312646493344e-08 0.30895996093750006 0.030311584472656253 -0.88208007812499989 21.610634966618637 1.8908500960096928e-07 -0.28820800781249994 0.14373779296875003 0.018722534179687503 47.344623660429853 0.73071289062500011 45049.956289379836 2.2168405456103585e-06 -0.19464111328124997 74.90562810378951 0.52075195312500011 -0.012550354003906248 1.8529751087007953e-08 0.25842285156250006 0.64282226562500011 48.38558416280857 2.8999022221152914e-07
decision_type=2 2 2 2 2 2 2 2 2 2 2 2 2 2 2 2 2 2 2 2 2 2 2 2 2 2 2 2 2 2
left_child=2 3 16 -2 -5 -6 8 9 -7 -4 11 13 15 -10 -15 -11 19 -18 20 -1 25 -21 23 -23 28 -19 -26 -28 -3 -25
right_child=1 24 7 4 5 6 -8 -9 10 12 -12 -13 -14 14 -16 -17 17 18 -20 21 -22 22 -24 29 26 -27 27 -29 -30 -31
leaf_value=0 0 0 0 0 0 0 0 0 0 0 0 0 0 -1.0032482340416743e-05 0 2.9735605228113749e-06 0 0 0 0 0 0 0 2.104544715474892e-06 0 -3.7668482329192105e-06 1.2001915628003111e-06 0 -7.1490167596446461e-07 0
leaf_weight=1636 126 1998 129 2320 132 81 808 1344 64 67 24 32 58 586 30 2741 991 77 186 75 21 22 25 2096 126 1261 2047 220 1620 21
leaf_count=1636 126 1998 129 2320 132 81 808 1344 64 67 24 32 58 586 30 2741 991 77 186 75 21 22 25 2096 126 1261 2047 220 1620 21
internal_value=0 -4.29975e-07 4.66987e-07 -1.5057e-06 -2.00498e-06 -3.80502e-06 -4.47851e-06 1.46429e-06 -7.22396e-06 2.3151e-06 -8.0854e-06 -8.51787e-06 2.62992e-06 -8.95518e-06 -9.62349e-06 2.83337e-06 0 -6.95128e-07 -2.35881e-06 1.10797e-07 -3.34577e-06 1.33688e-06 1.6146e-06 1.82994e-06 0 -3.55646e-06 6.81938e-07 9.50014e-07 0 2.00003e-06
internal_weight=20964 10214 10750 4203 4077 1757 1625 4339 817 2995 736 712 2866 680 616 2808 6411 2536 1545 3875 1359 2239 2164 2139 6011 1338 2393 2267 3618 2117
internal_count=20964 10214 10750 4203 4077 1757 1625 4339 817 2995 736 712 2866 680 616 2808 6411 2536 1545 3875 1359 2239 2164 2139 6011 1338 2393 2267 3618 2117
is_linear=0
shrinkage=0.05


Tree=31
num_leaves=31
num_cat=0
split_feature=7 26 18 12 25 34 27 16 14 14 12 14 25 18 39 27 7 27 21 22 24 27 16 21 14 5 5 26 34 14
split_gain=1.76337e-06 6.22014e-06 2.69547e-06 2.32084e-06 3.45573e-06 3.1708e-06 3.56909e-06 3.35364e-06 2.6006e-06 2.42708e-06 2.29e-06 1.98369e-06 1.96903e-06 1.95954e-06 1.91851e-06 1.4591e-06 1.38679e-06 1.33482e-06 1.91722e-06 1.2636e-06 1.21699e-06 1.49617e-06 1.29613e-06 1.1496e-06 1.01297e-06 8.52793e-07 7.38913e-07 9.11765e-07 6.02228e-07 9.74023e-07
threshold=-0.00086259922158787839 -0.36657714843749994 5.8923458353982852e-05 0.47082519531250006 43710.484294143804 2.3838421060488051e-07 81199.799526062052 0.085876464843750014 0.1063328888239654 0.12334733220719742 0.68579101562500011 0.22777339106278971 269688.77676408557 9.5269023022506822e-06 0.35632324218750006 172035.71013512489 -0.00051866062007508654 58413.632619820783 -10.805435060783756 2.5264998836147876e-07 0.26062011718750006 289039.89763339359 0.052261352539062507 -10.571084649901357 0.1013461850130349 226.82051099598866 128.82521099859886 -0.029411315917968747 3.6379382926983501e-08 0.094282506803820706
decision_type=2 2 2 2 2 2 2 2 2 2 2 2 2 2 2 2 2 2 2 2 2 2 2 2 2 2 2 2 2 2
left_child=1 -1 10 5 8 6 -2 13 -5 -6 12 20 14 -8 17 16 -10 -3 24 28 -11 22 23 -22 -19 26 -25 -28 -15 -30
right_child=3 2 -4 4 9 -7 7 -9 15 11 -12 -13 -14 19 -16 -17 -18 18 -20 -21 21 -23 -24 25 -26 -27 27 -29 29 -31
leaf_value=0 0 0 0 0 0 0 0 0 0 0 0 0 0 0 0 0 -3.9928206226140224e-06 0 0 0 0 0 0 0 8.4477671505772965e-06 0 4.3218277934676852e-06 0 0 -4.8632556443068548e-06
leaf_weight=1603 3191 293 38 4511 2723 356 133 606 158 129 23 350 110 164 117 39 954 30 41 123 177 66 241 86 733 28 1993 61 47 1840
leaf_count=1603 3191 293 38 4511 2723 356 133 606 158 129 23 350 110 164 117 39 954 30 41 123 177 66 241 86 733 28 1993 61 47 1840
internal_value=0 1.14568e-06 3.74947e-06 -1.64476e-07 0 -9.8662e-07 -1.52605e-06 -2.81829e-06 -5.30692e-07 1.09699e-06 4.41106e-06 2.04641e-06 4.91112e-06 -3.69637e-06 5.50989e-06 -2.65206e-06 -3.24963e-06 6.16184e-06 7.48019e-06 -4.09295e-06 2.54912e-06 2.82157e-06 3.10013e-06 3.46125e-06 8.07716e-06 3.7794e-06 3.9328e-06 4.12478e-06 -4.39283e-06 -4.66603e-06
internal_weight=20964 2988 1385 17976 11516 6460 6104 2913 5662 5854 1347 3131 1324 2307 1214 1151 1112 1097 804 2174 2781 2652 2586 2345 763 2168 2140 2054 2051 1887
internal_count=20964 2988 1385 17976 11516 6460 6104 2913 5662 5854 1347 3131 1324 2307 1214 1151 1112 1097 804 2174 2781 2652 2586 2345 763 2168 2140 2054 2051 1887
is_linear=0
shrinkage=0.05


Tree=32
num_leaves=31
num_cat=0
split_feature=2 26 35 38 10 35 37 26 14 27 10 25 27 2 10 27 22 27 28 38 37 18 24 26 27 0 17 24 38 38
split_gain=1.63887e-06 9.42702e-06 2.97348e-06 2.24257e-06 3.56142e-06 4.14891e-06 4.0652e-06 1.48683e-06 1.41026e-06 1.34307e-06 1.32806e-06 1.3008e-06 1.22009e-06 1.63118e-06 1.21664e-06 2.55249e-06 1.21014e-06 1.36737e-06 1.08021e-06 1.06801e-06 1.01451e-06 1.01659e-06 8.08513e-07 8.03747e-07 7.80381e-07 7.55107e-07 1.31966e-06 4.9184e-07 4.4284e-07 5.06401e-07
threshold=41.021892473465655 -0.42468261718749994 -1.0102539062499998 0.099365234375000014 105760.9825 -0.90844726562499989 0.16546630859375003 -0.074401855468749986 0.08300236688781458 23862.533921853439 98412.620000000068 269688.77676408557 482138.91430499783 73.363184391589428 105233.95450000008 289039.89763339359 1.3653585226749995e-08 11567.734163269704 -0.16613769531249997 0.98437500000000011 0.71362304687500011 6.8229773679229664e-06 0.28991699218750006 -0.41809082031249994 289039.89763339359 0.70349708598924143 -0.025588989257812497 0.12225341796875001 0.13323974609375003 0.53540039062500011
decision_type=2 2 2 2 2 2 2 2 2 2 2 2 2 2 2 2 2 2 2 2 2 2 2 2 2 2 2 2 2 2
left_child=1 -1 -3 10 5 8 22 11 -5 -10 -2 16 13 25 15 20 -4 -18 28 23 21 -11 27 -19 -25 -12 -27 -6 -8 -30
right_child=3 2 7 4 6 -7 18 -9 9 14 12 -13 -14 -15 -16 -17 17 19 -20 -21 -22 -23 -24 24 -26 26 -28 -29 29 -31
leaf_value=0 0 0 0 0 0 0 0 0 0 0 0 0 0 0 0 0 0 0 0 0 0 -4.9698081971032061e-06 0 7.4115710956528508e-06 0 0 3.136058947512198e-06 -1.3091244620992899e-06 2.9518586068868092e-06 0
leaf_weight=1464 1757 50 95 854 1429 868 35 61 256 141 1772 89 32 89 667 106 32 58 42 88 34 1888 1125 995 75 34 1601 3440 1445 342
leaf_count=1464 1757 50 95 854 1429 868 35 61 256 141 1772 89 32 89 667 106 32 58 42 88 34 1888 1125 995 75 34 1601 3440 1445 342
internal_value=0 1.09685e-06 4.1973e-06 -1.63388e-07 -6.86633e-07 -1.75798e-06 0 4.81519e-06 -2.52958e-06 -3.05062e-06 1.45146e-07 5.17389e-06 9.86215e-07 1.36161e-06 -3.36604e-06 -4.02697e-06 5.56455e-06 5.97872e-06 2.00827e-06 6.28464e-06 -4.48806e-06 -4.66156e-06 -6.64253e-07 6.70407e-06 7.01842e-06 1.76049e-06 2.7591e-06 -9.78929e-07 2.36817e-06 2.51745e-06
internal_weight=20964 3007 1543 17957 12672 4814 7858 1493 3946 3092 5285 1432 3528 3496 2836 2169 1343 1248 1864 1216 2063 2029 5994 1128 1070 3407 1635 4869 1822 1787
internal_count=20964 3007 1543 17957 12672 4814 7858 1493 3946 3092 5285 1432 3528 3496 2836 2169 1343 1248 1864 1216 2063 2029 5994 1128 1070 3407 1635 4869 1822 1787
is_linear=0
shrinkage=0.05


Tree=33
num_leaves=31
num_cat=0
split_feature=16 2 23 12 25 38 22 10 5 33 0 28 14 38 10 16 10 10 35 24 38 24 33 33 39 39 25 12 37 25
split_gain=1.41786e-06 6.36734e-06 2.08303e-06 2.23349e-06 2.04764e-06 1.97939e-06 1.97261e-06 2.81197e-06 2.41272e-06 1.53953e-06 1.22621e-06 9.5329e-07 7.12503e-07 4.6921e-07 3.53941e-06 4.03523e-06 2.10649e-06 1.17225e-06 1.22765e-06 1.1235e-06 1.93185e-06 1.03956e-06 2.13244e-06 2.52589e-06 1.28592e-06 4.2345e-07 3.25733e-07 2.86817e-07 2.32195e-07 2.25209e-07
threshold=-0.11056518554687499 38.569497073187833 -0.14093017578124997 0.66088867187500011 269688.77676408557 0.98437500000000011 1.418112751987007e-08 111105.34200000011 348.30260545946425 8.4246410429061433e-08 -0.88038454347015538 -0.52661132812499989 0.080884973160350107 0.059951782226562507 105255.19475000001 0.085876464843750014 98412.620000000068 101350.06700000011 -0.89770507812499989 0.32751464843750006 0.024253845214843753 0.26062011718750006 1.7719760099963522e-07 1.2874885251467384e-06 0.14752197265625003 -0.073883056640624986 10366.122604667848 0.47424316406250006 0.65649414062500011 9802.1347181485799
decision_type=2 2 2 2 2 2 2 2 2 2 2 2 2 2 2 2 2 2 2 2 2 2 2 2 2 2 2 2 2 2
left_child=6 2 -2 4 5 10 -1 8 9 -8 -4 12 -11 16 15 17 -3 -15 26 -18 25 -16 -23 24 -24 -21 -19 -26 -28 -27
right_child=1 13 3 -5 -6 -7 7 -9 -10 11 -12 -13 -14 14 21 -17 19 18 -20 20 -22 22 23 -25 27 29 28 -29 -30 -31
leaf_value=0 0 0 6.7104234768736156e-06 0 0 0 0 0 0 0 0 0 -5.6004136152204739e-06 0 0 0 0 0 0 0 0 0 0 0 0 0 -2.8193180815281107e-06 3.484419279542413e-06 0 2.762159692615385e-06
leaf_weight=1212 357 1875 898 92 71 41 119 498 31 322 50 33 923 101 4315 778 231 26 149 47 519 1218 25 22 40 42 3413 1497 66 1953
leaf_count=1212 357 1875 898 92 71 41 119 498 31 322 50 33 923 101 4315 778 231 26 149 47 519 1218 25 22 40 42 3413 1497 66 1953
internal_value=0 1.8323e-07 3.3083e-06 4.34239e-06 5.07543e-06 5.72578e-06 -9.68936e-07 -2.02237e-06 -3.23091e-06 -3.8714e-06 6.27867e-06 -4.40393e-06 -4.67148e-06 0 -2.61728e-07 -1.45878e-06 2.8345e-07 -2.29247e-06 -2.49052e-06 1.42141e-06 1.81641e-06 0 9.63057e-07 2.23741e-06 3.01976e-06 2.55008e-06 -2.70961e-06 3.37027e-06 -2.76241e-06 2.6808e-06
internal_weight=20964 17826 1509 1152 1060 989 3138 1926 1428 1397 948 1278 1245 16317 11650 4533 4667 3755 3654 2792 2561 7117 2802 1584 1562 2042 3505 1537 3479 1995
internal_count=20964 17826 1509 1152 1060 989 3138 1926 1428 1397 948 1278 1245 16317 11650 4533 4667 3755 3654 2792 2561 7117 2802 1584 1562 2042 3505 1537 3479 1995
is_linear=0
shrinkage=0.05


Tree=34
num_leaves=31
num_cat=0
split_feature=17 10 12 18 37 16 10 0 26 24 15 12 39 37 26 37 21 28 2 25 25 38 39 0 39 17 33 24 17 0
split_gain=1.35353e-06 3.19536e-06 2.75227e-06 3.25594e-06 3.86807e-06 2.78425e-06 2.6767e-06 2.66018e-06 1.87406e-06 1.91439e-06 8.37353e-07 7.94793e-07 6.59158e-07 4.10385e-07 3.70995e-07 3.48844e-07 1.49624e-06 1.4819e-06 5.8754e-07 5.5711e-07 4.94196e-07 2.17187e-06 1.28302e-06 6.23342e-07 3.47211e-07 3.30778e-07 3.28488e-07 2.87447e-07 2.4103e-07 2.31901e-07
threshold=0.47790527343750006 107616.52150000009 0.29357910156250006 1.3803605655043851e-05 0.28381347656250006 0.0036029815673828129 104162.89325000001 2.1200054245899773 -0.30871582031249994 0.14300537109375003 0.001244826989991802 0.30895996093750006 0.14373779296875003 -0.012550354003906248 -0.45715332031249994 0.52075195312500011 -26.903315875093774 -0.11679077148437499 34.615424413354667 14562.659902736899 70193.113514066223 0.099365234375000014 -0.19464111328124997 3.5461353548139516 0.25842285156250006 0.64282226562500011 1.1457430851345012e-06 0.097381591796875014 0.51293945312500011 -4.394361886998511
decision_type=2 2 2 2 2 2 2 2 2 2 2 2 2 2 2 2 2 2 2 2 2 2 2 2 2 2 2 2 2 2
left_child=6 2 -2 -4 5 8 15 11 9 -5 -11 -8 -13 -3 -14 16 -1 18 -18 -20 -17 22 -22 -24 -15 27 -21 -26 -29 -12
right_child=1 13 3 4 -6 -7 7 -9 -10 10 29 12 14 24 -16 20 17 -19 19 26 21 -23 23 -25 25 -27 -28 28 -30 -31
leaf_value=0 0 0 0 0 0 0 0 0 0 0 0 0 0 0 2.4964185520401925e-06 0 0 0 0 -4.3991113680549865e-06 0 0 2.502651879841599e-06 0 0 0 0 0 1.4240999967507253e-06 -8.8405075298706457e-06
leaf_weight=89 126 3618 2917 30 90 180 152 565 40 113 23 101 375 126 3146 2762 25 128 21 620 55 782 1825 60 28 220 44 26 1993 684
leaf_count=89 126 3618 2917 30 90 180 152 565 40 113 23 101 375 126 3146 2762 25 128 21 620 55 782 1825 60 28 220 44 26 1993 684
internal_value=0 -4.0575e-07 -1.5168e-06 -2.0148e-06 -4.61336e-06 -5.66655e-06 3.97928e-07 1.39086e-06 -6.81346e-06 -7.35655e-06 -7.86984e-06 1.99656e-06 2.16843e-06 0 2.30325e-06 0 -9.6989e-07 -2.34601e-06 -3.42243e-06 -3.77948e-06 0 6.73702e-07 1.8535e-06 2.2885e-06 6.54764e-07 9.14015e-07 -4.10285e-06 1.15289e-06 1.30518e-06 -8.64827e-06
internal_weight=20964 10214 4203 4077 1160 1070 10750 4339 890 850 820 3774 3622 6011 3521 6411 927 838 710 685 5484 2722 1940 1885 2393 2267 664 2047 2019 707
internal_count=20964 10214 4203 4077 1160 1070 10750 4339 890 850 820 3774 3622 6011 3521 6411 927 838 710 685 5484 2722 1940 1885 2393 2267 664 2047 2019 707
is_linear=0
shrinkage=0.05


Tree=35
num_leaves=31
num_cat=0
split_feature=7 16 33 28 12 2 25 22 25 24 0 14 32 14 0 33 22 12 32 33 38 24 28 37 22 2 22 24 14 22
split_gain=1.31713e-06 5.02492e-06 2.52246e-06 2.0412e-06 1.81838e-06 3.79007e-06 3.31871e-06 3.51068e-06 2.94942e-06 2.59889e-06 2.55365e-06 2.24717e-06 1.83057e-06 2.2151e-06 1.81627e-06 1.71466e-06 1.58889e-06 1.43768e-06 1.37159e-06 1.12891e-06 1.04621e-06 9.29873e-07 7.98615e-07 7.98195e-07 5.46021e-07 6.73741e-07 4.3324e-07 4.37317e-07 3.91321e-07 3.92357e-07
threshold=-0.00086259922158787839 -0.066925048828124986 1.4013939547748386e-06 -0.63012695312499989 0.47082519531250006 53.514129826855829 448369.14729173755 1.8285912557072927e-08 43710.484294143804 0.33068847656250006 -0.48016940840203592 0.1063328888239654 -263.1500000000014 0.12393543625605503 -0.59719707066091898 2.9574171951892708e-06 2.1612270022115668e-07 0.65502929687500011 259.75000000000006 1.462076644787741e-07 -0.70629882812499989 0.47961425781250006 0.71557617187500011 1.2192382812500002 1.5763050287132687e-07 40.194617679519467 1.5219485556146194e-08 0.26062011718750006 0.070754302148185913 4.5749770986049099e-07
decision_type=2 2 2 2 2 2 2 2 2 2 2 2 2 2 2 2 2 2 2 2 2 2 2 2 2 2 2 2 2 2
left_child=1 -1 3 -3 5 -2 7 -7 11 14 -10 -6 -12 -14 -9 19 21 18 23 -16 -13 22 26 -5 25 -22 -15 -28 -21 -30
right_child=4 2 -4 17 8 6 -8 9 10 -11 12 20 13 16 15 -17 -18 -19 -20 28 24 -23 -24 -25 -26 -27 27 -29 29 -31
leaf_value=0 0 0 0 5.3764203071359521e-06 0 0 0 0 0 0 0 0 0 0 0 0 0 0 0 0 0 0 0 0 0 -3.5558474381947632e-06 0 4.0125746799853641e-06 -5.3904382166966751e-06 0
leaf_weight=1149 4067 166 188 1237 4511 214 137 27 1463 22 77 53 1941 29 107 29 59 96 109 43 50 108 64 43 21 1027 86 2027 1780 34
leaf_count=1149 4067 166 188 1237 4511 214 137 27 1463 22 77 53 1941 29 107 29 59 96 109 43 50 108 64 43 21 1027 86 2027 1780 34
internal_value=0 9.62704e-07 2.8873e-06 3.6201e-06 -1.70643e-07 -8.85846e-07 -2.4653e-06 -3.18186e-06 0 -3.93486e-06 9.84125e-07 -5.48561e-07 1.65682e-06 1.96338e-06 -4.34373e-06 -4.62621e-06 3.05637e-06 4.24336e-06 4.6731e-06 -4.88879e-06 -2.52204e-06 3.36096e-06 3.59205e-06 5.13576e-06 -3.00825e-06 -3.23934e-06 3.77099e-06 3.86369e-06 -5.17659e-06 -5.28881e-06
internal_weight=20964 2988 1839 1651 17976 6460 2393 2256 11516 2042 5854 5662 4391 4314 2020 1993 2373 1485 1389 1964 1151 2314 2206 1280 1098 1077 2142 2113 1857 1814
internal_count=20964 2988 1839 1651 17976 6460 2393 2256 11516 2042 5854 5662 4391 4314 2020 1993 2373 1485 1389 1964 1151 2314 2206 1280 1098 1077 2142 2113 1857 1814
is_linear=0
shrinkage=0.05


Tree=36
num_leaves=31
num_cat=0
split_feature=2 26 12 39 10 10 7 39 32 25 23 0 26 28 5 32 22 39 17 27 22 23 27 24 26 23 0 10 39 23
split_gain=1.11112e-06 7.78558e-06 1.92455e-06 1.71598e-06 2.3956e-06 1.89465e-06 2.36115e-06 1.48775e-06 1.60228e-06 2.58481e-06 1.48626e-06 1.37918e-06 1.3356e-06 1.27856e-06 1.33073e-06 1.29636e-06 1.01427e-06 9.37509e-07 1.03317e-06 6.8212e-07 6.5356e-07 3.53113e-07 6.73581e-07 3.42241e-07 3.35347e-07 8.93682e-07 1.3843e-06 8.05362e-07 8.31539e-07 8.26519e-07
threshold=41.021892473465655 -0.42468261718749994 0.66088867187500011 0.19390869140625003 108668.85300000015 104162.89325000001 0.0021098559090842344 0.37145996093750006 -155.74999999999997 269688.77676408557 0.084259033203125014 3.2215720318896062 -0.10824584960937499 -0.17968749999999997 65.595173329577406 466.25000000000006 7.4991581311169008e-09 0.14373779296875003 0.43811035156250006 396434.29903880355 2.496803538202255e-08 0.14788818359375003 29348.079194235685 0.39733886718750006 -0.094421386718749986 -0.088104248046874986 -1.5099319424289142 94317.839000000109 0.18853759765625003 0.18737792968750003
decision_type=2 2 2 2 2 2 2 2 2 2 2 2 2 2 2 2 2 2 2 2 2 2 2 2 2 2 2 2 2 2
left_child=1 -1 7 5 10 24 11 8 9 19 13 12 17 14 -5 16 -16 -7 -19 20 -3 22 -22 -18 25 -2 -27 -28 29 -29
right_child=3 2 -4 4 -6 6 -8 -9 -10 -11 -12 -13 -14 -15 15 -17 23 18 -20 -21 21 -23 -24 -25 -26 26 27 28 -30 -31
leaf_value=0 0 0 0 0 0 0 0 0 0 0 0 0 0 0 0 0 -2.2205910933533937e-06 4.1243470166580293e-06 0 0 0 0 9.437230261263127e-06 0 0 0 0 -1.9531250941302336e-06 0 0
leaf_weight=1464 586 63 150 931 3063 76 156 57 572 58 503 60 53 222 191 153 5601 1314 130 23 44 52 524 20 1026 236 80 3327 69 160
leaf_count=1464 586 63 150 931 3063 76 156 57 572 58 503 60 53 222 191 153 5601 1314 130 23 44 52 524 20 1026 236 80 3327 69 160
internal_value=0 8.76203e-07 3.75628e-06 -1.61637e-07 -6.67412e-07 0 1.62711e-06 4.36836e-06 4.7624e-06 6.70084e-06 -1.18756e-06 2.55243e-06 2.99253e-06 -1.42547e-06 -1.60028e-06 -1.87571e-06 -2.0417e-06 3.38585e-06 3.70005e-06 7.59877e-06 7.88554e-06 8.43411e-06 8.8994e-06 -2.18203e-06 0 -4.33653e-07 -8.90795e-07 -1.34045e-06 -1.55029e-06 -1.7456e-06
internal_weight=20964 3007 1543 17957 10684 7273 1789 1393 1336 764 7621 1633 1573 7118 6896 5965 5812 1520 1444 706 683 620 568 5621 5484 4458 3872 3636 3556 3487
internal_count=20964 3007 1543 17957 10684 7273 1789 1393 1336 764 7621 1633 1573 7118 6896 5965 5812 1520 1444 706 683 620 568 5621 5484 4458 3872 3636 3556 3487
is_linear=0
shrinkage=0.05


Tree=37
num_leaves=31
num_cat=0
split_feature=16 2 22 38 23 12 25 38 7 0 27 33 10 34 10 37 37 10 27 39 35 33 39 18 35 28 27 18 27 25
split_gain=1.12375e-06 5.13574e-06 1.69152e-06 2.56398e-06 1.64616e-06 1.94226e-06 1.77301e-06 1.79762e-06 1.20972e-06 1.88997e-06 1.17236e-06 1.2738e-06 6.33109e-07 5.47546e-07 3.18753e-07 7.53259e-06 2.74579e-06 2.18629e-06 1.97314e-06 1.88916e-06 1.46252e-06 1.73692e-06 1.76579e-06 1.63629e-06 1.25225e-06 1.24644e-06 8.42016e-07 7.70315e-07 8.70387e-07 7.02844e-07
threshold=-0.11056518554687499 38.569497073187833 1.418112751987007e-08 0.99682617187500011 -0.14093017578124997 0.66088867187500011 269688.77676408557 0.98437500000000011 -0.00080299601224680746 -0.88038454347015538 275958.10150968714 8.241001602915502e-08 111105.34200000011 6.8168037706481092e-09 105233.95450000008 0.51147460937500011 0.16546630859375003 102970.30025000006 289039.89763339359 0.28918457031250006 -0.87866210937499989 1.7870839421920023e-07 0.14373779296875003 3.880131393054965e-05 -0.90161132812499989 -0.17968749999999997 360287.38632028323 6.0882856198986726e-06 17298.838241622259 68444.187152665632
decision_type=2 2 2 2 2 2 2 2 2 2 2 2 2 2 2 2 2 2 2 2 2 2 2 2 2 2 2 2 2 2
left_child=2 4 -1 10 -2 6 7 8 9 -6 11 -4 13 -13 15 17 -16 -3 24 20 21 -18 -23 26 25 -19 27 -24 -29 -17
right_child=1 14 3 -5 5 -7 -8 -9 -10 -11 -12 12 -14 -15 16 29 19 18 -20 -21 -22 22 23 -25 -26 -27 -28 28 -30 -31
leaf_value=0 0 0 0 0 7.1396414603558701e-06 0 0 0 0 0 0 0 0 -4.2618139618169494e-06 0 0 0 -4.2792477332974219e-06 0 0 0 0 0 0 0 0 0 0 4.458010315471665e-06 7.4638298862714158e-07
leaf_weight=1212 357 162 109 457 764 92 71 41 154 30 32 40 74 1214 3950 3013 1011 1975 93 152 202 48 83 112 226 335 27 43 1731 3154
leaf_count=1212 357 162 109 457 764 92 71 41 154 30 32 40 74 1214 3950 3013 1011 1975 93 152 202 48 83 112 226 335 27 43 1731 3154
internal_value=0 1.61232e-07 -8.64628e-07 -1.84757e-06 2.96901e-06 3.88827e-06 4.58378e-06 5.19621e-06 5.73658e-06 6.56496e-06 -2.97297e-06 -3.32789e-06 -3.7923e-06 -4.06106e-06 0 -2.77774e-07 1.19841e-07 -2.64473e-06 -3.08294e-06 1.42989e-06 1.89473e-06 2.24147e-06 3.10377e-06 3.47514e-06 -3.43484e-06 -3.78253e-06 3.86855e-06 4.0394e-06 4.26212e-06 0
